digraph Tree {
0 [label="mmc1_mass <= 100.3056\ngini = 0.499634322182\nsamples = 20609", shape="box"] ;
1 [label="mmc1_mass <= 85.1241\ngini = 0.477599994455\nsamples = 7643", shape="box"] ;
0 -> 1 ;
2 [label="tau_pt_ratio <= 1.3685\ngini = 0.421287923005\nsamples = 3516", shape="box"] ;
1 -> 2 ;
3 [label="sum_pt_full <= 211847.5625\ngini = 0.328611992735\nsamples = 1120", shape="box"] ;
2 -> 3 ;
4 [label="gini = 0.4075\nsamples = 582\nvalue = [ 0.01115741  0.00444704]", shape="box"] ;
3 -> 4 ;
5 [label="gini = 0.2099\nsamples = 538\nvalue = [ 0.01212132  0.0016393 ]", shape="box"] ;
3 -> 5 ;
6 [label="dR_tau1_tau2 <= 1.2999\ngini = 0.444139058259\nsamples = 2396", shape="box"] ;
2 -> 6 ;
7 [label="sum_pt_full <= 268733.1250\ngini = 0.402326696141\nsamples = 1538", shape="box"] ;
6 -> 7 ;
8 [label="tau_pt_ratio <= 1.7575\ngini = 0.331394673068\nsamples = 827", shape="box"] ;
7 -> 8 ;
9 [label="gini = 0.4071\nsamples = 383\nvalue = [ 0.00773292  0.00307523]", shape="box"] ;
8 -> 9 ;
10 [label="gini = 0.2330\nsamples = 444\nvalue = [ 0.00933517  0.00145231]", shape="box"] ;
8 -> 10 ;
11 [label="MET_centrality <= 0.8431\ngini = 0.443410047009\nsamples = 711", shape="box"] ;
7 -> 11 ;
12 [label="gini = 0.4986\nsamples = 219\nvalue = [ 0.0061118   0.00548979]", shape="box"] ;
11 -> 12 ;
13 [label="gini = 0.3585\nsamples = 492\nvalue = [ 0.01285182  0.00392627]", shape="box"] ;
11 -> 13 ;
14 [label="sum_pt_full <= 221146.5625\ngini = 0.480991531888\nsamples = 858", shape="box"] ;
6 -> 14 ;
15 [label="gini = 0.3988\nsamples = 524\nvalue = [ 0.01315706  0.0049932 ]", shape="box"] ;
14 -> 15 ;
16 [label="mmc1_mass <= 80.3369\ngini = 0.499533800406\nsamples = 334", shape="box"] ;
14 -> 16 ;
17 [label="gini = 0.4922\nsamples = 159\nvalue = [ 0.00429928  0.00552299]", shape="box"] ;
16 -> 17 ;
18 [label="gini = 0.4984\nsamples = 175\nvalue = [ 0.00564179  0.0050443 ]", shape="box"] ;
16 -> 18 ;
19 [label="MET_centrality <= 1.2528\ngini = 0.490869844765\nsamples = 4127", shape="box"] ;
1 -> 19 ;
20 [label="tau_pt_ratio <= 3.6468\ngini = 0.478168137169\nsamples = 2470", shape="box"] ;
19 -> 20 ;
21 [label="dR_tau1_tau2 <= 1.0096\ngini = 0.472308145116\nsamples = 2292", shape="box"] ;
20 -> 21 ;
22 [label="gini = 0.2997\nsamples = 223\nvalue = [ 0.00890726  0.00200199]", shape="box"] ;
21 -> 22 ;
23 [label="mmc1_mass <= 94.3293\ngini = 0.479216833197\nsamples = 2069", shape="box"] ;
21 -> 23 ;
24 [label="mmc1_mass <= 87.0435\ngini = 0.458136839557\nsamples = 1219", shape="box"] ;
23 -> 24 ;
25 [label="gini = 0.4947\nsamples = 244\nvalue = [ 0.00917197  0.00746119]", shape="box"] ;
24 -> 25 ;
26 [label="mmc1_mass <= 90.5066\ngini = 0.440495710278\nsamples = 975", shape="box"] ;
24 -> 26 ;
27 [label="MET_centrality <= 0.8180\ngini = 0.386256344942\nsamples = 462", shape="box"] ;
26 -> 27 ;
28 [label="gini = 0.4573\nsamples = 182\nvalue = [ 0.00644139  0.00352867]", shape="box"] ;
27 -> 28 ;
29 [label="gini = 0.3068\nsamples = 280\nvalue = [ 0.01032497  0.0024089 ]", shape="box"] ;
27 -> 29 ;
30 [label="tau_pt_ratio <= 1.4434\ngini = 0.467650239763\nsamples = 513", shape="box"] ;
26 -> 30 ;
31 [label="gini = 0.3810\nsamples = 178\nvalue = [ 0.00726334  0.00249969]", shape="box"] ;
30 -> 31 ;
32 [label="sum_pt_full <= 258407.5000\ngini = 0.487751662811\nsamples = 335", shape="box"] ;
30 -> 32 ;
33 [label="gini = 0.4989\nsamples = 194\nvalue = [ 0.00695818  0.00632281]", shape="box"] ;
32 -> 33 ;
34 [label="gini = 0.4549\nsamples = 141\nvalue = [ 0.0065181   0.00350591]", shape="box"] ;
32 -> 34 ;
35 [label="sum_pt_full <= 298139.2500\ngini = 0.494019252556\nsamples = 850", shape="box"] ;
23 -> 35 ;
36 [label="dR_tau1_tau2 <= 1.4846\ngini = 0.486134805425\nsamples = 634", shape="box"] ;
35 -> 36 ;
37 [label="gini = 0.4490\nsamples = 264\nvalue = [ 0.01279908  0.00660147]", shape="box"] ;
36 -> 37 ;
38 [label="dR_tau1_tau2 <= 1.5671\ngini = 0.49838236485\nsamples = 370", shape="box"] ;
36 -> 38 ;
39 [label="gini = 0.4751\nsamples = 114\nvalue = [ 0.00406314  0.00639621]", shape="box"] ;
38 -> 39 ;
40 [label="gini = 0.4728\nsamples = 256\nvalue = [ 0.01023618  0.00636398]", shape="box"] ;
38 -> 40 ;
41 [label="gini = 0.4995\nsamples = 216\nvalue = [ 0.00922508  0.00979981]", shape="box"] ;
35 -> 41 ;
42 [label="gini = 0.4932\nsamples = 178\nvalue = [ 0.00533029  0.00673441]", shape="box"] ;
20 -> 42 ;
43 [label="mmc1_mass <= 95.4096\ngini = 0.499208931132\nsamples = 1657", shape="box"] ;
19 -> 43 ;
44 [label="sum_pt_full <= 184716.5938\ngini = 0.492600760826\nsamples = 1013", shape="box"] ;
43 -> 44 ;
45 [label="gini = 0.4942\nsamples = 124\nvalue = [ 0.00492021  0.00610461]", shape="box"] ;
44 -> 45 ;
46 [label="sum_pt_full <= 207736.2656\ngini = 0.486674916263\nsamples = 889", shape="box"] ;
44 -> 46 ;
47 [label="gini = 0.4209\nsamples = 170\nvalue = [ 0.00722593  0.00311381]", shape="box"] ;
46 -> 47 ;
48 [label="dR_tau1_tau2 <= 1.4028\ngini = 0.493373406475\nsamples = 719", shape="box"] ;
46 -> 48 ;
49 [label="sum_pt_full <= 311487.7500\ngini = 0.476182499789\nsamples = 443", shape="box"] ;
48 -> 49 ;
50 [label="gini = 0.4117\nsamples = 253\nvalue = [ 0.01162295  0.00474578]", shape="box"] ;
49 -> 50 ;
51 [label="gini = 0.4999\nsamples = 190\nvalue = [ 0.00705486  0.00723965]", shape="box"] ;
49 -> 51 ;
52 [label="dR_tau1_tau2 <= 1.5257\ngini = 0.498972130348\nsamples = 276", shape="box"] ;
48 -> 52 ;
53 [label="gini = 0.4814\nsamples = 119\nvalue = [ 0.00393983  0.00582531]", shape="box"] ;
52 -> 53 ;
54 [label="gini = 0.4950\nsamples = 157\nvalue = [ 0.00546727  0.00447534]", shape="box"] ;
52 -> 54 ;
55 [label="mmc1_mass <= 96.2645\ngini = 0.497448753631\nsamples = 644", shape="box"] ;
43 -> 55 ;
56 [label="gini = 0.4542\nsamples = 105\nvalue = [ 0.00341938  0.00638533]", shape="box"] ;
55 -> 56 ;
57 [label="mmc1_mass <= 97.6506\ngini = 0.499824147467\nsamples = 539", shape="box"] ;
55 -> 57 ;
58 [label="gini = 0.4865\nsamples = 180\nvalue = [ 0.00823087  0.00590859]", shape="box"] ;
57 -> 58 ;
59 [label="mmc1_mass <= 98.8723\ngini = 0.494126631269\nsamples = 359", shape="box"] ;
57 -> 59 ;
60 [label="gini = 0.4404\nsamples = 163\nvalue = [ 0.00438504  0.00900952]", shape="box"] ;
59 -> 60 ;
61 [label="gini = 0.4953\nsamples = 196\nvalue = [ 0.00848485  0.00698923]", shape="box"] ;
59 -> 61 ;
62 [label="mmc1_mass <= 177.6548\ngini = 0.482242485266\nsamples = 12966", shape="box"] ;
0 -> 62 ;
63 [label="mmc1_mass <= 109.8265\ngini = 0.480349082896\nsamples = 12783", shape="box"] ;
62 -> 63 ;
64 [label="dR_tau1_tau2 <= 1.5839\ngini = 0.495947160141\nsamples = 2877", shape="box"] ;
63 -> 64 ;
65 [label="dR_tau1_tau2 <= 1.5327\ngini = 0.487871684635\nsamples = 1699", shape="box"] ;
64 -> 65 ;
66 [label="dR_tau1_tau2 <= 1.4434\ngini = 0.492863099781\nsamples = 1539", shape="box"] ;
65 -> 66 ;
67 [label="MET_centrality <= 1.0016\ngini = 0.486776406625\nsamples = 1224", shape="box"] ;
66 -> 67 ;
68 [label="dR_tau1_tau2 <= 1.2849\ngini = 0.496944763959\nsamples = 411", shape="box"] ;
67 -> 68 ;
69 [label="MET_centrality <= 0.6356\ngini = 0.499791202008\nsamples = 262", shape="box"] ;
68 -> 69 ;
70 [label="gini = 0.4788\nsamples = 104\nvalue = [ 0.00386815  0.00587188]", shape="box"] ;
69 -> 70 ;
71 [label="gini = 0.4770\nsamples = 158\nvalue = [ 0.00689108  0.00445642]", shape="box"] ;
69 -> 71 ;
72 [label="gini = 0.4631\nsamples = 149\nvalue = [ 0.00391138  0.00683038]", shape="box"] ;
68 -> 72 ;
73 [label="tau_pt_ratio <= 1.7119\ngini = 0.476269167172\nsamples = 813", shape="box"] ;
67 -> 73 ;
74 [label="sum_pt_full <= 300971.5000\ngini = 0.495569897269\nsamples = 350", shape="box"] ;
73 -> 74 ;
75 [label="gini = 0.4760\nsamples = 192\nvalue = [ 0.00464436  0.00724707]", shape="box"] ;
74 -> 75 ;
76 [label="gini = 0.4992\nsamples = 158\nvalue = [ 0.00576695  0.00532792]", shape="box"] ;
74 -> 76 ;
77 [label="mmc1_mass <= 105.7354\ngini = 0.446016321521\nsamples = 463", shape="box"] ;
73 -> 77 ;
78 [label="gini = 0.4791\nsamples = 242\nvalue = [ 0.00617898  0.00935013]", shape="box"] ;
77 -> 78 ;
79 [label="gini = 0.3654\nsamples = 221\nvalue = [ 0.00244379  0.00771243]", shape="box"] ;
77 -> 79 ;
80 [label="tau_pt_ratio <= 1.6071\ngini = 0.498502970288\nsamples = 315", shape="box"] ;
66 -> 80 ;
81 [label="gini = 0.4926\nsamples = 142\nvalue = [ 0.00564479  0.00442162]", shape="box"] ;
80 -> 81 ;
82 [label="gini = 0.4999\nsamples = 173\nvalue = [ 0.0048722   0.00500414]", shape="box"] ;
80 -> 82 ;
83 [label="gini = 0.3967\nsamples = 160\nvalue = [ 0.00332538  0.00886773]", shape="box"] ;
65 -> 83 ;
84 [label="MET_centrality <= 0.8672\ngini = 0.499997292419\nsamples = 1178", shape="box"] ;
64 -> 84 ;
85 [label="gini = 0.4699\nsamples = 163\nvalue = [ 0.00726653  0.00440378]", shape="box"] ;
84 -> 85 ;
86 [label="mmc1_mass <= 102.0503\ngini = 0.499236153836\nsamples = 1015", shape="box"] ;
84 -> 86 ;
87 [label="gini = 0.4774\nsamples = 157\nvalue = [ 0.00630461  0.00409503]", shape="box"] ;
86 -> 87 ;
88 [label="dR_tau1_tau2 <= 1.6505\ngini = 0.496460718897\nsamples = 858", shape="box"] ;
86 -> 88 ;
89 [label="gini = 0.4886\nsamples = 165\nvalue = [ 0.0064907   0.00478624]", shape="box"] ;
88 -> 89 ;
90 [label="mmc1_mass <= 104.1922\ngini = 0.490082982966\nsamples = 693", shape="box"] ;
88 -> 90 ;
91 [label="gini = 0.4439\nsamples = 160\nvalue = [ 0.00396384  0.00795593]", shape="box"] ;
90 -> 91 ;
92 [label="tau_pt_ratio <= 1.8019\ngini = 0.497224855121\nsamples = 533", shape="box"] ;
90 -> 92 ;
93 [label="MET_centrality <= 1.2721\ngini = 0.489904052053\nsamples = 295", shape="box"] ;
92 -> 93 ;
94 [label="gini = 0.4587\nsamples = 152\nvalue = [ 0.00351672  0.00635467]", shape="box"] ;
93 -> 94 ;
95 [label="gini = 0.5000\nsamples = 143\nvalue = [ 0.00530691  0.00539197]", shape="box"] ;
93 -> 95 ;
96 [label="gini = 0.4997\nsamples = 238\nvalue = [ 0.00731489  0.00699011]", shape="box"] ;
92 -> 96 ;
97 [label="dR_tau1_tau2 <= 1.7450\ngini = 0.468380802846\nsamples = 9906", shape="box"] ;
63 -> 97 ;
98 [label="mmc1_mass <= 121.8156\ngini = 0.445499733046\nsamples = 6478", shape="box"] ;
97 -> 98 ;
99 [label="dR_tau1_tau2 <= 1.5471\ngini = 0.461700852314\nsamples = 3174", shape="box"] ;
98 -> 99 ;
100 [label="dR_tau1_tau2 <= 1.4731\ngini = 0.442129933204\nsamples = 2299", shape="box"] ;
99 -> 100 ;
101 [label="dR_tau1_tau2 <= 1.3433\ngini = 0.453901420199\nsamples = 1977", shape="box"] ;
100 -> 101 ;
102 [label="MET_centrality <= 0.7644\ngini = 0.426161109549\nsamples = 1433", shape="box"] ;
101 -> 102 ;
103 [label="gini = 0.4839\nsamples = 241\nvalue = [ 0.00455114  0.00653979]", shape="box"] ;
102 -> 103 ;
104 [label="tau_pt_ratio <= 1.8224\ngini = 0.397409697224\nsamples = 1192", shape="box"] ;
102 -> 104 ;
105 [label="gini = 0.3404\nsamples = 662\nvalue = [ 0.00357253  0.01285283]", shape="box"] ;
104 -> 105 ;
106 [label="gini = 0.4413\nsamples = 530\nvalue = [ 0.00548152  0.01119559]", shape="box"] ;
104 -> 106 ;
107 [label="MET_centrality <= 1.2380\ngini = 0.491572932115\nsamples = 544", shape="box"] ;
101 -> 107 ;
108 [label="gini = 0.4590\nsamples = 302\nvalue = [ 0.00355498  0.00640783]", shape="box"] ;
107 -> 108 ;
109 [label="gini = 0.4998\nsamples = 242\nvalue = [ 0.0053666   0.00517582]", shape="box"] ;
107 -> 109 ;
110 [label="gini = 0.3480\nsamples = 322\nvalue = [ 0.0025145   0.00869322]", shape="box"] ;
100 -> 110 ;
111 [label="dR_tau1_tau2 <= 1.6933\ngini = 0.48579562123\nsamples = 875", shape="box"] ;
99 -> 111 ;
112 [label="MET_centrality <= 1.3178\ngini = 0.494402352818\nsamples = 662", shape="box"] ;
111 -> 112 ;
113 [label="tau_pt_ratio <= 1.6703\ngini = 0.481664718599\nsamples = 460", shape="box"] ;
112 -> 113 ;
114 [label="gini = 0.4976\nsamples = 244\nvalue = [ 0.00644657  0.007401  ]", shape="box"] ;
113 -> 114 ;
115 [label="gini = 0.4369\nsamples = 216\nvalue = [ 0.00334222  0.00702477]", shape="box"] ;
113 -> 115 ;
116 [label="gini = 0.4944\nsamples = 202\nvalue = [ 0.00541856  0.00438049]", shape="box"] ;
112 -> 116 ;
117 [label="gini = 0.4308\nsamples = 213\nvalue = [ 0.00329277  0.00719443]", shape="box"] ;
111 -> 117 ;
118 [label="mmc1_mass <= 129.3108\ngini = 0.417474852394\nsamples = 3304", shape="box"] ;
98 -> 118 ;
119 [label="mmc1_mass <= 126.3103\ngini = 0.368595838461\nsamples = 1563", shape="box"] ;
118 -> 119 ;
120 [label="sum_pt_full <= 309266.1250\ngini = 0.401056101627\nsamples = 1022", shape="box"] ;
119 -> 120 ;
121 [label="gini = 0.3280\nsamples = 438\nvalue = [ 0.00213212  0.00818071]", shape="box"] ;
120 -> 121 ;
122 [label="gini = 0.4403\nsamples = 584\nvalue = [ 0.00481351  0.00989598]", shape="box"] ;
120 -> 122 ;
123 [label="gini = 0.2755\nsamples = 541\nvalue = [ 0.00177728  0.00899756]", shape="box"] ;
119 -> 123 ;
124 [label="mmc1_mass <= 133.1987\ngini = 0.446206424756\nsamples = 1741", shape="box"] ;
118 -> 124 ;
125 [label="gini = 0.4834\nsamples = 596\nvalue = [ 0.00676187  0.00977331]", shape="box"] ;
124 -> 125 ;
126 [label="MET_centrality <= 1.1591\ngini = 0.418760428442\nsamples = 1145", shape="box"] ;
124 -> 126 ;
127 [label="gini = 0.3176\nsamples = 532\nvalue = [ 0.00288623  0.01168867]", shape="box"] ;
126 -> 127 ;
128 [label="gini = 0.4721\nsamples = 613\nvalue = [ 0.00670231  0.01084989]", shape="box"] ;
126 -> 128 ;
129 [label="sum_pt_full <= 360594.9688\ngini = 0.486335886033\nsamples = 3428", shape="box"] ;
97 -> 129 ;
130 [label="tau_pt_ratio <= 3.3770\ngini = 0.482795278266\nsamples = 3269", shape="box"] ;
129 -> 130 ;
131 [label="MET_centrality <= 0.6098\ngini = 0.486324948632\nsamples = 3066", shape="box"] ;
130 -> 131 ;
132 [label="gini = 0.4922\nsamples = 221\nvalue = [ 0.00800797  0.00623176]", shape="box"] ;
131 -> 132 ;
133 [label="tau_pt_ratio <= 2.7865\ngini = 0.481475661273\nsamples = 2845", shape="box"] ;
131 -> 133 ;
134 [label="MET_centrality <= 1.1754\ngini = 0.476986157618\nsamples = 2640", shape="box"] ;
133 -> 134 ;
135 [label="mmc1_mass <= 116.5107\ngini = 0.446278718724\nsamples = 1018", shape="box"] ;
134 -> 135 ;
136 [label="gini = 0.4975\nsamples = 180\nvalue = [ 0.00473386  0.00544875]", shape="box"] ;
135 -> 136 ;
137 [label="sum_pt_full <= 207666.0156\ngini = 0.421303806832\nsamples = 838", shape="box"] ;
135 -> 137 ;
138 [label="gini = 0.3346\nsamples = 238\nvalue = [ 0.00216959  0.00804544]", shape="box"] ;
137 -> 138 ;
139 [label="sum_pt_full <= 227565.7812\ngini = 0.445150465078\nsamples = 600", shape="box"] ;
137 -> 139 ;
140 [label="gini = 0.4917\nsamples = 204\nvalue = [ 0.00441045  0.00571935]", shape="box"] ;
139 -> 140 ;
141 [label="gini = 0.4002\nsamples = 396\nvalue = [ 0.00489524  0.01280333]", shape="box"] ;
139 -> 141 ;
142 [label="sum_pt_full <= 188108.1562\ngini = 0.487816770446\nsamples = 1622", shape="box"] ;
134 -> 142 ;
143 [label="MET_centrality <= 1.3209\ngini = 0.49851083382\nsamples = 270", shape="box"] ;
142 -> 143 ;
144 [label="gini = 0.5000\nsamples = 126\nvalue = [ 0.00485542  0.0048894 ]", shape="box"] ;
143 -> 144 ;
145 [label="gini = 0.4936\nsamples = 144\nvalue = [ 0.0054152   0.00431822]", shape="box"] ;
143 -> 145 ;
146 [label="tau_pt_ratio <= 1.1566\ngini = 0.477618136824\nsamples = 1352", shape="box"] ;
142 -> 146 ;
147 [label="gini = 0.4165\nsamples = 202\nvalue = [ 0.00292653  0.00697318]", shape="box"] ;
146 -> 147 ;
148 [label="MET_centrality <= 1.2462\ngini = 0.483600507105\nsamples = 1150", shape="box"] ;
146 -> 148 ;
149 [label="gini = 0.4999\nsamples = 194\nvalue = [ 0.00617527  0.00635637]", shape="box"] ;
148 -> 149 ;
150 [label="dR_tau1_tau2 <= 2.0531\ngini = 0.475440478871\nsamples = 956", shape="box"] ;
148 -> 150 ;
151 [label="dR_tau1_tau2 <= 1.8843\ngini = 0.453204192146\nsamples = 690", shape="box"] ;
150 -> 151 ;
152 [label="gini = 0.4790\nsamples = 340\nvalue = [ 0.00594422  0.00900694]", shape="box"] ;
151 -> 152 ;
153 [label="gini = 0.4197\nsamples = 350\nvalue = [ 0.0047745  0.0111608]", shape="box"] ;
151 -> 153 ;
154 [label="dR_tau1_tau2 <= 2.1774\ngini = 0.495435820614\nsamples = 266", shape="box"] ;
150 -> 154 ;
155 [label="gini = 0.4992\nsamples = 140\nvalue = [ 0.00558283  0.0051623 ]", shape="box"] ;
154 -> 155 ;
156 [label="gini = 0.4708\nsamples = 126\nvalue = [ 0.00375583  0.00614934]", shape="box"] ;
154 -> 156 ;
157 [label="gini = 0.4952\nsamples = 205\nvalue = [ 0.00590698  0.00485267]", shape="box"] ;
133 -> 157 ;
158 [label="gini = 0.3673\nsamples = 203\nvalue = [ 0.00246635  0.00770674]", shape="box"] ;
130 -> 158 ;
159 [label="gini = 0.4832\nsamples = 159\nvalue = [ 0.00605676  0.00417923]", shape="box"] ;
129 -> 159 ;
160 [label="gini = 0.4567\nsamples = 183\nvalue = [ 0.00767646  0.00418602]", shape="box"] ;
62 -> 160 ;
}