digraph Tree {
0 [label="mmc1_mass <= 100.3056\ngini = 0.499692813224\nsamples = 20609", shape="box"] ;
1 [label="mmc1_mass <= 83.9482\ngini = 0.481737117949\nsamples = 7643", shape="box"] ;
0 -> 1 ;
2 [label="tau_pt_ratio <= 1.9940\ngini = 0.427627451871\nsamples = 3217", shape="box"] ;
1 -> 2 ;
3 [label="dR_tau1_tau2 <= 1.4862\ngini = 0.388980406662\nsamples = 2261", shape="box"] ;
2 -> 3 ;
4 [label="mmc1_mass <= 70.3521\ngini = 0.352092757929\nsamples = 1977", shape="box"] ;
3 -> 4 ;
5 [label="mmc1_mass <= 63.9198\ngini = 0.441003473077\nsamples = 850", shape="box"] ;
4 -> 5 ;
6 [label="gini = 0.4032\nsamples = 528\nvalue = [ 0.00707529  0.00275154]", shape="box"] ;
5 -> 6 ;
7 [label="gini = 0.4678\nsamples = 322\nvalue = [ 0.00660944  0.00393547]", shape="box"] ;
5 -> 7 ;
8 [label="MET_centrality <= 1.2041\ngini = 0.264835185045\nsamples = 1127", shape="box"] ;
4 -> 8 ;
9 [label="gini = 0.3206\nsamples = 622\nvalue = [ 0.01315007  0.00329818]", shape="box"] ;
8 -> 9 ;
10 [label="gini = 0.1786\nsamples = 505\nvalue = [ 0.0110959   0.00122069]", shape="box"] ;
8 -> 10 ;
11 [label="gini = 0.4782\nsamples = 284\nvalue = [ 0.00823453  0.00538705]", shape="box"] ;
3 -> 11 ;
12 [label="tau_pt_ratio <= 2.1803\ngini = 0.473966483893\nsamples = 956", shape="box"] ;
2 -> 12 ;
13 [label="gini = 0.4944\nsamples = 228\nvalue = [ 0.00437001  0.00540281]", shape="box"] ;
12 -> 13 ;
14 [label="tau_pt_ratio <= 3.2881\ngini = 0.440051537021\nsamples = 728", shape="box"] ;
12 -> 14 ;
15 [label="gini = 0.3701\nsamples = 560\nvalue = [ 0.01318812  0.00428253]", shape="box"] ;
14 -> 15 ;
16 [label="gini = 0.4979\nsamples = 168\nvalue = [ 0.0054119   0.00474956]", shape="box"] ;
14 -> 16 ;
17 [label="mmc1_mass <= 94.7467\ngini = 0.491755168786\nsamples = 4426", shape="box"] ;
1 -> 17 ;
18 [label="dR_tau1_tau2 <= 1.2224\ngini = 0.481474883974\nsamples = 2776", shape="box"] ;
17 -> 18 ;
19 [label="tau_pt_ratio <= 2.3159\ngini = 0.454051951686\nsamples = 846", shape="box"] ;
18 -> 19 ;
20 [label="mmc1_mass <= 90.7468\ngini = 0.41426647599\nsamples = 572", shape="box"] ;
19 -> 20 ;
21 [label="gini = 0.3590\nsamples = 371\nvalue = [ 0.01309574  0.00401134]", shape="box"] ;
20 -> 21 ;
22 [label="gini = 0.4667\nsamples = 201\nvalue = [ 0.00805981  0.00475428]", shape="box"] ;
20 -> 22 ;
23 [label="gini = 0.4929\nsamples = 274\nvalue = [ 0.01009155  0.00794377]", shape="box"] ;
19 -> 23 ;
24 [label="sum_pt_full <= 342720.1875\ngini = 0.488821677478\nsamples = 1930", shape="box"] ;
18 -> 24 ;
25 [label="MET_centrality <= 1.0801\ngini = 0.481490077594\nsamples = 1794", shape="box"] ;
24 -> 25 ;
26 [label="sum_pt_full <= 190234.3438\ngini = 0.454641799275\nsamples = 731", shape="box"] ;
25 -> 26 ;
27 [label="gini = 0.4940\nsamples = 134\nvalue = [ 0.0054326   0.00435823]", shape="box"] ;
26 -> 27 ;
28 [label="mmc1_mass <= 89.2078\ngini = 0.434248001703\nsamples = 597", shape="box"] ;
26 -> 28 ;
29 [label="gini = 0.3201\nsamples = 293\nvalue = [ 0.01008486  0.00252199]", shape="box"] ;
28 -> 29 ;
30 [label="gini = 0.4809\nsamples = 304\nvalue = [ 0.01070111  0.00720054]", shape="box"] ;
28 -> 30 ;
31 [label="dR_tau1_tau2 <= 1.4028\ngini = 0.491479468693\nsamples = 1063", shape="box"] ;
25 -> 31 ;
32 [label="gini = 0.4600\nsamples = 302\nvalue = [ 0.01167897  0.00652662]", shape="box"] ;
31 -> 32 ;
33 [label="sum_pt_full <= 209578.9062\ngini = 0.496971244315\nsamples = 761", shape="box"] ;
31 -> 33 ;
34 [label="tau_pt_ratio <= 1.3610\ngini = 0.484981211031\nsamples = 433", shape="box"] ;
33 -> 34 ;
35 [label="gini = 0.4324\nsamples = 162\nvalue = [ 0.00698429  0.00322991]", shape="box"] ;
34 -> 35 ;
36 [label="gini = 0.4975\nsamples = 271\nvalue = [ 0.01027835  0.0089329 ]", shape="box"] ;
34 -> 36 ;
37 [label="tau_pt_ratio <= 1.8182\ngini = 0.499071335013\nsamples = 328", shape="box"] ;
33 -> 37 ;
38 [label="gini = 0.4776\nsamples = 150\nvalue = [ 0.00501242  0.0077012 ]", shape="box"] ;
37 -> 38 ;
39 [label="gini = 0.4871\nsamples = 178\nvalue = [ 0.00610406  0.0044166 ]", shape="box"] ;
37 -> 39 ;
40 [label="gini = 0.4721\nsamples = 136\nvalue = [ 0.00471839  0.00763803]", shape="box"] ;
24 -> 40 ;
41 [label="MET_centrality <= 1.2826\ngini = 0.499009055506\nsamples = 1650", shape="box"] ;
17 -> 41 ;
42 [label="dR_tau1_tau2 <= 1.3061\ngini = 0.49238221651\nsamples = 999", shape="box"] ;
41 -> 42 ;
43 [label="sum_pt_full <= 330923.8125\ngini = 0.468405416479\nsamples = 350", shape="box"] ;
42 -> 43 ;
44 [label="gini = 0.4035\nsamples = 153\nvalue = [ 0.00816633  0.00318087]", shape="box"] ;
43 -> 44 ;
45 [label="gini = 0.4938\nsamples = 197\nvalue = [ 0.00844545  0.006757  ]", shape="box"] ;
43 -> 45 ;
46 [label="sum_pt_full <= 242355.9062\ngini = 0.498492443911\nsamples = 649", shape="box"] ;
42 -> 46 ;
47 [label="dR_tau1_tau2 <= 1.5671\ngini = 0.487680126556\nsamples = 395", shape="box"] ;
46 -> 47 ;
48 [label="gini = 0.4999\nsamples = 170\nvalue = [ 0.00746438  0.00768644]", shape="box"] ;
47 -> 48 ;
49 [label="gini = 0.4409\nsamples = 225\nvalue = [ 0.00935399  0.00456831]", shape="box"] ;
47 -> 49 ;
50 [label="dR_tau1_tau2 <= 1.4833\ngini = 0.495964614738\nsamples = 254", shape="box"] ;
46 -> 50 ;
51 [label="gini = 0.4977\nsamples = 129\nvalue = [ 0.00524758  0.00458385]", shape="box"] ;
50 -> 51 ;
52 [label="gini = 0.4724\nsamples = 125\nvalue = [ 0.00408125  0.00658659]", shape="box"] ;
50 -> 52 ;
53 [label="sum_pt_full <= 298627.3438\ngini = 0.497886296942\nsamples = 651", shape="box"] ;
41 -> 53 ;
54 [label="dR_tau1_tau2 <= 1.7258\ngini = 0.499523475305\nsamples = 452", shape="box"] ;
53 -> 54 ;
55 [label="tau_pt_ratio <= 1.4206\ngini = 0.492487089289\nsamples = 324", shape="box"] ;
54 -> 55 ;
56 [label="gini = 0.4995\nsamples = 131\nvalue = [ 0.00509167  0.00542541]", shape="box"] ;
55 -> 56 ;
57 [label="gini = 0.4740\nsamples = 193\nvalue = [ 0.00944337  0.00593533]", shape="box"] ;
55 -> 57 ;
58 [label="gini = 0.4789\nsamples = 128\nvalue = [ 0.00399247  0.00605708]", shape="box"] ;
54 -> 58 ;
59 [label="gini = 0.4694\nsamples = 199\nvalue = [ 0.00711008  0.01178544]", shape="box"] ;
53 -> 59 ;
60 [label="mmc1_mass <= 175.2227\ngini = 0.485500555041\nsamples = 12966", shape="box"] ;
0 -> 60 ;
61 [label="mmc1_mass <= 109.8265\ngini = 0.483891863275\nsamples = 12771", shape="box"] ;
60 -> 61 ;
62 [label="dR_tau1_tau2 <= 1.6081\ngini = 0.496704320305\nsamples = 2877", shape="box"] ;
61 -> 62 ;
63 [label="dR_tau1_tau2 <= 1.5191\ngini = 0.490675036327\nsamples = 1795", shape="box"] ;
62 -> 63 ;
64 [label="dR_tau1_tau2 <= 1.4434\ngini = 0.494760949268\nsamples = 1482", shape="box"] ;
63 -> 64 ;
65 [label="tau_pt_ratio <= 1.6751\ngini = 0.489189214533\nsamples = 1224", shape="box"] ;
64 -> 65 ;
66 [label="dR_tau1_tau2 <= 1.1758\ngini = 0.497276819092\nsamples = 494", shape="box"] ;
65 -> 66 ;
67 [label="gini = 0.4924\nsamples = 187\nvalue = [ 0.00723712  0.00565003]", shape="box"] ;
66 -> 67 ;
68 [label="sum_pt_full <= 277756.3750\ngini = 0.480946772708\nsamples = 307", shape="box"] ;
66 -> 68 ;
69 [label="gini = 0.4984\nsamples = 172\nvalue = [ 0.00500668  0.00559906]", shape="box"] ;
68 -> 69 ;
70 [label="gini = 0.4426\nsamples = 135\nvalue = [ 0.0034057   0.00689431]", shape="box"] ;
68 -> 70 ;
71 [label="dR_tau1_tau2 <= 1.0982\ngini = 0.48008699579\nsamples = 730", shape="box"] ;
65 -> 71 ;
72 [label="gini = 0.4353\nsamples = 246\nvalue = [ 0.00561945  0.01193386]", shape="box"] ;
71 -> 72 ;
73 [label="dR_tau1_tau2 <= 1.2859\ngini = 0.494540375729\nsamples = 484", shape="box"] ;
71 -> 73 ;
74 [label="gini = 0.4997\nsamples = 228\nvalue = [ 0.00748061  0.00709541]", shape="box"] ;
73 -> 74 ;
75 [label="gini = 0.4731\nsamples = 256\nvalue = [ 0.00576029  0.00923562]", shape="box"] ;
73 -> 75 ;
76 [label="gini = 0.4928\nsamples = 258\nvalue = [ 0.00911825  0.00717014]", shape="box"] ;
64 -> 76 ;
77 [label="mmc1_mass <= 105.7157\ngini = 0.461661456024\nsamples = 313", shape="box"] ;
63 -> 77 ;
78 [label="gini = 0.4940\nsamples = 170\nvalue = [ 0.00587832  0.00732555]", shape="box"] ;
77 -> 78 ;
79 [label="gini = 0.3811\nsamples = 143\nvalue = [ 0.00268668  0.00779931]", shape="box"] ;
77 -> 79 ;
80 [label="MET_centrality <= 0.8663\ngini = 0.499945333177\nsamples = 1082", shape="box"] ;
62 -> 80 ;
81 [label="gini = 0.4370\nsamples = 150\nvalue = [ 0.00669927  0.00319009]", shape="box"] ;
80 -> 81 ;
82 [label="mmc1_mass <= 102.0503\ngini = 0.499055511014\nsamples = 932", shape="box"] ;
80 -> 82 ;
83 [label="gini = 0.4853\nsamples = 147\nvalue = [ 0.00579012  0.00409373]", shape="box"] ;
82 -> 83 ;
84 [label="dR_tau1_tau2 <= 1.9057\ngini = 0.496525286307\nsamples = 785", shape="box"] ;
82 -> 84 ;
85 [label="sum_pt_full <= 227153.5938\ngini = 0.499689114824\nsamples = 591", shape="box"] ;
84 -> 85 ;
86 [label="tau_pt_ratio <= 1.3813\ngini = 0.493997490373\nsamples = 353", shape="box"] ;
85 -> 86 ;
87 [label="gini = 0.4993\nsamples = 143\nvalue = [ 0.00509253  0.00473692]", shape="box"] ;
86 -> 87 ;
88 [label="gini = 0.4791\nsamples = 210\nvalue = [ 0.00598997  0.00907298]", shape="box"] ;
86 -> 88 ;
89 [label="gini = 0.4948\nsamples = 238\nvalue = [ 0.00913138  0.00743784]", shape="box"] ;
85 -> 89 ;
90 [label="gini = 0.4584\nsamples = 194\nvalue = [ 0.0042058   0.00761363]", shape="box"] ;
84 -> 90 ;
91 [label="dR_tau1_tau2 <= 1.5392\ngini = 0.473944065339\nsamples = 9894", shape="box"] ;
61 -> 91 ;
92 [label="dR_tau1_tau2 <= 0.9664\ngini = 0.443423099034\nsamples = 4605", shape="box"] ;
91 -> 92 ;
93 [label="gini = 0.3459\nsamples = 539\nvalue = [ 0.00219219  0.00766469]", shape="box"] ;
92 -> 93 ;
94 [label="sum_pt_full <= 508854.7500\ngini = 0.449391873467\nsamples = 4066", shape="box"] ;
92 -> 94 ;
95 [label="sum_pt_full <= 445734.0000\ngini = 0.439377540601\nsamples = 3792", shape="box"] ;
94 -> 95 ;
96 [label="mmc1_mass <= 130.2515\ngini = 0.44875853549\nsamples = 3455", shape="box"] ;
95 -> 96 ;
97 [label="mmc1_mass <= 124.7196\ngini = 0.43398630043\nsamples = 2721", shape="box"] ;
96 -> 97 ;
98 [label="MET_centrality <= 0.7099\ngini = 0.451188291542\nsamples = 2162", shape="box"] ;
97 -> 98 ;
99 [label="gini = 0.4957\nsamples = 302\nvalue = [ 0.00635597  0.00765643]", shape="box"] ;
98 -> 99 ;
100 [label="sum_pt_full <= 368053.3750\ngini = 0.430850199596\nsamples = 1860", shape="box"] ;
98 -> 100 ;
101 [label="MET_centrality <= 1.1561\ngini = 0.453830261179\nsamples = 1444", shape="box"] ;
100 -> 101 ;
102 [label="gini = 0.3796\nsamples = 529\nvalue = [ 0.00387953  0.01135754]", shape="box"] ;
101 -> 102 ;
103 [label="tau_pt_ratio <= 1.3646\ngini = 0.480691843861\nsamples = 915", shape="box"] ;
101 -> 103 ;
104 [label="gini = 0.5000\nsamples = 330\nvalue = [ 0.00504129  0.0050863 ]", shape="box"] ;
103 -> 104 ;
105 [label="gini = 0.4503\nsamples = 585\nvalue = [ 0.00561514  0.01078264]", shape="box"] ;
103 -> 105 ;
106 [label="gini = 0.2852\nsamples = 416\nvalue = [ 0.00172551  0.00829081]", shape="box"] ;
100 -> 106 ;
107 [label="gini = 0.2751\nsamples = 559\nvalue = [ 0.00179426  0.00910324]", shape="box"] ;
97 -> 107 ;
108 [label="tau_pt_ratio <= 1.3889\ngini = 0.488022382484\nsamples = 734", shape="box"] ;
96 -> 108 ;
109 [label="gini = 0.4988\nsamples = 301\nvalue = [ 0.00515787  0.004681  ]", shape="box"] ;
108 -> 109 ;
110 [label="gini = 0.4385\nsamples = 433\nvalue = [ 0.00331448  0.00689421]", shape="box"] ;
108 -> 110 ;
111 [label="gini = 0.3100\nsamples = 337\nvalue = [ 0.00194074  0.00818072]", shape="box"] ;
95 -> 111 ;
112 [label="gini = 0.4993\nsamples = 274\nvalue = [ 0.00549207  0.00590666]", shape="box"] ;
94 -> 112 ;
113 [label="dR_tau1_tau2 <= 2.0517\ngini = 0.484591125934\nsamples = 5289", shape="box"] ;
91 -> 113 ;
114 [label="mmc1_mass <= 114.2067\ngini = 0.477754924452\nsamples = 4202", shape="box"] ;
113 -> 114 ;
115 [label="mmc1_mass <= 111.1448\ngini = 0.497143632278\nsamples = 606", shape="box"] ;
114 -> 115 ;
116 [label="gini = 0.4696\nsamples = 205\nvalue = [ 0.00447759  0.00740969]", shape="box"] ;
115 -> 116 ;
117 [label="MET_centrality <= 1.2551\ngini = 0.499976028747\nsamples = 401", shape="box"] ;
115 -> 117 ;
118 [label="gini = 0.4898\nsamples = 217\nvalue = [ 0.00715544  0.00536741]", shape="box"] ;
117 -> 118 ;
119 [label="gini = 0.4911\nsamples = 184\nvalue = [ 0.00525395  0.00687132]", shape="box"] ;
117 -> 119 ;
120 [label="sum_pt_full <= 293798.3750\ngini = 0.470431789133\nsamples = 3596", shape="box"] ;
114 -> 120 ;
121 [label="mmc1_mass <= 140.2558\ngini = 0.46242901737\nsamples = 2827", shape="box"] ;
120 -> 121 ;
122 [label="mmc1_mass <= 135.1357\ngini = 0.470084260862\nsamples = 2473", shape="box"] ;
121 -> 122 ;
123 [label="mmc1_mass <= 130.6751\ngini = 0.462393678068\nsamples = 2247", shape="box"] ;
122 -> 123 ;
124 [label="sum_pt_full <= 194623.3438\ngini = 0.471304414568\nsamples = 1902", shape="box"] ;
123 -> 124 ;
125 [label="gini = 0.4986\nsamples = 234\nvalue = [ 0.00726226  0.00807963]", shape="box"] ;
124 -> 125 ;
126 [label="MET_centrality <= 1.0302\ngini = 0.460113064119\nsamples = 1668", shape="box"] ;
124 -> 126 ;
127 [label="MET_centrality <= 0.7768\ngini = 0.489196110404\nsamples = 475", shape="box"] ;
126 -> 127 ;
128 [label="gini = 0.4552\nsamples = 207\nvalue = [ 0.00355601  0.00659546]", shape="box"] ;
127 -> 128 ;
129 [label="gini = 0.4997\nsamples = 268\nvalue = [ 0.00608355  0.00636641]", shape="box"] ;
127 -> 129 ;
130 [label="MET_centrality <= 1.2501\ngini = 0.438070995086\nsamples = 1193", shape="box"] ;
126 -> 130 ;
131 [label="gini = 0.3571\nsamples = 470\nvalue = [ 0.00373122  0.01230584]", shape="box"] ;
130 -> 131 ;
132 [label="tau_pt_ratio <= 1.4517\ngini = 0.469414644002\nsamples = 723", shape="box"] ;
130 -> 132 ;
133 [label="gini = 0.4259\nsamples = 292\nvalue = [ 0.00335489  0.00755353]", shape="box"] ;
132 -> 133 ;
134 [label="gini = 0.4873\nsamples = 431\nvalue = [ 0.00718833  0.00991866]", shape="box"] ;
132 -> 134 ;
135 [label="gini = 0.3494\nsamples = 345\nvalue = [ 0.002336    0.00802017]", shape="box"] ;
123 -> 135 ;
136 [label="gini = 0.4993\nsamples = 226\nvalue = [ 0.0050447   0.00468752]", shape="box"] ;
122 -> 136 ;
137 [label="gini = 0.3804\nsamples = 354\nvalue = [ 0.00357995  0.01043475]", shape="box"] ;
121 -> 137 ;
138 [label="mmc1_mass <= 140.2599\ngini = 0.489245719553\nsamples = 769", shape="box"] ;
120 -> 138 ;
139 [label="mmc1_mass <= 127.2525\ngini = 0.470013508371\nsamples = 578", shape="box"] ;
138 -> 139 ;
140 [label="gini = 0.4987\nsamples = 306\nvalue = [ 0.00778966  0.00862997]", shape="box"] ;
139 -> 140 ;
141 [label="gini = 0.3426\nsamples = 272\nvalue = [ 0.00220868  0.00785362]", shape="box"] ;
139 -> 141 ;
142 [label="gini = 0.4954\nsamples = 191\nvalue = [ 0.00588068  0.00485345]", shape="box"] ;
138 -> 142 ;
143 [label="mmc1_mass <= 143.9482\ngini = 0.496531594146\nsamples = 1087", shape="box"] ;
113 -> 143 ;
144 [label="MET_centrality <= 1.1561\ngini = 0.491389059813\nsamples = 835", shape="box"] ;
143 -> 144 ;
145 [label="gini = 0.4589\nsamples = 354\nvalue = [ 0.00686446  0.01238617]", shape="box"] ;
144 -> 145 ;
146 [label="tau_pt_ratio <= 1.5682\ngini = 0.49891613294\nsamples = 481", shape="box"] ;
144 -> 146 ;
147 [label="gini = 0.4857\nsamples = 162\nvalue = [ 0.00633723  0.00450531]", shape="box"] ;
146 -> 147 ;
148 [label="tau_pt_ratio <= 2.2759\ngini = 0.489945617982\nsamples = 319", shape="box"] ;
146 -> 148 ;
149 [label="gini = 0.4245\nsamples = 136\nvalue = [ 0.00329553  0.00748239]", shape="box"] ;
148 -> 149 ;
150 [label="gini = 0.4987\nsamples = 183\nvalue = [ 0.00723175  0.00652388]", shape="box"] ;
148 -> 150 ;
151 [label="gini = 0.4981\nsamples = 252\nvalue = [ 0.00963761  0.00853185]", shape="box"] ;
143 -> 151 ;
152 [label="gini = 0.4678\nsamples = 195\nvalue = [ 0.00795202  0.00473397]", shape="box"] ;
60 -> 152 ;
}