digraph Tree {
0 [label="mmc1_mass <= 97.8537\ngini = 0.499136165499\nsamples = 20609", shape="box"] ;
1 [label="mmc1_mass <= 84.3230\ngini = 0.384602580859\nsamples = 6885", shape="box"] ;
0 -> 1 ;
2 [label="dR_tau1_tau2 <= 1.5914\ngini = 0.2460671808\nsamples = 3317", shape="box"] ;
1 -> 2 ;
3 [label="tau_pt_ratio <= 3.2881\ngini = 0.222566317393\nsamples = 3169", shape="box"] ;
2 -> 3 ;
4 [label="tau_pt_ratio <= 1.3839\ngini = 0.196820107274\nsamples = 2999", shape="box"] ;
3 -> 4 ;
5 [label="dR_tau1_tau2 <= 1.0787\ngini = 0.0912951340031\nsamples = 1063", shape="box"] ;
4 -> 5 ;
6 [label="gini = 0.0462\nsamples = 356\nvalue = [ 0.01076587  0.00026091]", shape="box"] ;
5 -> 6 ;
7 [label="tau_pt_ratio <= 1.1561\ngini = 0.110575392734\nsamples = 707", shape="box"] ;
5 -> 7 ;
8 [label="gini = 0.1501\nsamples = 286\nvalue = [ 0.00988212  0.00087972]", shape="box"] ;
7 -> 8 ;
9 [label="gini = 0.0789\nsamples = 421\nvalue = [ 0.01347504  0.00057785]", shape="box"] ;
7 -> 9 ;
10 [label="MET_centrality <= 1.4031\ngini = 0.239592811381\nsamples = 1936", shape="box"] ;
4 -> 10 ;
11 [label="sum_pt_full <= 216139.2969\ngini = 0.206831749315\nsamples = 1748", shape="box"] ;
10 -> 11 ;
12 [label="tau_pt_ratio <= 1.6946\ngini = 0.0813494422049\nsamples = 668", shape="box"] ;
11 -> 12 ;
13 [label="gini = 0.1165\nsamples = 311\nvalue = [ 0.00914096  0.00060519]", shape="box"] ;
12 -> 13 ;
14 [label="gini = 0.0497\nsamples = 357\nvalue = [ 0.01096141  0.00028663]", shape="box"] ;
12 -> 14 ;
15 [label="sum_pt_full <= 232285.1562\ngini = 0.254699929324\nsamples = 1080", shape="box"] ;
11 -> 15 ;
16 [label="gini = 0.3952\nsamples = 184\nvalue = [ 0.00709112  0.00263693]", shape="box"] ;
15 -> 16 ;
17 [label="MET_centrality <= 0.7889\ngini = 0.209624163217\nsamples = 896", shape="box"] ;
15 -> 17 ;
18 [label="gini = 0.3361\nsamples = 241\nvalue = [ 0.00923682  0.00251098]", shape="box"] ;
17 -> 18 ;
19 [label="mmc1_mass <= 79.5260\ngini = 0.142140501862\nsamples = 655", shape="box"] ;
17 -> 19 ;
20 [label="gini = 0.0448\nsamples = 419\nvalue = [ 0.01463318  0.0003433 ]", shape="box"] ;
19 -> 20 ;
21 [label="gini = 0.2509\nsamples = 236\nvalue = [ 0.00985533  0.0016996 ]", shape="box"] ;
19 -> 21 ;
22 [label="gini = 0.4148\nsamples = 188\nvalue = [ 0.00694855  0.0028888 ]", shape="box"] ;
10 -> 22 ;
23 [label="gini = 0.4313\nsamples = 170\nvalue = [ 0.00709555  0.00325862]", shape="box"] ;
3 -> 23 ;
24 [label="gini = 0.4515\nsamples = 148\nvalue = [ 0.00659302  0.00346046]", shape="box"] ;
2 -> 24 ;
25 [label="mmc1_mass <= 94.5706\ngini = 0.441571961156\nsamples = 3568", shape="box"] ;
1 -> 25 ;
26 [label="tau_pt_ratio <= 2.9822\ngini = 0.414516336059\nsamples = 2620", shape="box"] ;
25 -> 26 ;
27 [label="dR_tau1_tau2 <= 1.0718\ngini = 0.397713484188\nsamples = 2294", shape="box"] ;
26 -> 27 ;
28 [label="gini = 0.2373\nsamples = 334\nvalue = [ 0.0160069   0.00255349]", shape="box"] ;
27 -> 28 ;
29 [label="sum_pt_full <= 342731.1250\ngini = 0.415731321096\nsamples = 1960", shape="box"] ;
27 -> 29 ;
30 [label="sum_pt_full <= 190057.1562\ngini = 0.402354558814\nsamples = 1804", shape="box"] ;
29 -> 30 ;
31 [label="tau_pt_ratio <= 1.4976\ngini = 0.469981640078\nsamples = 336", shape="box"] ;
30 -> 31 ;
32 [label="gini = 0.4212\nsamples = 186\nvalue = [ 0.00897373  0.00387334]", shape="box"] ;
31 -> 32 ;
33 [label="gini = 0.4978\nsamples = 150\nvalue = [ 0.0058218   0.00509859]", shape="box"] ;
31 -> 33 ;
34 [label="mmc1_mass <= 85.9904\ngini = 0.376873700996\nsamples = 1468", shape="box"] ;
30 -> 34 ;
35 [label="gini = 0.1862\nsamples = 208\nvalue = [ 0.00961259  0.00111455]", shape="box"] ;
34 -> 35 ;
36 [label="dR_tau1_tau2 <= 1.6251\ngini = 0.396876728068\nsamples = 1260", shape="box"] ;
34 -> 36 ;
37 [label="sum_pt_full <= 240001.5469\ngini = 0.379460597951\nsamples = 1067", shape="box"] ;
36 -> 37 ;
38 [label="mmc1_mass <= 90.8131\ngini = 0.295442488508\nsamples = 565", shape="box"] ;
37 -> 38 ;
39 [label="gini = 0.1734\nsamples = 338\nvalue = [ 0.01619665  0.00171792]", shape="box"] ;
38 -> 39 ;
40 [label="gini = 0.4100\nsamples = 227\nvalue = [ 0.00998328  0.00403627]", shape="box"] ;
38 -> 40 ;
41 [label="MET_centrality <= 1.2937\ngini = 0.439820226624\nsamples = 502", shape="box"] ;
37 -> 41 ;
42 [label="mmc1_mass <= 90.3128\ngini = 0.397458525726\nsamples = 364", shape="box"] ;
41 -> 42 ;
43 [label="gini = 0.3371\nsamples = 180\nvalue = [ 0.00784562  0.00214352]", shape="box"] ;
42 -> 43 ;
44 [label="gini = 0.4370\nsamples = 184\nvalue = [ 0.00815772  0.00388324]", shape="box"] ;
42 -> 44 ;
45 [label="gini = 0.4911\nsamples = 138\nvalue = [ 0.006183    0.00473049]", shape="box"] ;
41 -> 45 ;
46 [label="gini = 0.4742\nsamples = 193\nvalue = [ 0.00647004  0.00407299]", shape="box"] ;
36 -> 46 ;
47 [label="gini = 0.4947\nsamples = 156\nvalue = [ 0.00617881  0.00502776]", shape="box"] ;
29 -> 47 ;
48 [label="dR_tau1_tau2 <= 1.2261\ngini = 0.489491145953\nsamples = 326", shape="box"] ;
26 -> 48 ;
49 [label="gini = 0.4656\nsamples = 170\nvalue = [ 0.00620111  0.00362369]", shape="box"] ;
48 -> 49 ;
50 [label="gini = 0.4994\nsamples = 156\nvalue = [ 0.00535887  0.00500888]", shape="box"] ;
48 -> 50 ;
51 [label="tau_pt_ratio <= 1.2872\ngini = 0.485604277791\nsamples = 948", shape="box"] ;
25 -> 51 ;
52 [label="gini = 0.4089\nsamples = 195\nvalue = [ 0.00986691  0.00396296]", shape="box"] ;
51 -> 52 ;
53 [label="MET_centrality <= 1.2833\ngini = 0.494780047381\nsamples = 753", shape="box"] ;
51 -> 53 ;
54 [label="mmc1_mass <= 96.6591\ngini = 0.473616160635\nsamples = 458", shape="box"] ;
53 -> 54 ;
55 [label="gini = 0.4409\nsamples = 300\nvalue = [ 0.01187838  0.00579892]", shape="box"] ;
54 -> 55 ;
56 [label="gini = 0.4987\nsamples = 158\nvalue = [ 0.00593266  0.00535786]", shape="box"] ;
54 -> 56 ;
57 [label="sum_pt_full <= 292712.3438\ngini = 0.498568033381\nsamples = 295", shape="box"] ;
53 -> 57 ;
58 [label="gini = 0.4971\nsamples = 186\nvalue = [ 0.00746418  0.00640148]", shape="box"] ;
57 -> 58 ;
59 [label="gini = 0.4720\nsamples = 109\nvalue = [ 0.00376551  0.0060981 ]", shape="box"] ;
57 -> 59 ;
60 [label="mmc1_mass <= 106.8813\ngini = 0.443188582515\nsamples = 13724", shape="box"] ;
0 -> 60 ;
61 [label="sum_pt_full <= 272372.1875\ngini = 0.496525084798\nsamples = 2695", shape="box"] ;
60 -> 61 ;
62 [label="dR_tau1_tau2 <= 1.8558\ngini = 0.499989542985\nsamples = 1488", shape="box"] ;
61 -> 62 ;
63 [label="dR_tau1_tau2 <= 1.5840\ngini = 0.498738209736\nsamples = 1237", shape="box"] ;
62 -> 63 ;
64 [label="sum_pt_full <= 233096.7500\ngini = 0.498783545451\nsamples = 585", shape="box"] ;
63 -> 64 ;
65 [label="gini = 0.4775\nsamples = 224\nvalue = [ 0.00689232  0.01059953]", shape="box"] ;
64 -> 65 ;
66 [label="mmc1_mass <= 101.9380\ngini = 0.497356333085\nsamples = 361", shape="box"] ;
64 -> 66 ;
67 [label="gini = 0.4538\nsamples = 161\nvalue = [ 0.00673815  0.00359554]", shape="box"] ;
66 -> 67 ;
68 [label="gini = 0.4938\nsamples = 200\nvalue = [ 0.00576308  0.0072109 ]", shape="box"] ;
66 -> 68 ;
69 [label="MET_centrality <= 1.3179\ngini = 0.488718310407\nsamples = 652", shape="box"] ;
63 -> 69 ;
70 [label="sum_pt_full <= 205573.2812\ngini = 0.463517493477\nsamples = 409", shape="box"] ;
69 -> 70 ;
71 [label="gini = 0.3905\nsamples = 169\nvalue = [ 0.00813554  0.00294798]", shape="box"] ;
70 -> 71 ;
72 [label="gini = 0.4934\nsamples = 240\nvalue = [ 0.00788893  0.00626055]", shape="box"] ;
70 -> 72 ;
73 [label="gini = 0.4989\nsamples = 243\nvalue = [ 0.0073419   0.00805481]", shape="box"] ;
69 -> 73 ;
74 [label="gini = 0.4598\nsamples = 251\nvalue = [ 0.0057315   0.01026767]", shape="box"] ;
62 -> 74 ;
75 [label="mmc1_mass <= 101.0228\ngini = 0.484201825327\nsamples = 1207", shape="box"] ;
61 -> 75 ;
76 [label="dR_tau1_tau2 <= 1.2135\ngini = 0.499927186534\nsamples = 425", shape="box"] ;
75 -> 76 ;
77 [label="gini = 0.4735\nsamples = 211\nvalue = [ 0.0092434   0.00578238]", shape="box"] ;
76 -> 77 ;
78 [label="gini = 0.4746\nsamples = 214\nvalue = [ 0.00661982  0.01046839]", shape="box"] ;
76 -> 78 ;
79 [label="MET_centrality <= 1.0118\ngini = 0.4591407633\nsamples = 782", shape="box"] ;
75 -> 79 ;
80 [label="sum_pt_full <= 363697.8750\ngini = 0.484722647111\nsamples = 281", shape="box"] ;
79 -> 80 ;
81 [label="gini = 0.4949\nsamples = 149\nvalue = [ 0.00456964  0.00560057]", shape="box"] ;
80 -> 81 ;
82 [label="gini = 0.4691\nsamples = 132\nvalue = [ 0.00380863  0.00632717]", shape="box"] ;
80 -> 82 ;
83 [label="tau_pt_ratio <= 1.6822\ngini = 0.433797913627\nsamples = 501", shape="box"] ;
79 -> 83 ;
84 [label="gini = 0.4685\nsamples = 179\nvalue = [ 0.0041058   0.00685769]", shape="box"] ;
83 -> 84 ;
85 [label="gini = 0.4063\nsamples = 322\nvalue = [ 0.00508958  0.01285747]", shape="box"] ;
83 -> 85 ;
86 [label="mmc1_mass <= 175.2227\ngini = 0.405070486441\nsamples = 11029", shape="box"] ;
60 -> 86 ;
87 [label="dR_tau1_tau2 <= 1.5582\ngini = 0.394458962349\nsamples = 10834", shape="box"] ;
86 -> 87 ;
88 [label="mmc1_mass <= 111.0039\ngini = 0.315073512781\nsamples = 5278", shape="box"] ;
87 -> 88 ;
89 [label="MET_centrality <= 1.0278\ngini = 0.407882349093\nsamples = 764", shape="box"] ;
88 -> 89 ;
90 [label="gini = 0.4635\nsamples = 236\nvalue = [ 0.00465154  0.00809552]", shape="box"] ;
89 -> 90 ;
91 [label="dR_tau1_tau2 <= 1.3278\ngini = 0.366467958472\nsamples = 528", shape="box"] ;
89 -> 91 ;
92 [label="gini = 0.2890\nsamples = 290\nvalue = [ 0.00218835  0.01030434]", shape="box"] ;
91 -> 92 ;
93 [label="gini = 0.4348\nsamples = 238\nvalue = [ 0.00340621  0.00725655]", shape="box"] ;
91 -> 93 ;
94 [label="dR_tau1_tau2 <= 0.9436\ngini = 0.286384999631\nsamples = 4514", shape="box"] ;
88 -> 94 ;
95 [label="gini = 0.0885\nsamples = 429\nvalue = [ 0.00045695  0.00939073]", shape="box"] ;
94 -> 95 ;
96 [label="mmc1_mass <= 141.6575\ngini = 0.298623542437\nsamples = 4085", shape="box"] ;
94 -> 96 ;
97 [label="mmc1_mass <= 133.1987\ngini = 0.285516433731\nsamples = 3830", shape="box"] ;
96 -> 97 ;
98 [label="sum_pt_full <= 495342.9375\ngini = 0.298690501906\nsamples = 3333", shape="box"] ;
97 -> 98 ;
99 [label="MET_centrality <= 0.7099\ngini = 0.284832415198\nsamples = 3096", shape="box"] ;
98 -> 99 ;
100 [label="gini = 0.3555\nsamples = 458\nvalue = [ 0.00444642  0.01478148]", shape="box"] ;
99 -> 100 ;
101 [label="MET_centrality <= 1.0215\ngini = 0.265754576192\nsamples = 2638", shape="box"] ;
99 -> 101 ;
102 [label="gini = 0.1708\nsamples = 570\nvalue = [ 0.00170492  0.01637423]", shape="box"] ;
101 -> 102 ;
103 [label="mmc1_mass <= 114.2916\ngini = 0.290416805651\nsamples = 2068", shape="box"] ;
101 -> 103 ;
104 [label="gini = 0.3670\nsamples = 368\nvalue = [ 0.00365416  0.01143687]", shape="box"] ;
103 -> 104 ;
105 [label="mmc1_mass <= 117.6612\ngini = 0.262063736913\nsamples = 1700", shape="box"] ;
103 -> 105 ;
106 [label="gini = 0.1204\nsamples = 367\nvalue = [ 0.00066035  0.00960406]", shape="box"] ;
105 -> 106 ;
107 [label="mmc1_mass <= 121.1986\ngini = 0.29587245108\nsamples = 1333", shape="box"] ;
105 -> 107 ;
108 [label="gini = 0.3632\nsamples = 393\nvalue = [ 0.00271904  0.00868381]", shape="box"] ;
107 -> 108 ;
109 [label="MET_centrality <= 1.3300\ngini = 0.261012695897\nsamples = 940", shape="box"] ;
107 -> 109 ;
110 [label="gini = 0.3092\nsamples = 570\nvalue = [ 0.00295521  0.01250503]", shape="box"] ;
109 -> 110 ;
111 [label="gini = 0.1734\nsamples = 370\nvalue = [ 0.00093478  0.00881201]", shape="box"] ;
109 -> 111 ;
112 [label="gini = 0.4130\nsamples = 237\nvalue = [ 0.00285851  0.00695053]", shape="box"] ;
98 -> 112 ;
113 [label="gini = 0.1542\nsamples = 497\nvalue = [ 0.00106174  0.0115522 ]", shape="box"] ;
97 -> 113 ;
114 [label="gini = 0.4277\nsamples = 255\nvalue = [ 0.00301402  0.00671377]", shape="box"] ;
96 -> 114 ;
115 [label="dR_tau1_tau2 <= 2.0517\ngini = 0.434466781897\nsamples = 5556", shape="box"] ;
87 -> 115 ;
116 [label="mmc1_mass <= 114.2067\ngini = 0.415233027238\nsamples = 4431", shape="box"] ;
115 -> 116 ;
117 [label="MET_centrality <= 1.2558\ngini = 0.478609683351\nsamples = 954", shape="box"] ;
116 -> 117 ;
118 [label="dR_tau1_tau2 <= 1.7548\ngini = 0.493151858021\nsamples = 503", shape="box"] ;
117 -> 118 ;
119 [label="gini = 0.4564\nsamples = 264\nvalue = [ 0.00521277  0.00958057]", shape="box"] ;
118 -> 119 ;
120 [label="gini = 0.4964\nsamples = 239\nvalue = [ 0.00708042  0.00597136]", shape="box"] ;
118 -> 120 ;
121 [label="dR_tau1_tau2 <= 1.7517\ngini = 0.452201820051\nsamples = 451", shape="box"] ;
117 -> 121 ;
122 [label="gini = 0.4835\nsamples = 224\nvalue = [ 0.00491997  0.00710034]", shape="box"] ;
121 -> 122 ;
123 [label="gini = 0.4063\nsamples = 227\nvalue = [ 0.00351878  0.00889226]", shape="box"] ;
121 -> 123 ;
124 [label="mmc1_mass <= 147.9343\ngini = 0.383212747177\nsamples = 3477", shape="box"] ;
116 -> 124 ;
125 [label="mmc1_mass <= 125.7467\ngini = 0.371423623174\nsamples = 3234", shape="box"] ;
124 -> 125 ;
126 [label="tau_pt_ratio <= 1.1783\ngini = 0.402821113862\nsamples = 1627", shape="box"] ;
125 -> 126 ;
127 [label="gini = 0.4719\nsamples = 283\nvalue = [ 0.00550643  0.00892445]", shape="box"] ;
126 -> 127 ;
128 [label="tau_pt_ratio <= 1.4541\ngini = 0.379995566242\nsamples = 1344", shape="box"] ;
126 -> 128 ;
129 [label="gini = 0.2881\nsamples = 355\nvalue = [ 0.00270539  0.01279706]", shape="box"] ;
128 -> 129 ;
130 [label="MET_centrality <= 1.3253\ngini = 0.405898551601\nsamples = 989", shape="box"] ;
128 -> 130 ;
131 [label="MET_centrality <= 1.0135\ngini = 0.363945914966\nsamples = 686", shape="box"] ;
130 -> 131 ;
132 [label="gini = 0.4185\nsamples = 294\nvalue = [ 0.0048473  0.0114138]", shape="box"] ;
131 -> 132 ;
133 [label="gini = 0.2867\nsamples = 392\nvalue = [ 0.00252706  0.01204367]", shape="box"] ;
131 -> 133 ;
134 [label="gini = 0.4721\nsamples = 303\nvalue = [ 0.00522914  0.00846048]", shape="box"] ;
130 -> 134 ;
135 [label="mmc1_mass <= 135.2074\ngini = 0.328961779249\nsamples = 1607", shape="box"] ;
125 -> 135 ;
136 [label="mmc1_mass <= 130.6751\ngini = 0.293212686325\nsamples = 1019", shape="box"] ;
135 -> 136 ;
137 [label="tau_pt_ratio <= 1.4881\ngini = 0.35360762509\nsamples = 592", shape="box"] ;
136 -> 137 ;
138 [label="gini = 0.4066\nsamples = 249\nvalue = [ 0.00296534  0.00747848]", shape="box"] ;
137 -> 138 ;
139 [label="gini = 0.3036\nsamples = 343\nvalue = [ 0.00247889  0.01080439]", shape="box"] ;
137 -> 139 ;
140 [label="gini = 0.1834\nsamples = 427\nvalue = [ 0.00161907  0.01423496]", shape="box"] ;
136 -> 140 ;
141 [label="mmc1_mass <= 140.5480\ngini = 0.380835468611\nsamples = 588", shape="box"] ;
135 -> 141 ;
142 [label="gini = 0.4536\nsamples = 320\nvalue = [ 0.00449422  0.0084312 ]", shape="box"] ;
141 -> 142 ;
143 [label="gini = 0.2510\nsamples = 268\nvalue = [ 0.00160567  0.00930544]", shape="box"] ;
141 -> 143 ;
144 [label="gini = 0.4788\nsamples = 243\nvalue = [ 0.0047      0.00713984]", shape="box"] ;
124 -> 144 ;
145 [label="mmc1_mass <= 143.9482\ngini = 0.476784688047\nsamples = 1125", shape="box"] ;
115 -> 145 ;
146 [label="sum_pt_full <= 186969.5000\ngini = 0.461552033782\nsamples = 873", shape="box"] ;
145 -> 146 ;
147 [label="gini = 0.4995\nsamples = 188\nvalue = [ 0.00567592  0.00604063]", shape="box"] ;
146 -> 147 ;
148 [label="MET_centrality <= 1.2421\ngini = 0.439317298805\nsamples = 685", shape="box"] ;
146 -> 148 ;
149 [label="mmc1_mass <= 124.3518\ngini = 0.384297185705\nsamples = 389", shape="box"] ;
148 -> 149 ;
150 [label="gini = 0.4232\nsamples = 179\nvalue = [ 0.00298436  0.00683143]", shape="box"] ;
149 -> 150 ;
151 [label="gini = 0.3426\nsamples = 210\nvalue = [ 0.00240188  0.0085404 ]", shape="box"] ;
149 -> 151 ;
152 [label="MET_centrality <= 1.3704\ngini = 0.478065388919\nsamples = 296", shape="box"] ;
148 -> 152 ;
153 [label="gini = 0.4982\nsamples = 165\nvalue = [ 0.00459051  0.00517057]", shape="box"] ;
152 -> 153 ;
154 [label="gini = 0.4370\nsamples = 131\nvalue = [ 0.00324524  0.00681721]", shape="box"] ;
152 -> 154 ;
155 [label="gini = 0.4999\nsamples = 252\nvalue = [ 0.00797939  0.00824134]", shape="box"] ;
145 -> 155 ;
156 [label="gini = 0.4016\nsamples = 195\nvalue = [ 0.00871241  0.00335793]", shape="box"] ;
86 -> 156 ;
}