digraph Tree {
0 [label="mmc1_mass <= 98.0858\ngini = 0.499317773105\nsamples = 20609", shape="box"] ;
1 [label="mmc1_mass <= 81.1225\ngini = 0.436452880273\nsamples = 6954", shape="box"] ;
0 -> 1 ;
2 [label="mmc1_mass <= 62.4984\ngini = 0.299432720772\nsamples = 2652", shape="box"] ;
1 -> 2 ;
3 [label="gini = 0.1164\nsamples = 593\nvalue = [ 0.01197917  0.00079287]", shape="box"] ;
2 -> 3 ;
4 [label="MET_centrality <= 1.3843\ngini = 0.3261633422\nsamples = 2059", shape="box"] ;
2 -> 4 ;
5 [label="sum_pt_full <= 198029.5938\ngini = 0.297110090117\nsamples = 1712", shape="box"] ;
4 -> 5 ;
6 [label="gini = 0.1390\nsamples = 425\nvalue = [ 0.00964851  0.00078369]", shape="box"] ;
5 -> 6 ;
7 [label="mmc1_mass <= 69.4253\ngini = 0.32658159691\nsamples = 1287", shape="box"] ;
5 -> 7 ;
8 [label="gini = 0.4447\nsamples = 244\nvalue = [ 0.00741569  0.00371542]", shape="box"] ;
7 -> 8 ;
9 [label="tau_pt_ratio <= 2.1747\ngini = 0.275258731581\nsamples = 1043", shape="box"] ;
7 -> 9 ;
10 [label="sum_pt_full <= 240856.2812\ngini = 0.194741771\nsamples = 726", shape="box"] ;
9 -> 10 ;
11 [label="gini = 0.2853\nsamples = 297\nvalue = [ 0.00807095  0.00168085]", shape="box"] ;
10 -> 11 ;
12 [label="gini = 0.1149\nsamples = 429\nvalue = [ 0.01199017  0.00078146]", shape="box"] ;
10 -> 12 ;
13 [label="gini = 0.3892\nsamples = 317\nvalue = [ 0.00919656  0.00331003]", shape="box"] ;
9 -> 13 ;
14 [label="gini = 0.4194\nsamples = 347\nvalue = [ 0.00999111  0.00426563]", shape="box"] ;
4 -> 14 ;
15 [label="mmc1_mass <= 94.5706\ngini = 0.463129126752\nsamples = 4302", shape="box"] ;
1 -> 15 ;
16 [label="tau_pt_ratio <= 2.9822\ngini = 0.444049120036\nsamples = 3285", shape="box"] ;
15 -> 16 ;
17 [label="dR_tau1_tau2 <= 0.9717\ngini = 0.430398770448\nsamples = 2901", shape="box"] ;
16 -> 17 ;
18 [label="gini = 0.1737\nsamples = 243\nvalue = [ 0.00910059  0.0009671 ]", shape="box"] ;
17 -> 18 ;
19 [label="dR_tau1_tau2 <= 1.6593\ngini = 0.440261271184\nsamples = 2658", shape="box"] ;
17 -> 19 ;
20 [label="sum_pt_full <= 268939.0938\ngini = 0.428122669651\nsamples = 2293", shape="box"] ;
19 -> 20 ;
21 [label="MET_centrality <= 1.0026\ngini = 0.402410441769\nsamples = 1568", shape="box"] ;
20 -> 21 ;
22 [label="mmc1_mass <= 89.2094\ngini = 0.325073889661\nsamples = 529", shape="box"] ;
21 -> 22 ;
23 [label="gini = 0.2064\nsamples = 333\nvalue = [ 0.01351968  0.00178875]", shape="box"] ;
22 -> 23 ;
24 [label="gini = 0.4334\nsamples = 196\nvalue = [ 0.00806638  0.00375216]", shape="box"] ;
22 -> 24 ;
25 [label="dR_tau1_tau2 <= 1.4895\ngini = 0.429438456366\nsamples = 1039", shape="box"] ;
21 -> 25 ;
26 [label="tau_pt_ratio <= 1.2074\ngini = 0.39124969941\nsamples = 630", shape="box"] ;
25 -> 26 ;
27 [label="gini = 0.4635\nsamples = 155\nvalue = [ 0.00620023  0.00356179]", shape="box"] ;
26 -> 27 ;
28 [label="sum_pt_full <= 231936.7500\ngini = 0.35309182901\nsamples = 475", shape="box"] ;
26 -> 28 ;
29 [label="gini = 0.2133\nsamples = 236\nvalue = [ 0.00962985  0.0013307 ]", shape="box"] ;
28 -> 29 ;
30 [label="gini = 0.4287\nsamples = 239\nvalue = [ 0.009873    0.00446118]", shape="box"] ;
28 -> 30 ;
31 [label="sum_pt_full <= 209168.5625\ngini = 0.467490442884\nsamples = 409", shape="box"] ;
25 -> 31 ;
32 [label="gini = 0.4239\nsamples = 271\nvalue = [ 0.01152769  0.00505604]", shape="box"] ;
31 -> 32 ;
33 [label="gini = 0.4997\nsamples = 138\nvalue = [ 0.00500716  0.00475971]", shape="box"] ;
31 -> 33 ;
34 [label="dR_tau1_tau2 <= 1.3166\ngini = 0.466549917569\nsamples = 725", shape="box"] ;
20 -> 34 ;
35 [label="mmc1_mass <= 90.9651\ngini = 0.434127549765\nsamples = 516", shape="box"] ;
34 -> 35 ;
36 [label="dR_tau1_tau2 <= 1.0917\ngini = 0.394855078755\nsamples = 359", shape="box"] ;
35 -> 36 ;
37 [label="gini = 0.4675\nsamples = 159\nvalue = [ 0.00612485  0.00363711]", shape="box"] ;
36 -> 37 ;
38 [label="gini = 0.2840\nsamples = 200\nvalue = [ 0.0082937  0.0017151]", shape="box"] ;
36 -> 38 ;
39 [label="gini = 0.4813\nsamples = 157\nvalue = [ 0.00664414  0.00449223]", shape="box"] ;
35 -> 39 ;
40 [label="gini = 0.4990\nsamples = 209\nvalue = [ 0.00790143  0.00721553]", shape="box"] ;
34 -> 40 ;
41 [label="dR_tau1_tau2 <= 1.7545\ngini = 0.486393466779\nsamples = 365", shape="box"] ;
19 -> 41 ;
42 [label="gini = 0.4994\nsamples = 200\nvalue = [ 0.00782853  0.00731702]", shape="box"] ;
41 -> 42 ;
43 [label="gini = 0.4324\nsamples = 165\nvalue = [ 0.00670039  0.00309719]", shape="box"] ;
41 -> 43 ;
44 [label="dR_tau1_tau2 <= 1.2821\ngini = 0.496596959118\nsamples = 384", shape="box"] ;
16 -> 44 ;
45 [label="gini = 0.4793\nsamples = 240\nvalue = [ 0.00923096  0.00611142]", shape="box"] ;
44 -> 45 ;
46 [label="gini = 0.4958\nsamples = 144\nvalue = [ 0.00481945  0.00579737]", shape="box"] ;
44 -> 46 ;
47 [label="tau_pt_ratio <= 1.2814\ngini = 0.493765297426\nsamples = 1017", shape="box"] ;
15 -> 47 ;
48 [label="gini = 0.4345\nsamples = 206\nvalue = [ 0.01023006  0.00479246]", shape="box"] ;
47 -> 48 ;
49 [label="MET_centrality <= 1.3596\ngini = 0.498699710556\nsamples = 811", shape="box"] ;
47 -> 49 ;
50 [label="sum_pt_full <= 298350.5625\ngini = 0.491770253709\nsamples = 618", shape="box"] ;
49 -> 50 ;
51 [label="MET_centrality <= 1.1081\ngini = 0.468982273479\nsamples = 387", shape="box"] ;
50 -> 51 ;
52 [label="gini = 0.4925\nsamples = 198\nvalue = [ 0.00749584  0.00585851]", shape="box"] ;
51 -> 52 ;
53 [label="gini = 0.4231\nsamples = 189\nvalue = [ 0.00821466  0.00358652]", shape="box"] ;
51 -> 53 ;
54 [label="gini = 0.4995\nsamples = 231\nvalue = [ 0.00917136  0.00977836]", shape="box"] ;
50 -> 54 ;
55 [label="gini = 0.4902\nsamples = 193\nvalue = [ 0.0076861   0.01018407]", shape="box"] ;
49 -> 55 ;
56 [label="mmc1_mass <= 108.8084\ngini = 0.46759660329\nsamples = 13655", shape="box"] ;
0 -> 56 ;
57 [label="mmc1_mass <= 103.8323\ngini = 0.496092344161\nsamples = 3228", shape="box"] ;
56 -> 57 ;
58 [label="MET_centrality <= 1.2649\ngini = 0.499866761573\nsamples = 1662", shape="box"] ;
57 -> 58 ;
59 [label="sum_pt_full <= 322373.3125\ngini = 0.498102076482\nsamples = 954", shape="box"] ;
58 -> 59 ;
60 [label="sum_pt_full <= 206671.6250\ngini = 0.492860144074\nsamples = 668", shape="box"] ;
59 -> 60 ;
61 [label="gini = 0.4670\nsamples = 163\nvalue = [ 0.006893    0.00407389]", shape="box"] ;
60 -> 61 ;
62 [label="dR_tau1_tau2 <= 1.4768\ngini = 0.496945777423\nsamples = 505", shape="box"] ;
60 -> 62 ;
63 [label="gini = 0.4687\nsamples = 229\nvalue = [ 0.0096903  0.0058139]", shape="box"] ;
62 -> 63 ;
64 [label="tau_pt_ratio <= 1.7661\ngini = 0.49880877868\nsamples = 276", shape="box"] ;
62 -> 64 ;
65 [label="gini = 0.4678\nsamples = 111\nvalue = [ 0.0037847   0.00636029]", shape="box"] ;
64 -> 65 ;
66 [label="gini = 0.4898\nsamples = 165\nvalue = [ 0.00619657  0.00464535]", shape="box"] ;
64 -> 66 ;
67 [label="mmc1_mass <= 101.1429\ngini = 0.497744679038\nsamples = 286", shape="box"] ;
59 -> 67 ;
68 [label="gini = 0.4967\nsamples = 152\nvalue = [ 0.00566793  0.00481758]", shape="box"] ;
67 -> 68 ;
69 [label="gini = 0.4779\nsamples = 134\nvalue = [ 0.00428266  0.00656582]", shape="box"] ;
67 -> 69 ;
70 [label="dR_tau1_tau2 <= 1.2247\ngini = 0.49225970371\nsamples = 708", shape="box"] ;
58 -> 70 ;
71 [label="gini = 0.4377\nsamples = 152\nvalue = [ 0.00378495  0.00791319]", shape="box"] ;
70 -> 71 ;
72 [label="MET_centrality <= 1.3445\ngini = 0.498547517024\nsamples = 556", shape="box"] ;
70 -> 72 ;
73 [label="gini = 0.4703\nsamples = 178\nvalue = [ 0.00510143  0.00839165]", shape="box"] ;
72 -> 73 ;
74 [label="mmc1_mass <= 101.3393\ngini = 0.498693488974\nsamples = 378", shape="box"] ;
72 -> 74 ;
75 [label="gini = 0.4911\nsamples = 227\nvalue = [ 0.00828748  0.00634116]", shape="box"] ;
74 -> 75 ;
76 [label="gini = 0.4974\nsamples = 151\nvalue = [ 0.00453916  0.00523791]", shape="box"] ;
74 -> 76 ;
77 [label="dR_tau1_tau2 <= 1.5959\ngini = 0.485119836972\nsamples = 1566", shape="box"] ;
57 -> 77 ;
78 [label="dR_tau1_tau2 <= 1.5196\ngini = 0.47011754959\nsamples = 933", shape="box"] ;
77 -> 78 ;
79 [label="sum_pt_full <= 414551.0625\ngini = 0.482486342271\nsamples = 789", shape="box"] ;
78 -> 79 ;
80 [label="mmc1_mass <= 105.1444\ngini = 0.49175879004\nsamples = 627", shape="box"] ;
79 -> 80 ;
81 [label="gini = 0.4569\nsamples = 172\nvalue = [ 0.00430468  0.00788501]", shape="box"] ;
80 -> 81 ;
82 [label="sum_pt_full <= 284720.3438\ngini = 0.49862526451\nsamples = 455", shape="box"] ;
80 -> 82 ;
83 [label="gini = 0.4951\nsamples = 191\nvalue = [ 0.00568909  0.00466044]", shape="box"] ;
82 -> 83 ;
84 [label="gini = 0.4888\nsamples = 264\nvalue = [ 0.0068832   0.00930327]", shape="box"] ;
82 -> 84 ;
85 [label="gini = 0.4147\nsamples = 162\nvalue = [ 0.00295551  0.00711653]", shape="box"] ;
79 -> 85 ;
86 [label="gini = 0.3826\nsamples = 144\nvalue = [ 0.00300182  0.00864611]", shape="box"] ;
78 -> 86 ;
87 [label="mmc1_mass <= 105.5970\ngini = 0.497791393281\nsamples = 633", shape="box"] ;
77 -> 87 ;
88 [label="gini = 0.4720\nsamples = 224\nvalue = [ 0.00575476  0.00932394]", shape="box"] ;
87 -> 88 ;
89 [label="dR_tau1_tau2 <= 1.7891\ngini = 0.499471312221\nsamples = 409", shape="box"] ;
87 -> 89 ;
90 [label="gini = 0.4845\nsamples = 208\nvalue = [ 0.00842253  0.00589744]", shape="box"] ;
89 -> 90 ;
91 [label="gini = 0.4895\nsamples = 201\nvalue = [ 0.00496657  0.00664833]", shape="box"] ;
89 -> 91 ;
92 [label="dR_tau1_tau2 <= 1.7494\ngini = 0.441951338315\nsamples = 10427", shape="box"] ;
56 -> 92 ;
93 [label="dR_tau1_tau2 <= 1.1373\ngini = 0.397141912595\nsamples = 6795", shape="box"] ;
92 -> 93 ;
94 [label="mmc1_mass <= 122.2930\ngini = 0.311999290575\nsamples = 1471", shape="box"] ;
93 -> 94 ;
95 [label="sum_pt_full <= 450730.2500\ngini = 0.353975886364\nsamples = 795", shape="box"] ;
94 -> 95 ;
96 [label="gini = 0.2748\nsamples = 493\nvalue = [ 0.00225855  0.01147555]", shape="box"] ;
95 -> 96 ;
97 [label="gini = 0.4207\nsamples = 302\nvalue = [ 0.00380115  0.00883504]", shape="box"] ;
95 -> 97 ;
98 [label="gini = 0.1990\nsamples = 676\nvalue = [ 0.00132138  0.01047213]", shape="box"] ;
94 -> 98 ;
99 [label="mmc1_mass <= 117.6642\ngini = 0.411197870742\nsamples = 5324", shape="box"] ;
93 -> 99 ;
100 [label="dR_tau1_tau2 <= 1.5471\ngini = 0.444234880715\nsamples = 1815", shape="box"] ;
99 -> 100 ;
101 [label="MET_centrality <= 0.8098\ngini = 0.408266110878\nsamples = 1175", shape="box"] ;
100 -> 101 ;
102 [label="gini = 0.4769\nsamples = 212\nvalue = [ 0.0038474  0.0059543]", shape="box"] ;
101 -> 102 ;
103 [label="sum_pt_full <= 279514.3438\ngini = 0.380943274886\nsamples = 963", shape="box"] ;
101 -> 103 ;
104 [label="gini = 0.4418\nsamples = 333\nvalue = [ 0.0039838   0.00810811]", shape="box"] ;
103 -> 104 ;
105 [label="MET_centrality <= 1.3267\ngini = 0.340236565902\nsamples = 630", shape="box"] ;
103 -> 105 ;
106 [label="gini = 0.2850\nsamples = 418\nvalue = [ 0.00227917  0.01096406]", shape="box"] ;
105 -> 106 ;
107 [label="gini = 0.4023\nsamples = 212\nvalue = [ 0.0027155   0.00701938]", shape="box"] ;
105 -> 107 ;
108 [label="MET_centrality <= 1.3056\ngini = 0.478374141907\nsamples = 640", shape="box"] ;
100 -> 108 ;
109 [label="mmc1_mass <= 113.1268\ngini = 0.456101493724\nsamples = 406", shape="box"] ;
108 -> 109 ;
110 [label="gini = 0.4277\nsamples = 203\nvalue = [ 0.00339658  0.00756386]", shape="box"] ;
109 -> 110 ;
111 [label="gini = 0.4777\nsamples = 203\nvalue = [ 0.00427012  0.00655931]", shape="box"] ;
109 -> 111 ;
112 [label="gini = 0.4990\nsamples = 234\nvalue = [ 0.00564331  0.00617672]", shape="box"] ;
108 -> 112 ;
113 [label="mmc1_mass <= 142.8422\ngini = 0.383258812855\nsamples = 3509", shape="box"] ;
99 -> 113 ;
114 [label="mmc1_mass <= 121.8156\ngini = 0.364396053173\nsamples = 3167", shape="box"] ;
113 -> 114 ;
115 [label="tau_pt_ratio <= 1.7460\ngini = 0.408327187551\nsamples = 870", shape="box"] ;
114 -> 115 ;
116 [label="gini = 0.3532\nsamples = 466\nvalue = [ 0.00354091  0.0119141 ]", shape="box"] ;
115 -> 116 ;
117 [label="gini = 0.4493\nsamples = 404\nvalue = [ 0.00545472  0.01055389]", shape="box"] ;
115 -> 117 ;
118 [label="dR_tau1_tau2 <= 1.2518\ngini = 0.340034808806\nsamples = 2297", shape="box"] ;
114 -> 118 ;
119 [label="gini = 0.4287\nsamples = 345\nvalue = [ 0.00334892  0.00741396]", shape="box"] ;
118 -> 119 ;
120 [label="sum_pt_full <= 322550.5625\ngini = 0.318227154001\nsamples = 1952", shape="box"] ;
118 -> 120 ;
121 [label="mmc1_mass <= 127.2041\ngini = 0.366980382601\nsamples = 1241", shape="box"] ;
120 -> 121 ;
122 [label="gini = 0.2509\nsamples = 546\nvalue = [ 0.00218667  0.01268368]", shape="box"] ;
121 -> 122 ;
123 [label="MET_centrality <= 1.1737\ngini = 0.425305486532\nsamples = 695", shape="box"] ;
121 -> 123 ;
124 [label="gini = 0.3684\nsamples = 355\nvalue = [ 0.00252547  0.0078472 ]", shape="box"] ;
123 -> 124 ;
125 [label="gini = 0.4629\nsamples = 340\nvalue = [ 0.00418222  0.00731238]", shape="box"] ;
123 -> 125 ;
126 [label="gini = 0.1908\nsamples = 711\nvalue = [ 0.00186445  0.01559135]", shape="box"] ;
120 -> 126 ;
127 [label="gini = 0.4719\nsamples = 342\nvalue = [ 0.00561425  0.0091021 ]", shape="box"] ;
113 -> 127 ;
128 [label="sum_pt_full <= 360594.9688\ngini = 0.478001520119\nsamples = 3632", shape="box"] ;
92 -> 128 ;
129 [label="mmc1_mass <= 147.6110\ngini = 0.468753025958\nsamples = 3413", shape="box"] ;
128 -> 129 ;
130 [label="mmc1_mass <= 125.6237\ngini = 0.457429263822\nsamples = 2981", shape="box"] ;
129 -> 130 ;
131 [label="MET_centrality <= 0.8175\ngini = 0.478613710009\nsamples = 1533", shape="box"] ;
130 -> 131 ;
132 [label="gini = 0.4991\nsamples = 172\nvalue = [ 0.00584809  0.00536651]", shape="box"] ;
131 -> 132 ;
133 [label="mmc1_mass <= 123.8488\ngini = 0.469911133422\nsamples = 1361", shape="box"] ;
131 -> 133 ;
134 [label="sum_pt_full <= 213995.1875\ngini = 0.459508983381\nsamples = 1213", shape="box"] ;
133 -> 134 ;
135 [label="sum_pt_full <= 197717.0469\ngini = 0.489580324996\nsamples = 597", shape="box"] ;
134 -> 135 ;
136 [label="gini = 0.4664\nsamples = 352\nvalue = [ 0.007199    0.01224035]", shape="box"] ;
135 -> 136 ;
137 [label="gini = 0.4994\nsamples = 245\nvalue = [ 0.00645876  0.00602592]", shape="box"] ;
135 -> 137 ;
138 [label="tau_pt_ratio <= 2.0776\ngini = 0.408054964239\nsamples = 616", shape="box"] ;
134 -> 138 ;
139 [label="gini = 0.3575\nsamples = 316\nvalue = [ 0.00334804  0.01101914]", shape="box"] ;
138 -> 139 ;
140 [label="gini = 0.4428\nsamples = 300\nvalue = [ 0.00551402  0.01114972]", shape="box"] ;
138 -> 140 ;
141 [label="gini = 0.5000\nsamples = 148\nvalue = [ 0.0049352   0.00486841]", shape="box"] ;
133 -> 141 ;
142 [label="sum_pt_full <= 191341.5000\ngini = 0.423456835799\nsamples = 1448", shape="box"] ;
130 -> 142 ;
143 [label="gini = 0.4918\nsamples = 180\nvalue = [ 0.00491116  0.00635811]", shape="box"] ;
142 -> 143 ;
144 [label="mmc1_mass <= 138.3305\ngini = 0.403088128479\nsamples = 1268", shape="box"] ;
142 -> 144 ;
145 [label="tau_pt_ratio <= 1.6527\ngini = 0.365602066305\nsamples = 906", shape="box"] ;
144 -> 145 ;
146 [label="gini = 0.3009\nsamples = 412\nvalue = [ 0.00316362  0.01398465]", shape="box"] ;
145 -> 146 ;
147 [label="sum_pt_full <= 251469.8906\ngini = 0.404727682223\nsamples = 494", shape="box"] ;
145 -> 147 ;
148 [label="gini = 0.4603\nsamples = 250\nvalue = [ 0.00448603  0.00800873]", shape="box"] ;
147 -> 148 ;
149 [label="gini = 0.3133\nsamples = 244\nvalue = [ 0.00215144  0.00891243]", shape="box"] ;
147 -> 149 ;
150 [label="mmc1_mass <= 142.2940\ngini = 0.461040114813\nsamples = 362", shape="box"] ;
144 -> 150 ;
151 [label="gini = 0.4914\nsamples = 183\nvalue = [ 0.00429384  0.00558795]", shape="box"] ;
150 -> 151 ;
152 [label="gini = 0.4087\nsamples = 179\nvalue = [ 0.00282764  0.00704889]", shape="box"] ;
150 -> 152 ;
153 [label="sum_pt_full <= 260327.4531\ngini = 0.499899301974\nsamples = 432", shape="box"] ;
129 -> 153 ;
154 [label="gini = 0.4718\nsamples = 262\nvalue = [ 0.0063168   0.01025509]", shape="box"] ;
153 -> 154 ;
155 [label="gini = 0.4483\nsamples = 170\nvalue = [ 0.00728933  0.00374277]", shape="box"] ;
153 -> 155 ;
156 [label="gini = 0.4347\nsamples = 219\nvalue = [ 0.0087887   0.00412141]", shape="box"] ;
128 -> 156 ;
}