digraph Tree {
0 [label="mmc1_mass <= 100.9786\ngini = 0.499841135811\nsamples = 20609", shape="box"] ;
1 [label="mmc1_mass <= 86.1499\ngini = 0.491552613161\nsamples = 7835", shape="box"] ;
0 -> 1 ;
2 [label="dR_tau1_tau2 <= 1.6435\ngini = 0.467412861003\nsamples = 3746", shape="box"] ;
1 -> 2 ;
3 [label="sum_pt_full <= 183630.7969\ngini = 0.457091997072\nsamples = 3625", shape="box"] ;
2 -> 3 ;
4 [label="gini = 0.3408\nsamples = 571\nvalue = [ 0.00880167  0.00245165]", shape="box"] ;
3 -> 4 ;
5 [label="dR_tau1_tau2 <= 1.1871\ngini = 0.46524008519\nsamples = 3054", shape="box"] ;
3 -> 5 ;
6 [label="tau_pt_ratio <= 3.2386\ngini = 0.436679112492\nsamples = 1547", shape="box"] ;
5 -> 6 ;
7 [label="dR_tau1_tau2 <= 1.0850\ngini = 0.406556965014\nsamples = 1386", shape="box"] ;
6 -> 7 ;
8 [label="dR_tau1_tau2 <= 0.9984\ngini = 0.438747077489\nsamples = 967", shape="box"] ;
7 -> 8 ;
9 [label="gini = 0.3811\nsamples = 644\nvalue = [ 0.0110781   0.00381464]", shape="box"] ;
8 -> 9 ;
10 [label="gini = 0.4887\nsamples = 323\nvalue = [ 0.0059111   0.00436519]", shape="box"] ;
8 -> 10 ;
11 [label="gini = 0.2939\nsamples = 419\nvalue = [ 0.00810905  0.00176792]", shape="box"] ;
7 -> 11 ;
12 [label="gini = 0.4967\nsamples = 161\nvalue = [ 0.00527046  0.00447952]", shape="box"] ;
6 -> 12 ;
13 [label="dR_tau1_tau2 <= 1.2330\ngini = 0.481134275509\nsamples = 1507", shape="box"] ;
5 -> 13 ;
14 [label="gini = 0.4949\nsamples = 230\nvalue = [ 0.0045543   0.00558278]", shape="box"] ;
13 -> 14 ;
15 [label="dR_tau1_tau2 <= 1.3532\ngini = 0.467493771989\nsamples = 1277", shape="box"] ;
13 -> 15 ;
16 [label="gini = 0.3963\nsamples = 538\nvalue = [ 0.01262752  0.00472505]", shape="box"] ;
15 -> 16 ;
17 [label="dR_tau1_tau2 <= 1.4113\ngini = 0.489296526851\nsamples = 739", shape="box"] ;
15 -> 17 ;
18 [label="gini = 0.4982\nsamples = 228\nvalue = [ 0.00517898  0.00583909]", shape="box"] ;
17 -> 18 ;
19 [label="MET_centrality <= 1.2906\ngini = 0.467597483143\nsamples = 511", shape="box"] ;
17 -> 19 ;
20 [label="gini = 0.3703\nsamples = 289\nvalue = [ 0.00748452  0.00243278]", shape="box"] ;
19 -> 20 ;
21 [label="gini = 0.4997\nsamples = 222\nvalue = [ 0.00568135  0.00539003]", shape="box"] ;
19 -> 21 ;
22 [label="gini = 0.4876\nsamples = 121\nvalue = [ 0.00443507  0.00609679]", shape="box"] ;
2 -> 22 ;
23 [label="tau_pt_ratio <= 2.8916\ngini = 0.497153168268\nsamples = 4089", shape="box"] ;
1 -> 23 ;
24 [label="dR_tau1_tau2 <= 1.0563\ngini = 0.495248062884\nsamples = 3478", shape="box"] ;
23 -> 24 ;
25 [label="MET_centrality <= 1.2784\ngini = 0.450160089153\nsamples = 426", shape="box"] ;
24 -> 25 ;
26 [label="gini = 0.4037\nsamples = 274\nvalue = [ 0.01066991  0.00416114]", shape="box"] ;
25 -> 26 ;
27 [label="gini = 0.4881\nsamples = 152\nvalue = [ 0.00653723  0.00478793]", shape="box"] ;
25 -> 27 ;
28 [label="mmc1_mass <= 87.0435\ngini = 0.497425952996\nsamples = 3052", shape="box"] ;
24 -> 28 ;
29 [label="gini = 0.4876\nsamples = 173\nvalue = [ 0.00609506  0.0083789 ]", shape="box"] ;
28 -> 29 ;
30 [label="mmc1_mass <= 89.1009\ngini = 0.496147660832\nsamples = 2879", shape="box"] ;
28 -> 30 ;
31 [label="tau_pt_ratio <= 1.6589\ngini = 0.439415977748\nsamples = 395", shape="box"] ;
30 -> 31 ;
32 [label="gini = 0.3824\nsamples = 227\nvalue = [ 0.0080966   0.00280879]", shape="box"] ;
31 -> 32 ;
33 [label="gini = 0.4810\nsamples = 168\nvalue = [ 0.00581324  0.0039177 ]", shape="box"] ;
31 -> 33 ;
34 [label="sum_pt_full <= 172122.0000\ngini = 0.498259569212\nsamples = 2484", shape="box"] ;
30 -> 34 ;
35 [label="gini = 0.4523\nsamples = 142\nvalue = [ 0.00685721  0.00362062]", shape="box"] ;
34 -> 35 ;
36 [label="tau_pt_ratio <= 1.0737\ngini = 0.499025922031\nsamples = 2342", shape="box"] ;
34 -> 36 ;
37 [label="gini = 0.4870\nsamples = 138\nvalue = [ 0.00536136  0.00742027]", shape="box"] ;
36 -> 37 ;
38 [label="tau_pt_ratio <= 1.1555\ngini = 0.498188600535\nsamples = 2204", shape="box"] ;
36 -> 38 ;
39 [label="gini = 0.4698\nsamples = 185\nvalue = [ 0.00823706  0.00498875]", shape="box"] ;
38 -> 39 ;
40 [label="tau_pt_ratio <= 1.2157\ngini = 0.499038074987\nsamples = 2019", shape="box"] ;
38 -> 40 ;
41 [label="gini = 0.4835\nsamples = 127\nvalue = [ 0.0041243   0.00595675]", shape="box"] ;
40 -> 41 ;
42 [label="tau_pt_ratio <= 1.3040\ngini = 0.498194193596\nsamples = 1892", shape="box"] ;
40 -> 42 ;
43 [label="gini = 0.4547\nsamples = 164\nvalue = [ 0.0071019  0.0038156]", shape="box"] ;
42 -> 43 ;
44 [label="tau_pt_ratio <= 1.3742\ngini = 0.499210472546\nsamples = 1728", shape="box"] ;
42 -> 44 ;
45 [label="gini = 0.4825\nsamples = 133\nvalue = [ 0.00412145  0.00601732]", shape="box"] ;
44 -> 45 ;
46 [label="tau_pt_ratio <= 1.4470\ngini = 0.498256752837\nsamples = 1595", shape="box"] ;
44 -> 46 ;
47 [label="gini = 0.4521\nsamples = 165\nvalue = [ 0.00742661  0.00391578]", shape="box"] ;
46 -> 47 ;
48 [label="tau_pt_ratio <= 2.5033\ngini = 0.499466381447\nsamples = 1430", shape="box"] ;
46 -> 48 ;
49 [label="dR_tau1_tau2 <= 1.6428\ngini = 0.49998524975\nsamples = 1216", shape="box"] ;
48 -> 49 ;
50 [label="MET_centrality <= 0.9691\ngini = 0.498858110469\nsamples = 877", shape="box"] ;
49 -> 50 ;
51 [label="sum_pt_full <= 257218.4062\ngini = 0.495290330667\nsamples = 259", shape="box"] ;
50 -> 51 ;
52 [label="gini = 0.4778\nsamples = 141\nvalue = [ 0.00489376  0.00750447]", shape="box"] ;
51 -> 52 ;
53 [label="gini = 0.4991\nsamples = 118\nvalue = [ 0.00525614  0.00482735]", shape="box"] ;
51 -> 53 ;
54 [label="sum_pt_full <= 226352.0469\ngini = 0.493016508737\nsamples = 618", shape="box"] ;
50 -> 54 ;
55 [label="gini = 0.4424\nsamples = 177\nvalue = [ 0.00784368  0.00386899]", shape="box"] ;
54 -> 55 ;
56 [label="dR_tau1_tau2 <= 1.4518\ngini = 0.499067039294\nsamples = 441", shape="box"] ;
54 -> 56 ;
57 [label="tau_pt_ratio <= 1.8960\ngini = 0.489646021639\nsamples = 340", shape="box"] ;
56 -> 57 ;
58 [label="gini = 0.4502\nsamples = 185\nvalue = [ 0.00862036  0.004484  ]", shape="box"] ;
57 -> 58 ;
59 [label="gini = 0.4988\nsamples = 155\nvalue = [ 0.00554084  0.00611425]", shape="box"] ;
57 -> 59 ;
60 [label="gini = 0.4776\nsamples = 101\nvalue = [ 0.003858    0.00592869]", shape="box"] ;
56 -> 60 ;
61 [label="dR_tau1_tau2 <= 1.7249\ngini = 0.4934880924\nsamples = 339", shape="box"] ;
49 -> 61 ;
62 [label="gini = 0.4353\nsamples = 114\nvalue = [ 0.00321387  0.00682355]", shape="box"] ;
61 -> 62 ;
63 [label="gini = 0.4983\nsamples = 225\nvalue = [ 0.00757373  0.00674345]", shape="box"] ;
61 -> 63 ;
64 [label="gini = 0.4787\nsamples = 214\nvalue = [ 0.00881267  0.00579966]", shape="box"] ;
48 -> 64 ;
65 [label="MET_centrality <= 1.3119\ngini = 0.498479947077\nsamples = 611", shape="box"] ;
23 -> 65 ;
66 [label="sum_pt_full <= 393730.2500\ngini = 0.49837637288\nsamples = 427", shape="box"] ;
65 -> 66 ;
67 [label="gini = 0.4866\nsamples = 291\nvalue = [ 0.01052191  0.00755893]", shape="box"] ;
66 -> 67 ;
68 [label="gini = 0.4906\nsamples = 136\nvalue = [ 0.0043018   0.00566642]", shape="box"] ;
66 -> 68 ;
69 [label="gini = 0.4598\nsamples = 184\nvalue = [ 0.0049371   0.00884174]", shape="box"] ;
65 -> 69 ;
70 [label="mmc1_mass <= 164.6563\ngini = 0.492430190572\nsamples = 12774", shape="box"] ;
0 -> 70 ;
71 [label="mmc1_mass <= 109.8265\ngini = 0.491310212831\nsamples = 12496", shape="box"] ;
70 -> 71 ;
72 [label="dR_tau1_tau2 <= 1.5837\ngini = 0.49811989781\nsamples = 2685", shape="box"] ;
71 -> 72 ;
73 [label="dR_tau1_tau2 <= 1.5191\ngini = 0.493946301833\nsamples = 1578", shape="box"] ;
72 -> 73 ;
74 [label="sum_pt_full <= 280491.1250\ngini = 0.497154514019\nsamples = 1375", shape="box"] ;
73 -> 74 ;
75 [label="mmc1_mass <= 105.1512\ngini = 0.496553710668\nsamples = 430", shape="box"] ;
74 -> 75 ;
76 [label="gini = 0.4996\nsamples = 221\nvalue = [ 0.00800144  0.00844568]", shape="box"] ;
75 -> 76 ;
77 [label="gini = 0.4741\nsamples = 209\nvalue = [ 0.00769161  0.0048414 ]", shape="box"] ;
75 -> 77 ;
78 [label="MET_centrality <= 1.3654\ngini = 0.488709668424\nsamples = 945", shape="box"] ;
74 -> 78 ;
79 [label="mmc1_mass <= 104.0397\ngini = 0.494836999509\nsamples = 748", shape="box"] ;
78 -> 79 ;
80 [label="gini = 0.4775\nsamples = 224\nvalue = [ 0.00645441  0.00993413]", shape="box"] ;
79 -> 80 ;
81 [label="mmc1_mass <= 105.7361\ngini = 0.498754002501\nsamples = 524", shape="box"] ;
79 -> 81 ;
82 [label="gini = 0.4895\nsamples = 144\nvalue = [ 0.00581758  0.0043457 ]", shape="box"] ;
81 -> 82 ;
83 [label="sum_pt_full <= 389570.5625\ngini = 0.491640481663\nsamples = 380", shape="box"] ;
81 -> 83 ;
84 [label="gini = 0.4677\nsamples = 225\nvalue = [ 0.00504172  0.00847461]", shape="box"] ;
83 -> 84 ;
85 [label="gini = 0.4998\nsamples = 155\nvalue = [ 0.00581278  0.00560375]", shape="box"] ;
83 -> 85 ;
86 [label="gini = 0.4185\nsamples = 197\nvalue = [ 0.00294678  0.00693679]", shape="box"] ;
78 -> 86 ;
87 [label="gini = 0.4462\nsamples = 203\nvalue = [ 0.00481706  0.00952026]", shape="box"] ;
73 -> 87 ;
88 [label="MET_centrality <= 0.8672\ngini = 0.499988736267\nsamples = 1107", shape="box"] ;
72 -> 88 ;
89 [label="gini = 0.4770\nsamples = 152\nvalue = [ 0.00666943  0.00431577]", shape="box"] ;
88 -> 89 ;
90 [label="dR_tau1_tau2 <= 1.6505\ngini = 0.499549448755\nsamples = 955", shape="box"] ;
88 -> 90 ;
91 [label="gini = 0.4865\nsamples = 184\nvalue = [ 0.00741504  0.00532049]", shape="box"] ;
90 -> 91 ;
92 [label="dR_tau1_tau2 <= 1.7521\ngini = 0.497085874425\nsamples = 771", shape="box"] ;
90 -> 92 ;
93 [label="gini = 0.4789\nsamples = 260\nvalue = [ 0.00750545  0.01138215]", shape="box"] ;
92 -> 93 ;
94 [label="dR_tau1_tau2 <= 1.8557\ngini = 0.499982401393\nsamples = 511", shape="box"] ;
92 -> 94 ;
95 [label="gini = 0.4871\nsamples = 218\nvalue = [ 0.00877769  0.0063504 ]", shape="box"] ;
94 -> 95 ;
96 [label="gini = 0.4908\nsamples = 293\nvalue = [ 0.00840957  0.011042  ]", shape="box"] ;
94 -> 96 ;
97 [label="dR_tau1_tau2 <= 1.5392\ngini = 0.486346337442\nsamples = 9811", shape="box"] ;
71 -> 97 ;
98 [label="tau_pt_ratio <= 1.6791\ngini = 0.468186752119\nsamples = 4594", shape="box"] ;
97 -> 98 ;
99 [label="tau_pt_ratio <= 1.3889\ngini = 0.450475252674\nsamples = 2402", shape="box"] ;
98 -> 99 ;
100 [label="mmc1_mass <= 130.2374\ngini = 0.479288741885\nsamples = 1582", shape="box"] ;
99 -> 100 ;
101 [label="mmc1_mass <= 120.9729\ngini = 0.458816387094\nsamples = 1180", shape="box"] ;
100 -> 101 ;
102 [label="sum_pt_full <= 304495.9375\ngini = 0.481411305834\nsamples = 655", shape="box"] ;
101 -> 102 ;
103 [label="gini = 0.4987\nsamples = 288\nvalue = [ 0.0048914   0.00542223]", shape="box"] ;
102 -> 103 ;
104 [label="gini = 0.4423\nsamples = 367\nvalue = [ 0.0032741  0.0066443]", shape="box"] ;
102 -> 104 ;
105 [label="gini = 0.3920\nsamples = 525\nvalue = [ 0.0028683  0.0078499]", shape="box"] ;
101 -> 105 ;
106 [label="gini = 0.5000\nsamples = 402\nvalue = [ 0.00611318  0.00599379]", shape="box"] ;
100 -> 106 ;
107 [label="gini = 0.3220\nsamples = 820\nvalue = [ 0.00342631  0.01356009]", shape="box"] ;
99 -> 107 ;
108 [label="tau_pt_ratio <= 1.8914\ngini = 0.481057066615\nsamples = 2192", shape="box"] ;
98 -> 108 ;
109 [label="gini = 0.5000\nsamples = 453\nvalue = [ 0.00755786  0.00755719]", shape="box"] ;
108 -> 109 ;
110 [label="sum_pt_full <= 419439.6875\ngini = 0.467873736781\nsamples = 1739", shape="box"] ;
108 -> 110 ;
111 [label="sum_pt_full <= 337677.9375\ngini = 0.4415426772\nsamples = 1054", shape="box"] ;
110 -> 111 ;
112 [label="gini = 0.4808\nsamples = 526\nvalue = [ 0.0062176   0.00924576]", shape="box"] ;
111 -> 112 ;
113 [label="gini = 0.3545\nsamples = 528\nvalue = [ 0.00263328  0.00880277]", shape="box"] ;
111 -> 113 ;
114 [label="mmc1_mass <= 119.8579\ngini = 0.488667211601\nsamples = 685", shape="box"] ;
110 -> 114 ;
115 [label="gini = 0.4995\nsamples = 242\nvalue = [ 0.00528958  0.0056209 ]", shape="box"] ;
114 -> 115 ;
116 [label="gini = 0.4667\nsamples = 443\nvalue = [ 0.00452771  0.0076763 ]", shape="box"] ;
114 -> 116 ;
117 [label="dR_tau1_tau2 <= 2.0875\ngini = 0.492418555506\nsamples = 5217", shape="box"] ;
97 -> 117 ;
118 [label="dR_tau1_tau2 <= 1.5695\ngini = 0.489203753803\nsamples = 4354", shape="box"] ;
117 -> 118 ;
119 [label="gini = 0.4968\nsamples = 254\nvalue = [ 0.00580011  0.00494087]", shape="box"] ;
118 -> 119 ;
120 [label="MET_centrality <= 1.3867\ngini = 0.487232307551\nsamples = 4100", shape="box"] ;
118 -> 120 ;
121 [label="MET_centrality <= 0.8654\ngini = 0.483095475738\nsamples = 3389", shape="box"] ;
120 -> 121 ;
122 [label="sum_pt_full <= 281981.7812\ngini = 0.497741708772\nsamples = 726", shape="box"] ;
121 -> 122 ;
123 [label="mmc1_mass <= 121.3987\ngini = 0.488511523238\nsamples = 513", shape="box"] ;
122 -> 123 ;
124 [label="gini = 0.5000\nsamples = 202\nvalue = [ 0.00803898  0.00789494]", shape="box"] ;
123 -> 124 ;
125 [label="gini = 0.4378\nsamples = 311\nvalue = [ 0.00411478  0.0086017 ]", shape="box"] ;
123 -> 125 ;
126 [label="gini = 0.4901\nsamples = 213\nvalue = [ 0.00663397  0.00499832]", shape="box"] ;
122 -> 126 ;
127 [label="sum_pt_full <= 278137.5000\ngini = 0.474519738273\nsamples = 2663", shape="box"] ;
121 -> 127 ;
128 [label="tau_pt_ratio <= 2.1390\ngini = 0.483551407217\nsamples = 2041", shape="box"] ;
127 -> 128 ;
129 [label="tau_pt_ratio <= 1.4549\ngini = 0.489256688041\nsamples = 1628", shape="box"] ;
128 -> 129 ;
130 [label="tau_pt_ratio <= 1.2686\ngini = 0.474542597806\nsamples = 929", shape="box"] ;
129 -> 130 ;
131 [label="sum_pt_full <= 221670.5000\ngini = 0.494668793358\nsamples = 600", shape="box"] ;
130 -> 131 ;
132 [label="gini = 0.4999\nsamples = 305\nvalue = [ 0.00817099  0.0084018 ]", shape="box"] ;
131 -> 132 ;
133 [label="gini = 0.4758\nsamples = 295\nvalue = [ 0.00495515  0.00774727]", shape="box"] ;
131 -> 133 ;
134 [label="gini = 0.3596\nsamples = 329\nvalue = [ 0.00276887  0.00900937]", shape="box"] ;
130 -> 134 ;
135 [label="MET_centrality <= 1.2239\ngini = 0.499029172517\nsamples = 699", shape="box"] ;
129 -> 135 ;
136 [label="gini = 0.4714\nsamples = 362\nvalue = [ 0.00567173  0.00923354]", shape="box"] ;
135 -> 136 ;
137 [label="gini = 0.4916\nsamples = 337\nvalue = [ 0.00946042  0.00729365]", shape="box"] ;
135 -> 137 ;
138 [label="gini = 0.4382\nsamples = 413\nvalue = [ 0.00482274  0.0100502 ]", shape="box"] ;
128 -> 138 ;
139 [label="sum_pt_full <= 320222.6875\ngini = 0.426511762708\nsamples = 622", shape="box"] ;
127 -> 139 ;
140 [label="gini = 0.3434\nsamples = 319\nvalue = [ 0.00221124  0.00783072]", shape="box"] ;
139 -> 140 ;
141 [label="gini = 0.4656\nsamples = 303\nvalue = [ 0.00538955  0.00922138]", shape="box"] ;
139 -> 141 ;
142 [label="MET_centrality <= 1.4043\ngini = 0.498148332098\nsamples = 711", shape="box"] ;
120 -> 142 ;
143 [label="gini = 0.4934\nsamples = 311\nvalue = [ 0.00894137  0.00709924]", shape="box"] ;
142 -> 143 ;
144 [label="tau_pt_ratio <= 1.6699\ngini = 0.481063289213\nsamples = 400", shape="box"] ;
142 -> 144 ;
145 [label="gini = 0.4997\nsamples = 218\nvalue = [ 0.00533251  0.0056221 ]", shape="box"] ;
144 -> 145 ;
146 [label="gini = 0.4290\nsamples = 182\nvalue = [ 0.00315238  0.00696331]", shape="box"] ;
144 -> 146 ;
147 [label="dR_tau1_tau2 <= 2.1184\ngini = 0.499151837272\nsamples = 863", shape="box"] ;
117 -> 147 ;
148 [label="gini = 0.4825\nsamples = 147\nvalue = [ 0.00583958  0.00399883]", shape="box"] ;
147 -> 148 ;
149 [label="MET_centrality <= 1.1808\ngini = 0.496161280508\nsamples = 716", shape="box"] ;
147 -> 149 ;
150 [label="gini = 0.4783\nsamples = 334\nvalue = [ 0.00768163  0.01172332]", shape="box"] ;
149 -> 150 ;
151 [label="tau_pt_ratio <= 1.5739\ngini = 0.499977010008\nsamples = 382", shape="box"] ;
149 -> 151 ;
152 [label="gini = 0.4891\nsamples = 135\nvalue = [ 0.00570318  0.00423863]", shape="box"] ;
151 -> 152 ;
153 [label="gini = 0.4962\nsamples = 247\nvalue = [ 0.00868033  0.01034128]", shape="box"] ;
151 -> 153 ;
154 [label="gini = 0.4895\nsamples = 278\nvalue = [ 0.01061024  0.00791918]", shape="box"] ;
70 -> 154 ;
}