digraph Tree {
0 [label="mmc1_mass <= 97.8537\ngini = 0.499143750691\nsamples = 20609", shape="box"] ;
1 [label="mmc1_mass <= 85.1241\ngini = 0.349327224567\nsamples = 6885", shape="box"] ;
0 -> 1 ;
2 [label="dR_tau1_tau2 <= 1.5629\ngini = 0.2071075322\nsamples = 3516", shape="box"] ;
1 -> 2 ;
3 [label="tau_pt_ratio <= 3.4607\ngini = 0.1815199388\nsamples = 3281", shape="box"] ;
2 -> 3 ;
4 [label="mmc1_mass <= 62.4984\ngini = 0.160140796273\nsamples = 3127", shape="box"] ;
3 -> 4 ;
5 [label="mmc1_mass <= 54.8657\ngini = 0.0264009011352\nsamples = 590", shape="box"] ;
4 -> 5 ;
6 [label="gini = 0.0018\nsamples = 350\nvalue = [  1.23594845e-02   1.13668562e-05]", shape="box"] ;
5 -> 6 ;
7 [label="gini = 0.0566\nsamples = 240\nvalue = [ 0.00948936  0.00028492]", shape="box"] ;
5 -> 7 ;
8 [label="tau_pt_ratio <= 1.4414\ngini = 0.183668635922\nsamples = 2537", shape="box"] ;
4 -> 8 ;
9 [label="mmc1_mass <= 82.3484\ngini = 0.101311276764\nsamples = 987", shape="box"] ;
8 -> 9 ;
10 [label="mmc1_mass <= 71.3370\ngini = 0.0750375701082\nsamples = 801", shape="box"] ;
9 -> 10 ;
11 [label="gini = 0.1173\nsamples = 244\nvalue = [ 0.00912978  0.0006094 ]", shape="box"] ;
10 -> 11 ;
12 [label="MET_centrality <= 1.1849\ngini = 0.0553611214063\nsamples = 557", shape="box"] ;
10 -> 12 ;
13 [label="gini = 0.0773\nsamples = 286\nvalue = [ 0.010443    0.00043833]", shape="box"] ;
12 -> 13 ;
14 [label="gini = 0.0328\nsamples = 271\nvalue = [ 0.01065696  0.00018049]", shape="box"] ;
12 -> 14 ;
15 [label="gini = 0.1803\nsamples = 186\nvalue = [ 0.00878613  0.00097799]", shape="box"] ;
9 -> 15 ;
16 [label="sum_pt_full <= 216139.2969\ngini = 0.226418739134\nsamples = 1550", shape="box"] ;
8 -> 16 ;
17 [label="gini = 0.1170\nsamples = 444\nvalue = [ 0.01647569  0.00109599]", shape="box"] ;
16 -> 17 ;
18 [label="dR_tau1_tau2 <= 1.3005\ngini = 0.257717268128\nsamples = 1106", shape="box"] ;
16 -> 18 ;
19 [label="mmc1_mass <= 72.6474\ngini = 0.198361111005\nsamples = 818", shape="box"] ;
18 -> 19 ;
20 [label="gini = 0.3038\nsamples = 201\nvalue = [ 0.00793093  0.001822  ]", shape="box"] ;
19 -> 20 ;
21 [label="mmc1_mass <= 79.5260\ngini = 0.158334957134\nsamples = 617", shape="box"] ;
19 -> 21 ;
22 [label="gini = 0.0495\nsamples = 295\nvalue = [ 0.01136684  0.00029595]", shape="box"] ;
21 -> 22 ;
23 [label="gini = 0.2218\nsamples = 322\nvalue = [ 0.01545515  0.00224966]", shape="box"] ;
21 -> 23 ;
24 [label="gini = 0.3786\nsamples = 288\nvalue = [ 0.01157918  0.00393373]", shape="box"] ;
18 -> 24 ;
25 [label="gini = 0.4071\nsamples = 154\nvalue = [ 0.00696346  0.00276882]", shape="box"] ;
3 -> 25 ;
26 [label="gini = 0.4025\nsamples = 235\nvalue = [ 0.01059154  0.00410183]", shape="box"] ;
2 -> 26 ;
27 [label="mmc1_mass <= 94.5706\ngini = 0.426144231085\nsamples = 3369", shape="box"] ;
1 -> 27 ;
28 [label="tau_pt_ratio <= 2.9822\ngini = 0.392909450137\nsamples = 2421", shape="box"] ;
27 -> 28 ;
29 [label="dR_tau1_tau2 <= 0.9894\ngini = 0.372915015528\nsamples = 2123", shape="box"] ;
28 -> 29 ;
30 [label="gini = 0.1371\nsamples = 189\nvalue = [ 0.00909164  0.00072694]", shape="box"] ;
29 -> 30 ;
31 [label="MET_centrality <= 1.3816\ngini = 0.386949300073\nsamples = 1934", shape="box"] ;
29 -> 31 ;
32 [label="tau_pt_ratio <= 1.4260\ngini = 0.363866553477\nsamples = 1607", shape="box"] ;
31 -> 32 ;
33 [label="tau_pt_ratio <= 1.1896\ngini = 0.292825629762\nsamples = 595", shape="box"] ;
32 -> 33 ;
34 [label="gini = 0.3453\nsamples = 282\nvalue = [ 0.01470548  0.00419311]", shape="box"] ;
33 -> 34 ;
35 [label="gini = 0.2263\nsamples = 313\nvalue = [ 0.01495895  0.00223718]", shape="box"] ;
33 -> 35 ;
36 [label="sum_pt_full <= 192163.9062\ngini = 0.399543304561\nsamples = 1012", shape="box"] ;
32 -> 36 ;
37 [label="gini = 0.4795\nsamples = 153\nvalue = [ 0.0058783   0.00389964]", shape="box"] ;
36 -> 37 ;
38 [label="mmc1_mass <= 92.6404\ngini = 0.376854648414\nsamples = 859", shape="box"] ;
36 -> 38 ;
39 [label="MET_centrality <= 1.2525\ngini = 0.347094504896\nsamples = 687", shape="box"] ;
38 -> 39 ;
40 [label="sum_pt_full <= 249146.8438\ngini = 0.30945670248\nsamples = 508", shape="box"] ;
39 -> 40 ;
41 [label="gini = 0.2424\nsamples = 233\nvalue = [ 0.00997221  0.00163884]", shape="box"] ;
40 -> 41 ;
42 [label="gini = 0.3506\nsamples = 275\nvalue = [ 0.01274508  0.00373635]", shape="box"] ;
40 -> 42 ;
43 [label="gini = 0.4276\nsamples = 179\nvalue = [ 0.00723674  0.00324644]", shape="box"] ;
39 -> 43 ;
44 [label="gini = 0.4534\nsamples = 172\nvalue = [ 0.0074838   0.00398186]", shape="box"] ;
38 -> 44 ;
45 [label="dR_tau1_tau2 <= 1.5168\ngini = 0.459486059156\nsamples = 327", shape="box"] ;
31 -> 45 ;
46 [label="gini = 0.4170\nsamples = 188\nvalue = [ 0.00942721  0.00396907]", shape="box"] ;
45 -> 46 ;
47 [label="gini = 0.4930\nsamples = 139\nvalue = [ 0.0055161   0.00435195]", shape="box"] ;
45 -> 47 ;
48 [label="gini = 0.4876\nsamples = 298\nvalue = [ 0.01010971  0.00735968]", shape="box"] ;
28 -> 48 ;
49 [label="tau_pt_ratio <= 1.2872\ngini = 0.479106193817\nsamples = 948", shape="box"] ;
27 -> 49 ;
50 [label="gini = 0.3847\nsamples = 195\nvalue = [ 0.01001062  0.00351514]", shape="box"] ;
49 -> 50 ;
51 [label="MET_centrality <= 1.2833\ngini = 0.491506916037\nsamples = 753", shape="box"] ;
49 -> 51 ;
52 [label="sum_pt_full <= 246549.5625\ngini = 0.463893595835\nsamples = 458", shape="box"] ;
51 -> 52 ;
53 [label="gini = 0.3972\nsamples = 196\nvalue = [ 0.00800843  0.00301077]", shape="box"] ;
52 -> 53 ;
54 [label="gini = 0.4892\nsamples = 262\nvalue = [ 0.00960611  0.007142  ]", shape="box"] ;
52 -> 54 ;
55 [label="sum_pt_full <= 270074.6250\ngini = 0.499207167287\nsamples = 295", shape="box"] ;
51 -> 55 ;
56 [label="gini = 0.4955\nsamples = 163\nvalue = [ 0.00631469  0.00521655]", shape="box"] ;
55 -> 56 ;
57 [label="gini = 0.4837\nsamples = 132\nvalue = [ 0.00452798  0.00652545]", shape="box"] ;
55 -> 57 ;
58 [label="mmc1_mass <= 106.8813\ngini = 0.424497278843\nsamples = 13724", shape="box"] ;
0 -> 58 ;
59 [label="mmc1_mass <= 101.5861\ngini = 0.495318302214\nsamples = 2695", shape="box"] ;
58 -> 59 ;
60 [label="MET_centrality <= 0.9242\ngini = 0.499868879868\nsamples = 1098", shape="box"] ;
59 -> 60 ;
61 [label="gini = 0.4682\nsamples = 264\nvalue = [ 0.01114748  0.00665615]", shape="box"] ;
60 -> 61 ;
62 [label="tau_pt_ratio <= 2.5351\ngini = 0.498208569171\nsamples = 834", shape="box"] ;
60 -> 62 ;
63 [label="mmc1_mass <= 98.5336\ngini = 0.499971177729\nsamples = 657", shape="box"] ;
62 -> 63 ;
64 [label="gini = 0.4840\nsamples = 131\nvalue = [ 0.00422159  0.0060613 ]", shape="box"] ;
63 -> 64 ;
65 [label="sum_pt_full <= 218825.2500\ngini = 0.498067029963\nsamples = 526", shape="box"] ;
63 -> 65 ;
66 [label="gini = 0.4717\nsamples = 173\nvalue = [ 0.00677994  0.0041725 ]", shape="box"] ;
65 -> 66 ;
67 [label="dR_tau1_tau2 <= 1.4421\ngini = 0.499847087945\nsamples = 353", shape="box"] ;
65 -> 67 ;
68 [label="gini = 0.4879\nsamples = 216\nvalue = [ 0.00816951  0.00596923]", shape="box"] ;
67 -> 68 ;
69 [label="gini = 0.4659\nsamples = 137\nvalue = [ 0.00371004  0.0063332 ]", shape="box"] ;
67 -> 69 ;
70 [label="gini = 0.4312\nsamples = 177\nvalue = [ 0.00309786  0.00675073]", shape="box"] ;
62 -> 70 ;
71 [label="sum_pt_full <= 273100.4688\ngini = 0.483483388369\nsamples = 1597", shape="box"] ;
59 -> 71 ;
72 [label="dR_tau1_tau2 <= 1.8378\ngini = 0.497526562101\nsamples = 882", shape="box"] ;
71 -> 72 ;
73 [label="MET_centrality <= 1.0004\ngini = 0.499999483936\nsamples = 698", shape="box"] ;
72 -> 73 ;
74 [label="gini = 0.4785\nsamples = 177\nvalue = [ 0.00679782  0.00446404]", shape="box"] ;
73 -> 74 ;
75 [label="MET_centrality <= 1.1912\ngini = 0.497382805718\nsamples = 521", shape="box"] ;
73 -> 75 ;
76 [label="gini = 0.4772\nsamples = 152\nvalue = [ 0.0039843   0.00614862]", shape="box"] ;
75 -> 76 ;
77 [label="MET_centrality <= 1.3448\ngini = 0.49998289984\nsamples = 369", shape="box"] ;
75 -> 77 ;
78 [label="gini = 0.4846\nsamples = 182\nvalue = [ 0.00573487  0.00402461]", shape="box"] ;
77 -> 78 ;
79 [label="gini = 0.4878\nsamples = 187\nvalue = [ 0.00496301  0.00679912]", shape="box"] ;
77 -> 79 ;
80 [label="gini = 0.4437\nsamples = 184\nvalue = [ 0.00383805  0.00771253]", shape="box"] ;
72 -> 80 ;
81 [label="sum_pt_full <= 307515.2812\ngini = 0.447503349458\nsamples = 715", shape="box"] ;
71 -> 81 ;
82 [label="gini = 0.3890\nsamples = 219\nvalue = [ 0.00345125  0.0096014 ]", shape="box"] ;
81 -> 82 ;
83 [label="mmc1_mass <= 104.8887\ngini = 0.466423807311\nsamples = 496", shape="box"] ;
81 -> 83 ;
84 [label="gini = 0.4347\nsamples = 300\nvalue = [ 0.0057642   0.01228613]", shape="box"] ;
83 -> 84 ;
85 [label="gini = 0.4951\nsamples = 196\nvalue = [ 0.0052007   0.00634935]", shape="box"] ;
83 -> 85 ;
86 [label="mmc1_mass <= 175.2227\ngini = 0.376649811829\nsamples = 11029", shape="box"] ;
58 -> 86 ;
87 [label="dR_tau1_tau2 <= 1.6110\ngini = 0.363363397761\nsamples = 10834", shape="box"] ;
86 -> 87 ;
88 [label="mmc1_mass <= 114.2916\ngini = 0.281052831567\nsamples = 5795", shape="box"] ;
87 -> 88 ;
89 [label="MET_centrality <= 1.3615\ngini = 0.349378848072\nsamples = 1538", shape="box"] ;
88 -> 89 ;
90 [label="MET_centrality <= 0.6905\ngini = 0.331093370192\nsamples = 1195", shape="box"] ;
89 -> 90 ;
91 [label="gini = 0.4138\nsamples = 196\nvalue = [ 0.00313789  0.00759517]", shape="box"] ;
90 -> 91 ;
92 [label="mmc1_mass <= 109.7565\ngini = 0.306079580988\nsamples = 999", shape="box"] ;
90 -> 92 ;
93 [label="gini = 0.3527\nsamples = 366\nvalue = [ 0.00440575  0.0148683 ]", shape="box"] ;
92 -> 93 ;
94 [label="tau_pt_ratio <= 1.8353\ngini = 0.263267413948\nsamples = 633", shape="box"] ;
92 -> 94 ;
95 [label="gini = 0.2169\nsamples = 346\nvalue = [ 0.00165854  0.01174048]", shape="box"] ;
94 -> 95 ;
96 [label="gini = 0.3179\nsamples = 287\nvalue = [ 0.00202007  0.00816838]", shape="box"] ;
94 -> 96 ;
97 [label="gini = 0.4040\nsamples = 343\nvalue = [ 0.00439939  0.01125938]", shape="box"] ;
89 -> 97 ;
98 [label="dR_tau1_tau2 <= 1.1538\ngini = 0.241261640268\nsamples = 4257", shape="box"] ;
88 -> 98 ;
99 [label="MET_centrality <= 1.2909\ngini = 0.156855053319\nsamples = 1236", shape="box"] ;
98 -> 99 ;
100 [label="mmc1_mass <= 122.2945\ngini = 0.199657928522\nsamples = 860", shape="box"] ;
99 -> 100 ;
101 [label="gini = 0.2670\nsamples = 357\nvalue = [ 0.00223512  0.01184885]", shape="box"] ;
100 -> 101 ;
102 [label="gini = 0.1034\nsamples = 503\nvalue = [ 0.00061636  0.01065043]", shape="box"] ;
100 -> 102 ;
103 [label="gini = 0.0363\nsamples = 376\nvalue = [ 0.00018612  0.00987177]", shape="box"] ;
99 -> 103 ;
104 [label="mmc1_mass <= 141.7495\ngini = 0.268230039437\nsamples = 3021", shape="box"] ;
98 -> 104 ;
105 [label="mmc1_mass <= 120.9341\ngini = 0.251985842829\nsamples = 2771", shape="box"] ;
104 -> 105 ;
106 [label="MET_centrality <= 0.9621\ngini = 0.302621415605\nsamples = 990", shape="box"] ;
105 -> 106 ;
107 [label="gini = 0.3985\nsamples = 269\nvalue = [ 0.00360921  0.00952712]", shape="box"] ;
106 -> 107 ;
108 [label="tau_pt_ratio <= 1.7459\ngini = 0.233375118943\nsamples = 721", shape="box"] ;
106 -> 108 ;
109 [label="gini = 0.1633\nsamples = 404\nvalue = [ 0.00111819  0.01135074]", shape="box"] ;
108 -> 109 ;
110 [label="gini = 0.3064\nsamples = 317\nvalue = [ 0.00197206  0.00847009]", shape="box"] ;
108 -> 110 ;
111 [label="dR_tau1_tau2 <= 1.2518\ngini = 0.214929950418\nsamples = 1781", shape="box"] ;
105 -> 111 ;
112 [label="gini = 0.3182\nsamples = 322\nvalue = [ 0.00213484  0.00861786]", shape="box"] ;
111 -> 112 ;
113 [label="sum_pt_full <= 318702.5000\ngini = 0.185610166112\nsamples = 1459", shape="box"] ;
111 -> 113 ;
114 [label="MET_centrality <= 1.1737\ngini = 0.242514761362\nsamples = 784", shape="box"] ;
113 -> 114 ;
115 [label="gini = 0.1637\nsamples = 389\nvalue = [ 0.00112304  0.01135953]", shape="box"] ;
114 -> 115 ;
116 [label="gini = 0.3115\nsamples = 395\nvalue = [ 0.00238155  0.00995717]", shape="box"] ;
114 -> 116 ;
117 [label="gini = 0.0997\nsamples = 675\nvalue = [ 0.00096663  0.01740314]", shape="box"] ;
113 -> 117 ;
118 [label="gini = 0.3871\nsamples = 250\nvalue = [ 0.0026934   0.00757111]", shape="box"] ;
104 -> 118 ;
119 [label="mmc1_mass <= 115.1760\ngini = 0.417808526743\nsamples = 5039", shape="box"] ;
87 -> 119 ;
120 [label="tau_pt_ratio <= 2.5509\ngini = 0.475421558767\nsamples = 1093", shape="box"] ;
119 -> 120 ;
121 [label="MET_centrality <= 0.9326\ngini = 0.484836579859\nsamples = 870", shape="box"] ;
120 -> 121 ;
122 [label="gini = 0.4993\nsamples = 147\nvalue = [ 0.0051727   0.00480081]", shape="box"] ;
121 -> 122 ;
123 [label="MET_centrality <= 1.3149\ngini = 0.473229857766\nsamples = 723", shape="box"] ;
121 -> 123 ;
124 [label="MET_centrality <= 1.1815\ngini = 0.454038416995\nsamples = 414", shape="box"] ;
123 -> 124 ;
125 [label="gini = 0.4864\nsamples = 207\nvalue = [ 0.00408169  0.00569736]", shape="box"] ;
124 -> 125 ;
126 [label="gini = 0.4076\nsamples = 207\nvalue = [ 0.00303642  0.00761505]", shape="box"] ;
124 -> 126 ;
127 [label="gini = 0.4899\nsamples = 309\nvalue = [ 0.00703937  0.00936919]", shape="box"] ;
123 -> 127 ;
128 [label="gini = 0.4039\nsamples = 223\nvalue = [ 0.00288528  0.00739026]", shape="box"] ;
120 -> 128 ;
129 [label="dR_tau1_tau2 <= 2.0233\ngini = 0.393309898277\nsamples = 3946", shape="box"] ;
119 -> 129 ;
130 [label="sum_pt_full <= 293798.3750\ngini = 0.342072706657\nsamples = 2841", shape="box"] ;
129 -> 130 ;
131 [label="mmc1_mass <= 131.0260\ngini = 0.319614820165\nsamples = 2291", shape="box"] ;
130 -> 131 ;
132 [label="MET_centrality <= 1.2483\ngini = 0.348482721559\nsamples = 1527", shape="box"] ;
131 -> 132 ;
133 [label="MET_centrality <= 0.8645\ngini = 0.295786052279\nsamples = 853", shape="box"] ;
132 -> 133 ;
134 [label="gini = 0.3911\nsamples = 256\nvalue = [ 0.00374146  0.01029095]", shape="box"] ;
133 -> 134 ;
135 [label="tau_pt_ratio <= 1.3682\ngini = 0.224570301901\nsamples = 597", shape="box"] ;
133 -> 135 ;
136 [label="gini = 0.2875\nsamples = 225\nvalue = [ 0.00171807  0.00815499]", shape="box"] ;
135 -> 136 ;
137 [label="gini = 0.1737\nsamples = 372\nvalue = [ 0.00130506  0.01227509]", shape="box"] ;
135 -> 137 ;
138 [label="tau_pt_ratio <= 1.5625\ngini = 0.407084309496\nsamples = 674", shape="box"] ;
132 -> 138 ;
139 [label="gini = 0.4497\nsamples = 356\nvalue = [ 0.00553225  0.01067541]", shape="box"] ;
138 -> 139 ;
140 [label="gini = 0.3260\nsamples = 318\nvalue = [ 0.0023798   0.00922689]", shape="box"] ;
138 -> 140 ;
141 [label="MET_centrality <= 1.2429\ngini = 0.245883293744\nsamples = 764", shape="box"] ;
131 -> 141 ;
142 [label="gini = 0.3088\nsamples = 435\nvalue = [ 0.00338979  0.01437934]", shape="box"] ;
141 -> 142 ;
143 [label="gini = 0.1302\nsamples = 329\nvalue = [ 0.00079808  0.01060686]", shape="box"] ;
141 -> 143 ;
144 [label="mmc1_mass <= 135.2030\ngini = 0.40891241495\nsamples = 550", shape="box"] ;
130 -> 144 ;
145 [label="gini = 0.3328\nsamples = 340\nvalue = [ 0.00358475  0.01341891]", shape="box"] ;
144 -> 145 ;
146 [label="gini = 0.4857\nsamples = 210\nvalue = [ 0.00415238  0.00584116]", shape="box"] ;
144 -> 146 ;
147 [label="mmc1_mass <= 143.9482\ngini = 0.46284770442\nsamples = 1105", shape="box"] ;
129 -> 147 ;
148 [label="sum_pt_full <= 210368.4375\ngini = 0.437254146034\nsamples = 816", shape="box"] ;
147 -> 148 ;
149 [label="gini = 0.4814\nsamples = 322\nvalue = [ 0.00716848  0.01059622]", shape="box"] ;
148 -> 149 ;
150 [label="tau_pt_ratio <= 2.2951\ngini = 0.397447328316\nsamples = 494", shape="box"] ;
148 -> 150 ;
151 [label="gini = 0.3098\nsamples = 246\nvalue = [ 0.00273657  0.01154487]", shape="box"] ;
150 -> 151 ;
152 [label="gini = 0.4567\nsamples = 248\nvalue = [ 0.00521014  0.00955794]", shape="box"] ;
150 -> 152 ;
153 [label="gini = 0.4986\nsamples = 289\nvalue = [ 0.00823642  0.00915404]", shape="box"] ;
147 -> 153 ;
154 [label="gini = 0.3783\nsamples = 195\nvalue = [ 0.00880082  0.00298588]", shape="box"] ;
86 -> 154 ;
}