digraph Tree {
0 [label="mmc1_mass <= 96.9015\ngini = 0.499274882327\nsamples = 20609", shape="box"] ;
1 [label="mmc1_mass <= 81.1225\ngini = 0.421063117621\nsamples = 6635", shape="box"] ;
0 -> 1 ;
2 [label="mmc1_mass <= 62.4984\ngini = 0.283968760125\nsamples = 2652", shape="box"] ;
1 -> 2 ;
3 [label="gini = 0.1026\nsamples = 593\nvalue = [ 0.01271939  0.00072975]", shape="box"] ;
2 -> 3 ;
4 [label="sum_pt_full <= 309949.1562\ngini = 0.311693076294\nsamples = 2059", shape="box"] ;
2 -> 4 ;
5 [label="mmc1_mass <= 70.3538\ngini = 0.281111979202\nsamples = 1642", shape="box"] ;
4 -> 5 ;
6 [label="gini = 0.3863\nsamples = 452\nvalue = [ 0.01202772  0.00426029]", shape="box"] ;
5 -> 6 ;
7 [label="dR_tau1_tau2 <= 1.4589\ngini = 0.228127379108\nsamples = 1190", shape="box"] ;
5 -> 7 ;
8 [label="MET_centrality <= 1.2131\ngini = 0.155939206232\nsamples = 932", shape="box"] ;
7 -> 8 ;
9 [label="gini = 0.2310\nsamples = 525\nvalue = [ 0.01445146  0.00222196]", shape="box"] ;
8 -> 9 ;
10 [label="gini = 0.0389\nsamples = 407\nvalue = [ 0.01200142  0.00024282]", shape="box"] ;
8 -> 10 ;
11 [label="gini = 0.3795\nsamples = 258\nvalue = [ 0.00806215  0.00275221]", shape="box"] ;
7 -> 11 ;
12 [label="gini = 0.3999\nsamples = 417\nvalue = [ 0.01170278  0.00446648]", shape="box"] ;
4 -> 12 ;
13 [label="tau_pt_ratio <= 3.4610\ngini = 0.452778631773\nsamples = 3983", shape="box"] ;
1 -> 13 ;
14 [label="dR_tau1_tau2 <= 1.6917\ngini = 0.4433688427\nsamples = 3705", shape="box"] ;
13 -> 14 ;
15 [label="mmc1_mass <= 84.3322\ngini = 0.429098040797\nsamples = 3278", shape="box"] ;
14 -> 15 ;
16 [label="tau_pt_ratio <= 1.4966\ngini = 0.315487617634\nsamples = 602", shape="box"] ;
15 -> 16 ;
17 [label="gini = 0.1948\nsamples = 254\nvalue = [ 0.00872037  0.00107082]", shape="box"] ;
16 -> 17 ;
18 [label="gini = 0.3680\nsamples = 348\nvalue = [ 0.01375459  0.00441729]", shape="box"] ;
16 -> 18 ;
19 [label="sum_pt_full <= 190057.1562\ngini = 0.442724373996\nsamples = 2676", shape="box"] ;
15 -> 19 ;
20 [label="gini = 0.4960\nsamples = 230\nvalue = [ 0.00997097  0.00833944]", shape="box"] ;
19 -> 20 ;
21 [label="sum_pt_full <= 209399.5312\ngini = 0.432040672958\nsamples = 2446", shape="box"] ;
19 -> 21 ;
22 [label="gini = 0.3205\nsamples = 355\nvalue = [ 0.01420193  0.00355904]", shape="box"] ;
21 -> 22 ;
23 [label="dR_tau1_tau2 <= 0.9686\ngini = 0.442891554083\nsamples = 2091", shape="box"] ;
21 -> 23 ;
24 [label="gini = 0.3076\nsamples = 217\nvalue = [ 0.00926751  0.00217152]", shape="box"] ;
23 -> 24 ;
25 [label="sum_pt_full <= 321769.1250\ngini = 0.451495895495\nsamples = 1874", shape="box"] ;
23 -> 25 ;
26 [label="dR_tau1_tau2 <= 1.4397\ngini = 0.429835753087\nsamples = 1475", shape="box"] ;
25 -> 26 ;
27 [label="tau_pt_ratio <= 2.2825\ngini = 0.39892600439\nsamples = 1006", shape="box"] ;
26 -> 27 ;
28 [label="mmc1_mass <= 93.2242\ngini = 0.36181133688\nsamples = 819", shape="box"] ;
27 -> 28 ;
29 [label="mmc1_mass <= 86.7669\ngini = 0.31673038253\nsamples = 581", shape="box"] ;
28 -> 29 ;
30 [label="gini = 0.4058\nsamples = 181\nvalue = [ 0.00730929  0.00288469]", shape="box"] ;
29 -> 30 ;
31 [label="dR_tau1_tau2 <= 1.2474\ngini = 0.264925653414\nsamples = 400", shape="box"] ;
29 -> 31 ;
32 [label="gini = 0.1936\nsamples = 182\nvalue = [ 0.00905631  0.00110355]", shape="box"] ;
31 -> 32 ;
33 [label="gini = 0.3196\nsamples = 218\nvalue = [ 0.00929292  0.00231801]", shape="box"] ;
31 -> 33 ;
34 [label="gini = 0.4275\nsamples = 238\nvalue = [ 0.01214835  0.00544639]", shape="box"] ;
28 -> 34 ;
35 [label="gini = 0.4891\nsamples = 187\nvalue = [ 0.00716787  0.00532349]", shape="box"] ;
27 -> 35 ;
36 [label="tau_pt_ratio <= 1.8570\ngini = 0.476777583854\nsamples = 469", shape="box"] ;
26 -> 36 ;
37 [label="gini = 0.4994\nsamples = 236\nvalue = [ 0.0092501   0.00861306]", shape="box"] ;
36 -> 37 ;
38 [label="gini = 0.3762\nsamples = 233\nvalue = [ 0.00852898  0.00286154]", shape="box"] ;
36 -> 38 ;
39 [label="MET_centrality <= 1.2470\ngini = 0.492435187707\nsamples = 399", shape="box"] ;
25 -> 39 ;
40 [label="tau_pt_ratio <= 1.8552\ngini = 0.473400110959\nsamples = 276", shape="box"] ;
39 -> 40 ;
41 [label="gini = 0.4943\nsamples = 143\nvalue = [ 0.00607492  0.00490225]", shape="box"] ;
40 -> 41 ;
42 [label="gini = 0.4321\nsamples = 133\nvalue = [ 0.00674401  0.00311159]", shape="box"] ;
40 -> 42 ;
43 [label="gini = 0.4943\nsamples = 123\nvalue = [ 0.00435825  0.00540051]", shape="box"] ;
39 -> 43 ;
44 [label="MET_centrality <= 1.3463\ngini = 0.496708541474\nsamples = 427", shape="box"] ;
14 -> 44 ;
45 [label="gini = 0.4667\nsamples = 275\nvalue = [ 0.01142992  0.00673975]", shape="box"] ;
44 -> 45 ;
46 [label="gini = 0.4854\nsamples = 152\nvalue = [ 0.00528918  0.00746994]", shape="box"] ;
44 -> 46 ;
47 [label="gini = 0.4991\nsamples = 278\nvalue = [ 0.00910553  0.00992894]", shape="box"] ;
13 -> 47 ;
48 [label="mmc1_mass <= 106.4299\ngini = 0.467376464454\nsamples = 13974", shape="box"] ;
0 -> 48 ;
49 [label="MET_centrality <= 0.9592\ngini = 0.498965807615\nsamples = 2799", shape="box"] ;
48 -> 49 ;
50 [label="dR_tau1_tau2 <= 1.5978\ngini = 0.497461388964\nsamples = 715", shape="box"] ;
49 -> 50 ;
51 [label="dR_tau1_tau2 <= 1.2644\ngini = 0.499909471548\nsamples = 520", shape="box"] ;
50 -> 51 ;
52 [label="gini = 0.4834\nsamples = 210\nvalue = [ 0.00933968  0.00645919]", shape="box"] ;
51 -> 52 ;
53 [label="dR_tau1_tau2 <= 1.4086\ngini = 0.491203632351\nsamples = 310", shape="box"] ;
51 -> 53 ;
54 [label="gini = 0.4435\nsamples = 122\nvalue = [ 0.00332972  0.00670273]", shape="box"] ;
53 -> 54 ;
55 [label="gini = 0.5000\nsamples = 188\nvalue = [ 0.00792543  0.00799471]", shape="box"] ;
53 -> 55 ;
56 [label="gini = 0.4332\nsamples = 195\nvalue = [ 0.00820899  0.00381541]", shape="box"] ;
50 -> 56 ;
57 [label="sum_pt_full <= 190965.1250\ngini = 0.496005141024\nsamples = 2084", shape="box"] ;
49 -> 57 ;
58 [label="gini = 0.4883\nsamples = 236\nvalue = [ 0.00894046  0.00656376]", shape="box"] ;
57 -> 58 ;
59 [label="mmc1_mass <= 100.5685\ngini = 0.492931173979\nsamples = 1848", shape="box"] ;
57 -> 59 ;
60 [label="dR_tau1_tau2 <= 1.4612\ngini = 0.499529469489\nsamples = 718", shape="box"] ;
59 -> 60 ;
61 [label="sum_pt_full <= 337073.0625\ngini = 0.494779002645\nsamples = 399", shape="box"] ;
60 -> 61 ;
62 [label="gini = 0.4737\nsamples = 239\nvalue = [ 0.01084583  0.00679754]", shape="box"] ;
61 -> 62 ;
63 [label="gini = 0.4949\nsamples = 160\nvalue = [ 0.0049761   0.00609061]", shape="box"] ;
61 -> 63 ;
64 [label="sum_pt_full <= 242305.1875\ngini = 0.48358171068\nsamples = 319", shape="box"] ;
60 -> 64 ;
65 [label="gini = 0.4999\nsamples = 200\nvalue = [ 0.00678896  0.00693069]", shape="box"] ;
64 -> 65 ;
66 [label="gini = 0.4267\nsamples = 119\nvalue = [ 0.00358519  0.00803531]", shape="box"] ;
64 -> 66 ;
67 [label="tau_pt_ratio <= 1.2740\ngini = 0.483099642434\nsamples = 1130", shape="box"] ;
59 -> 67 ;
68 [label="gini = 0.4998\nsamples = 222\nvalue = [ 0.00712011  0.00744306]", shape="box"] ;
67 -> 68 ;
69 [label="dR_tau1_tau2 <= 1.2397\ngini = 0.474945131018\nsamples = 908", shape="box"] ;
67 -> 69 ;
70 [label="gini = 0.4177\nsamples = 196\nvalue = [ 0.00379526  0.00897851]", shape="box"] ;
69 -> 70 ;
71 [label="MET_centrality <= 1.3853\ngini = 0.484961456508\nsamples = 712", shape="box"] ;
69 -> 71 ;
72 [label="tau_pt_ratio <= 1.7288\ngini = 0.474333986624\nsamples = 544", shape="box"] ;
71 -> 72 ;
73 [label="gini = 0.4040\nsamples = 179\nvalue = [ 0.00382212  0.00978208]", shape="box"] ;
72 -> 73 ;
74 [label="dR_tau1_tau2 <= 1.5982\ngini = 0.495050976824\nsamples = 365", shape="box"] ;
72 -> 74 ;
75 [label="gini = 0.4749\nsamples = 207\nvalue = [ 0.00489104  0.00771704]", shape="box"] ;
74 -> 75 ;
76 [label="gini = 0.4984\nsamples = 158\nvalue = [ 0.00530522  0.0047322 ]", shape="box"] ;
74 -> 76 ;
77 [label="gini = 0.4997\nsamples = 168\nvalue = [ 0.00502788  0.00480732]", shape="box"] ;
71 -> 77 ;
78 [label="mmc1_mass <= 175.2227\ngini = 0.441081035363\nsamples = 11175", shape="box"] ;
48 -> 78 ;
79 [label="dR_tau1_tau2 <= 1.5582\ngini = 0.43430543658\nsamples = 10980", shape="box"] ;
78 -> 79 ;
80 [label="mmc1_mass <= 111.0039\ngini = 0.38035389755\nsamples = 5358", shape="box"] ;
79 -> 80 ;
81 [label="MET_centrality <= 1.0278\ngini = 0.448999849313\nsamples = 844", shape="box"] ;
80 -> 81 ;
82 [label="gini = 0.4820\nsamples = 269\nvalue = [ 0.00649211  0.00953439]", shape="box"] ;
81 -> 82 ;
83 [label="dR_tau1_tau2 <= 1.3278\ngini = 0.420209901485\nsamples = 575", shape="box"] ;
81 -> 83 ;
84 [label="gini = 0.3490\nsamples = 313\nvalue = [ 0.00308768  0.01061901]", shape="box"] ;
83 -> 84 ;
85 [label="gini = 0.4733\nsamples = 262\nvalue = [ 0.00469509  0.00751809]", shape="box"] ;
83 -> 85 ;
86 [label="mmc1_mass <= 141.7564\ngini = 0.352934567115\nsamples = 4514", shape="box"] ;
80 -> 86 ;
87 [label="mmc1_mass <= 133.1987\ngini = 0.342163475376\nsamples = 4249", shape="box"] ;
86 -> 87 ;
88 [label="mmc1_mass <= 129.9054\ngini = 0.353806816308\nsamples = 3712", shape="box"] ;
87 -> 88 ;
89 [label="tau_pt_ratio <= 1.6790\ngini = 0.340940969487\nsamples = 3333", shape="box"] ;
88 -> 89 ;
90 [label="tau_pt_ratio <= 1.3875\ngini = 0.280956047503\nsamples = 1716", shape="box"] ;
89 -> 90 ;
91 [label="mmc1_mass <= 121.6703\ngini = 0.341288919304\nsamples = 1124", shape="box"] ;
90 -> 91 ;
92 [label="tau_pt_ratio <= 1.1805\ngini = 0.394506827646\nsamples = 666", shape="box"] ;
91 -> 92 ;
93 [label="gini = 0.3282\nsamples = 346\nvalue = [ 0.00219995  0.00843271]", shape="box"] ;
92 -> 93 ;
94 [label="gini = 0.4441\nsamples = 320\nvalue = [ 0.00359039  0.00719619]", shape="box"] ;
92 -> 94 ;
95 [label="gini = 0.2125\nsamples = 458\nvalue = [ 0.00138172  0.01005338]", shape="box"] ;
91 -> 95 ;
96 [label="gini = 0.1291\nsamples = 592\nvalue = [ 0.00112527  0.01509992]", shape="box"] ;
90 -> 96 ;
97 [label="MET_centrality <= 1.0665\ngini = 0.388024484265\nsamples = 1617", shape="box"] ;
89 -> 97 ;
98 [label="tau_pt_ratio <= 2.6049\ngini = 0.429351991156\nsamples = 638", shape="box"] ;
97 -> 98 ;
99 [label="gini = 0.4561\nsamples = 375\nvalue = [ 0.00483658  0.00890926]", shape="box"] ;
98 -> 99 ;
100 [label="gini = 0.3885\nsamples = 263\nvalue = [ 0.00299706  0.00836063]", shape="box"] ;
98 -> 100 ;
101 [label="MET_centrality <= 1.3035\ngini = 0.342568307905\nsamples = 979", shape="box"] ;
97 -> 101 ;
102 [label="gini = 0.2234\nsamples = 502\nvalue = [ 0.00149098  0.01014465]", shape="box"] ;
101 -> 102 ;
103 [label="gini = 0.4077\nsamples = 477\nvalue = [ 0.00460985  0.01155678]", shape="box"] ;
101 -> 103 ;
104 [label="gini = 0.4560\nsamples = 379\nvalue = [ 0.00342351  0.00631274]", shape="box"] ;
88 -> 104 ;
105 [label="gini = 0.2106\nsamples = 537\nvalue = [ 0.00141778  0.01043917]", shape="box"] ;
87 -> 105 ;
106 [label="gini = 0.4518\nsamples = 265\nvalue = [ 0.00358428  0.00681118]", shape="box"] ;
86 -> 106 ;
107 [label="MET_centrality <= 0.4662\ngini = 0.4598308222\nsamples = 5622", shape="box"] ;
79 -> 107 ;
108 [label="gini = 0.4998\nsamples = 300\nvalue = [ 0.00899425  0.0094011 ]", shape="box"] ;
107 -> 108 ;
109 [label="mmc1_mass <= 116.1463\ngini = 0.454495865636\nsamples = 5322", shape="box"] ;
107 -> 109 ;
110 [label="tau_pt_ratio <= 2.5867\ngini = 0.481232528129\nsamples = 1419", shape="box"] ;
109 -> 110 ;
111 [label="sum_pt_full <= 263932.3125\ngini = 0.488746559006\nsamples = 1160", shape="box"] ;
110 -> 111 ;
112 [label="MET_centrality <= 1.2114\ngini = 0.482574843387\nsamples = 1005", shape="box"] ;
111 -> 112 ;
113 [label="tau_pt_ratio <= 1.4670\ngini = 0.496562864985\nsamples = 426", shape="box"] ;
112 -> 113 ;
114 [label="gini = 0.4998\nsamples = 193\nvalue = [ 0.00576598  0.00552813]", shape="box"] ;
113 -> 114 ;
115 [label="gini = 0.4858\nsamples = 233\nvalue = [ 0.00570592  0.00801805]", shape="box"] ;
113 -> 115 ;
116 [label="MET_centrality <= 1.3458\ngini = 0.464464785301\nsamples = 579", shape="box"] ;
112 -> 116 ;
117 [label="gini = 0.4206\nsamples = 251\nvalue = [ 0.00431594  0.01003681]", shape="box"] ;
116 -> 117 ;
118 [label="gini = 0.4869\nsamples = 328\nvalue = [ 0.00759805  0.01053852]", shape="box"] ;
116 -> 118 ;
119 [label="gini = 0.4981\nsamples = 155\nvalue = [ 0.00528139  0.00466546]", shape="box"] ;
111 -> 119 ;
120 [label="gini = 0.4147\nsamples = 259\nvalue = [ 0.00394588  0.00949968]", shape="box"] ;
110 -> 120 ;
121 [label="dR_tau1_tau2 <= 2.0242\ngini = 0.438936524976\nsamples = 3903", shape="box"] ;
109 -> 121 ;
122 [label="MET_centrality <= 1.1740\ngini = 0.409157787689\nsamples = 2897", shape="box"] ;
121 -> 122 ;
123 [label="MET_centrality <= 1.0146\ngini = 0.366461809909\nsamples = 1281", shape="box"] ;
122 -> 123 ;
124 [label="dR_tau1_tau2 <= 1.7230\ngini = 0.413160761057\nsamples = 759", shape="box"] ;
123 -> 124 ;
125 [label="gini = 0.3240\nsamples = 302\nvalue = [ 0.00283708  0.01111444]", shape="box"] ;
124 -> 125 ;
126 [label="sum_pt_full <= 248568.4219\ngini = 0.455421464933\nsamples = 457", shape="box"] ;
124 -> 126 ;
127 [label="gini = 0.3855\nsamples = 265\nvalue = [ 0.00273791  0.00776138]", shape="box"] ;
126 -> 127 ;
128 [label="gini = 0.4933\nsamples = 192\nvalue = [ 0.00457293  0.00577395]", shape="box"] ;
126 -> 128 ;
129 [label="gini = 0.2473\nsamples = 522\nvalue = [ 0.00259347  0.01534578]", shape="box"] ;
123 -> 129 ;
130 [label="sum_pt_full <= 201232.9062\ngini = 0.437005747739\nsamples = 1616", shape="box"] ;
122 -> 130 ;
131 [label="gini = 0.4933\nsamples = 194\nvalue = [ 0.00467613  0.00589653]", shape="box"] ;
130 -> 131 ;
132 [label="sum_pt_full <= 293665.9062\ngini = 0.420062585566\nsamples = 1422", shape="box"] ;
130 -> 132 ;
133 [label="tau_pt_ratio <= 1.9283\ngini = 0.383326989199\nsamples = 1092", shape="box"] ;
132 -> 133 ;
134 [label="tau_pt_ratio <= 1.4517\ngini = 0.419542951575\nsamples = 778", shape="box"] ;
133 -> 134 ;
135 [label="gini = 0.3517\nsamples = 500\nvalue = [ 0.00415525  0.01409347]", shape="box"] ;
134 -> 135 ;
136 [label="gini = 0.4873\nsamples = 278\nvalue = [ 0.00455374  0.00628282]", shape="box"] ;
134 -> 136 ;
137 [label="gini = 0.2371\nsamples = 314\nvalue = [ 0.00135249  0.00848924]", shape="box"] ;
133 -> 137 ;
138 [label="gini = 0.4770\nsamples = 330\nvalue = [ 0.00686477  0.01061436]", shape="box"] ;
132 -> 138 ;
139 [label="mmc1_mass <= 138.0644\ngini = 0.479280877414\nsamples = 1006", shape="box"] ;
121 -> 139 ;
140 [label="MET_centrality <= 1.1798\ngini = 0.455314208296\nsamples = 613", shape="box"] ;
139 -> 140 ;
141 [label="gini = 0.3749\nsamples = 255\nvalue = [ 0.00329991  0.00990373]", shape="box"] ;
140 -> 141 ;
142 [label="tau_pt_ratio <= 1.8755\ngini = 0.482942470893\nsamples = 358", shape="box"] ;
140 -> 142 ;
143 [label="gini = 0.4995\nsamples = 169\nvalue = [ 0.00525238  0.0049213 ]", shape="box"] ;
142 -> 143 ;
144 [label="gini = 0.4375\nsamples = 189\nvalue = [ 0.00422657  0.00885249]", shape="box"] ;
142 -> 144 ;
145 [label="tau_pt_ratio <= 1.5687\ngini = 0.497368779732\nsamples = 393", shape="box"] ;
139 -> 145 ;
146 [label="gini = 0.4990\nsamples = 178\nvalue = [ 0.00579992  0.00529273]", shape="box"] ;
145 -> 146 ;
147 [label="gini = 0.4876\nsamples = 215\nvalue = [ 0.006508    0.00894056]", shape="box"] ;
145 -> 147 ;
148 [label="gini = 0.4320\nsamples = 195\nvalue = [ 0.00845089  0.00389683]", shape="box"] ;
78 -> 148 ;
}