digraph Tree {
0 [label="mmc1_mass <= 97.7551\ngini = 0.499120092853\nsamples = 20609", shape="box"] ;
1 [label="mmc1_mass <= 85.1241\ngini = 0.361011854285\nsamples = 6857", shape="box"] ;
0 -> 1 ;
2 [label="dR_tau1_tau2 <= 1.5629\ngini = 0.2246624913\nsamples = 3516", shape="box"] ;
1 -> 2 ;
3 [label="tau_pt_ratio <= 3.4607\ngini = 0.198848500976\nsamples = 3281", shape="box"] ;
2 -> 3 ;
4 [label="tau_pt_ratio <= 1.4414\ngini = 0.177039973707\nsamples = 3127", shape="box"] ;
3 -> 4 ;
5 [label="mmc1_mass <= 82.2280\ngini = 0.100010711142\nsamples = 1258", shape="box"] ;
4 -> 5 ;
6 [label="sum_pt_full <= 189359.9688\ngini = 0.0742333725084\nsamples = 1067", shape="box"] ;
5 -> 6 ;
7 [label="gini = 0.0259\nsamples = 337\nvalue = [ 0.00995688  0.00013217]", shape="box"] ;
6 -> 7 ;
8 [label="mmc1_mass <= 76.8483\ngini = 0.0909789524919\nsamples = 730", shape="box"] ;
6 -> 8 ;
9 [label="gini = 0.1170\nsamples = 473\nvalue = [ 0.0169545  0.0011279]", shape="box"] ;
8 -> 9 ;
10 [label="gini = 0.0418\nsamples = 257\nvalue = [ 0.00978485  0.00021356]", shape="box"] ;
8 -> 10 ;
11 [label="gini = 0.1931\nsamples = 191\nvalue = [ 0.00869749  0.00105638]", shape="box"] ;
5 -> 11 ;
12 [label="dR_tau1_tau2 <= 1.1872\ngini = 0.218242199557\nsamples = 1869", shape="box"] ;
4 -> 12 ;
13 [label="mmc1_mass <= 68.2156\ngini = 0.142721264857\nsamples = 929", shape="box"] ;
12 -> 13 ;
14 [label="gini = 0.0246\nsamples = 374\nvalue = [ 0.01324646  0.00016695]", shape="box"] ;
13 -> 14 ;
15 [label="MET_centrality <= 1.0570\ngini = 0.200032666711\nsamples = 555", shape="box"] ;
13 -> 15 ;
16 [label="gini = 0.2845\nsamples = 244\nvalue = [ 0.00974002  0.00201987]", shape="box"] ;
15 -> 16 ;
17 [label="gini = 0.1105\nsamples = 311\nvalue = [ 0.01209014  0.00075351]", shape="box"] ;
15 -> 17 ;
18 [label="sum_pt_full <= 268858.9375\ngini = 0.276288301523\nsamples = 940", shape="box"] ;
12 -> 18 ;
19 [label="sum_pt_full <= 222262.8438\ngini = 0.211261793938\nsamples = 753", shape="box"] ;
18 -> 19 ;
20 [label="gini = 0.1293\nsamples = 479\nvalue = [ 0.01756263  0.00131177]", shape="box"] ;
19 -> 20 ;
21 [label="gini = 0.2998\nsamples = 274\nvalue = [ 0.01225296  0.00275556]", shape="box"] ;
19 -> 21 ;
22 [label="gini = 0.4338\nsamples = 187\nvalue = [ 0.0068956   0.00321603]", shape="box"] ;
18 -> 22 ;
23 [label="gini = 0.4151\nsamples = 154\nvalue = [ 0.00695761  0.00289706]", shape="box"] ;
3 -> 23 ;
24 [label="gini = 0.4108\nsamples = 235\nvalue = [ 0.01057567  0.00429463]", shape="box"] ;
2 -> 24 ;
25 [label="tau_pt_ratio <= 2.8982\ngini = 0.431791347464\nsamples = 3341", shape="box"] ;
1 -> 25 ;
26 [label="dR_tau1_tau2 <= 1.6962\ngini = 0.414327151287\nsamples = 2857", shape="box"] ;
25 -> 26 ;
27 [label="mmc1_mass <= 91.2338\ngini = 0.393873028489\nsamples = 2476", shape="box"] ;
26 -> 27 ;
28 [label="mmc1_mass <= 87.2089\ngini = 0.342820763478\nsamples = 1220", shape="box"] ;
27 -> 28 ;
29 [label="mmc1_mass <= 86.6245\ngini = 0.41431459455\nsamples = 416", shape="box"] ;
28 -> 29 ;
30 [label="gini = 0.3361\nsamples = 289\nvalue = [ 0.01363291  0.00370521]", shape="box"] ;
29 -> 30 ;
31 [label="gini = 0.4909\nsamples = 127\nvalue = [ 0.00559925  0.0042657 ]", shape="box"] ;
29 -> 31 ;
32 [label="tau_pt_ratio <= 1.6939\ngini = 0.290952851888\nsamples = 804", shape="box"] ;
28 -> 32 ;
33 [label="mmc1_mass <= 89.2257\ngini = 0.222490007654\nsamples = 469", shape="box"] ;
32 -> 33 ;
34 [label="gini = 0.1345\nsamples = 252\nvalue = [ 0.01294461  0.00101204]", shape="box"] ;
33 -> 34 ;
35 [label="gini = 0.3021\nsamples = 217\nvalue = [ 0.01079267  0.00245679]", shape="box"] ;
33 -> 35 ;
36 [label="gini = 0.3712\nsamples = 335\nvalue = [ 0.01450176  0.00473813]", shape="box"] ;
32 -> 36 ;
37 [label="dR_tau1_tau2 <= 1.0347\ngini = 0.430671528604\nsamples = 1256", shape="box"] ;
27 -> 37 ;
38 [label="gini = 0.3037\nsamples = 151\nvalue = [ 0.00815428  0.00187189]", shape="box"] ;
37 -> 38 ;
39 [label="sum_pt_full <= 299871.6250\ngini = 0.443013788115\nsamples = 1105", shape="box"] ;
37 -> 39 ;
40 [label="tau_pt_ratio <= 1.5908\ngini = 0.420881607453\nsamples = 884", shape="box"] ;
39 -> 40 ;
41 [label="dR_tau1_tau2 <= 1.4398\ngini = 0.370830903873\nsamples = 500", shape="box"] ;
40 -> 41 ;
42 [label="gini = 0.2908\nsamples = 236\nvalue = [ 0.0126214   0.00270725]", shape="box"] ;
41 -> 42 ;
43 [label="gini = 0.4268\nsamples = 264\nvalue = [ 0.01166981  0.00521224]", shape="box"] ;
41 -> 43 ;
44 [label="mmc1_mass <= 94.1237\ngini = 0.468004701687\nsamples = 384", shape="box"] ;
40 -> 44 ;
45 [label="gini = 0.4864\nsamples = 171\nvalue = [ 0.00686658  0.00492346]", shape="box"] ;
44 -> 45 ;
46 [label="gini = 0.4441\nsamples = 213\nvalue = [ 0.00852718  0.00425453]", shape="box"] ;
44 -> 46 ;
47 [label="gini = 0.4914\nsamples = 221\nvalue = [ 0.0093464   0.00718371]", shape="box"] ;
39 -> 47 ;
48 [label="MET_centrality <= 1.3530\ngini = 0.492817122426\nsamples = 381", shape="box"] ;
26 -> 48 ;
49 [label="gini = 0.4428\nsamples = 256\nvalue = [ 0.01002918  0.00495845]", shape="box"] ;
48 -> 49 ;
50 [label="gini = 0.4783\nsamples = 125\nvalue = [ 0.00395081  0.00602901]", shape="box"] ;
48 -> 50 ;
51 [label="mmc1_mass <= 90.6992\ngini = 0.496422286916\nsamples = 484", shape="box"] ;
25 -> 51 ;
52 [label="gini = 0.4511\nsamples = 189\nvalue = [ 0.00678452  0.00355213]", shape="box"] ;
51 -> 52 ;
53 [label="gini = 0.4990\nsamples = 295\nvalue = [ 0.00866742  0.00948955]", shape="box"] ;
51 -> 53 ;
54 [label="mmc1_mass <= 106.4299\ngini = 0.431818616566\nsamples = 13752", shape="box"] ;
0 -> 54 ;
55 [label="MET_centrality <= 1.2652\ngini = 0.496900063399\nsamples = 2577", shape="box"] ;
54 -> 55 ;
56 [label="mmc1_mass <= 101.7896\ngini = 0.499996236071\nsamples = 1496", shape="box"] ;
55 -> 56 ;
57 [label="dR_tau1_tau2 <= 1.2480\ngini = 0.491060417654\nsamples = 684", shape="box"] ;
56 -> 57 ;
58 [label="gini = 0.4433\nsamples = 188\nvalue = [ 0.0085365  0.0042369]", shape="box"] ;
57 -> 58 ;
59 [label="dR_tau1_tau2 <= 1.5789\ngini = 0.498467485312\nsamples = 496", shape="box"] ;
57 -> 59 ;
60 [label="mmc1_mass <= 99.3387\ngini = 0.496401727444\nsamples = 264", shape="box"] ;
59 -> 60 ;
61 [label="gini = 0.4838\nsamples = 114\nvalue = [ 0.00403524  0.00580462]", shape="box"] ;
60 -> 61 ;
62 [label="gini = 0.4999\nsamples = 150\nvalue = [ 0.00493025  0.004823  ]", shape="box"] ;
60 -> 62 ;
63 [label="gini = 0.4664\nsamples = 232\nvalue = [ 0.00848886  0.00499547]", shape="box"] ;
59 -> 63 ;
64 [label="dR_tau1_tau2 <= 1.6003\ngini = 0.493652871544\nsamples = 812", shape="box"] ;
56 -> 64 ;
65 [label="tau_pt_ratio <= 2.4078\ngini = 0.475843646169\nsamples = 514", shape="box"] ;
64 -> 65 ;
66 [label="mmc1_mass <= 103.8250\ngini = 0.49025091988\nsamples = 369", shape="box"] ;
65 -> 66 ;
67 [label="gini = 0.4999\nsamples = 155\nvalue = [ 0.00485558  0.00498737]", shape="box"] ;
66 -> 67 ;
68 [label="gini = 0.4758\nsamples = 214\nvalue = [ 0.00601922  0.00941736]", shape="box"] ;
66 -> 68 ;
69 [label="gini = 0.4104\nsamples = 145\nvalue = [ 0.00287015  0.00708482]", shape="box"] ;
65 -> 69 ;
70 [label="gini = 0.4937\nsamples = 298\nvalue = [ 0.0093395   0.00745719]", shape="box"] ;
64 -> 70 ;
71 [label="sum_pt_full <= 286292.2188\ngini = 0.480678508756\nsamples = 1081", shape="box"] ;
55 -> 71 ;
72 [label="MET_centrality <= 1.4049\ngini = 0.493590500423\nsamples = 697", shape="box"] ;
71 -> 72 ;
73 [label="dR_tau1_tau2 <= 1.7147\ngini = 0.483983924677\nsamples = 526", shape="box"] ;
72 -> 73 ;
74 [label="tau_pt_ratio <= 1.4929\ngini = 0.495333470527\nsamples = 327", shape="box"] ;
73 -> 74 ;
75 [label="gini = 0.4723\nsamples = 146\nvalue = [ 0.00408121  0.0065916 ]", shape="box"] ;
74 -> 75 ;
76 [label="gini = 0.4985\nsamples = 181\nvalue = [ 0.00515586  0.00462107]", shape="box"] ;
74 -> 76 ;
77 [label="gini = 0.4536\nsamples = 199\nvalue = [ 0.00466484  0.0087502 ]", shape="box"] ;
73 -> 77 ;
78 [label="gini = 0.4937\nsamples = 171\nvalue = [ 0.00549812  0.00439103]", shape="box"] ;
72 -> 78 ;
79 [label="mmc1_mass <= 100.7160\ngini = 0.439101584065\nsamples = 384", shape="box"] ;
71 -> 79 ;
80 [label="gini = 0.4811\nsamples = 128\nvalue = [ 0.00403759  0.00598345]", shape="box"] ;
79 -> 80 ;
81 [label="gini = 0.3940\nsamples = 256\nvalue = [ 0.00375147  0.01015679]", shape="box"] ;
79 -> 81 ;
82 [label="mmc1_mass <= 155.9288\ngini = 0.388718539451\nsamples = 11175", shape="box"] ;
54 -> 82 ;
83 [label="dR_tau1_tau2 <= 1.5582\ngini = 0.370847291053\nsamples = 10756", shape="box"] ;
82 -> 83 ;
84 [label="mmc1_mass <= 111.0039\ngini = 0.289746009568\nsamples = 5324", shape="box"] ;
83 -> 84 ;
85 [label="MET_centrality <= 1.0278\ngini = 0.400454739073\nsamples = 844", shape="box"] ;
84 -> 85 ;
86 [label="gini = 0.4545\nsamples = 269\nvalue = [ 0.00521168  0.00971358]", shape="box"] ;
85 -> 86 ;
87 [label="dR_tau1_tau2 <= 1.3278\ngini = 0.359286263171\nsamples = 575", shape="box"] ;
85 -> 87 ;
88 [label="gini = 0.2694\nsamples = 313\nvalue = [ 0.00227284  0.01189625]", shape="box"] ;
87 -> 88 ;
89 [label="gini = 0.4401\nsamples = 262\nvalue = [ 0.00373555  0.00769006]", shape="box"] ;
87 -> 89 ;
90 [label="dR_tau1_tau2 <= 0.9436\ngini = 0.251135283501\nsamples = 4480", shape="box"] ;
84 -> 90 ;
91 [label="gini = 0.0717\nsamples = 427\nvalue = [ 0.00038859  0.01004516]", shape="box"] ;
90 -> 91 ;
92 [label="sum_pt_full <= 525012.3750\ngini = 0.263139057625\nsamples = 4053", shape="box"] ;
90 -> 92 ;
93 [label="dR_tau1_tau2 <= 1.1070\ngini = 0.253912915333\nsamples = 3813", shape="box"] ;
92 -> 93 ;
94 [label="gini = 0.1656\nsamples = 621\nvalue = [ 0.00157247  0.01569085]", shape="box"] ;
93 -> 94 ;
95 [label="tau_pt_ratio <= 1.6697\ngini = 0.266985115485\nsamples = 3192", shape="box"] ;
93 -> 95 ;
96 [label="tau_pt_ratio <= 1.3889\ngini = 0.236503843932\nsamples = 1697", shape="box"] ;
95 -> 96 ;
97 [label="MET_centrality <= 1.1463\ngini = 0.291937901654\nsamples = 1144", shape="box"] ;
96 -> 97 ;
98 [label="gini = 0.2214\nsamples = 527\nvalue = [ 0.0021988   0.01514512]", shape="box"] ;
97 -> 98 ;
99 [label="sum_pt_full <= 311452.0000\ngini = 0.3436222784\nsamples = 617", shape="box"] ;
97 -> 99 ;
100 [label="gini = 0.3979\nsamples = 322\nvalue = [ 0.00284132  0.00752759]", shape="box"] ;
99 -> 100 ;
101 [label="gini = 0.2761\nsamples = 295\nvalue = [ 0.00167283  0.008442  ]", shape="box"] ;
99 -> 101 ;
102 [label="gini = 0.0970\nsamples = 553\nvalue = [ 0.00091012  0.01689341]", shape="box"] ;
96 -> 102 ;
103 [label="MET_centrality <= 0.7318\ngini = 0.298309058613\nsamples = 1495", shape="box"] ;
95 -> 103 ;
104 [label="gini = 0.3860\nsamples = 243\nvalue = [ 0.00254126  0.00718755]", shape="box"] ;
103 -> 104 ;
105 [label="MET_centrality <= 1.1879\ngini = 0.273815582795\nsamples = 1252", shape="box"] ;
103 -> 105 ;
106 [label="gini = 0.2030\nsamples = 550\nvalue = [ 0.00198883  0.0153547 ]", shape="box"] ;
105 -> 106 ;
107 [label="tau_pt_ratio <= 2.1332\ngini = 0.31974416471\nsamples = 702", shape="box"] ;
105 -> 107 ;
108 [label="gini = 0.3737\nsamples = 284\nvalue = [ 0.00268377  0.00810787]", shape="box"] ;
107 -> 108 ;
109 [label="gini = 0.2667\nsamples = 418\nvalue = [ 0.00202561  0.01075475]", shape="box"] ;
107 -> 109 ;
110 [label="gini = 0.3649\nsamples = 240\nvalue = [ 0.00233695  0.00739504]", shape="box"] ;
92 -> 110 ;
111 [label="mmc1_mass <= 114.6603\ngini = 0.416437466692\nsamples = 5432", shape="box"] ;
83 -> 111 ;
112 [label="tau_pt_ratio <= 2.5867\ngini = 0.471324099454\nsamples = 1232", shape="box"] ;
111 -> 112 ;
113 [label="MET_centrality <= 0.8623\ngini = 0.481501250269\nsamples = 1004", shape="box"] ;
112 -> 113 ;
114 [label="gini = 0.4996\nsamples = 135\nvalue = [ 0.0050194   0.00475424]", shape="box"] ;
113 -> 114 ;
115 [label="mmc1_mass <= 111.9085\ngini = 0.471543633866\nsamples = 869", shape="box"] ;
113 -> 115 ;
116 [label="mmc1_mass <= 109.5714\ngini = 0.458526140679\nsamples = 564", shape="box"] ;
115 -> 116 ;
117 [label="gini = 0.4848\nsamples = 298\nvalue = [ 0.00659502  0.00938206]", shape="box"] ;
116 -> 117 ;
118 [label="gini = 0.4130\nsamples = 266\nvalue = [ 0.00409575  0.00995768]", shape="box"] ;
116 -> 118 ;
119 [label="gini = 0.4891\nsamples = 305\nvalue = [ 0.00697989  0.00940361]", shape="box"] ;
115 -> 119 ;
120 [label="gini = 0.3880\nsamples = 228\nvalue = [ 0.00298297  0.00834398]", shape="box"] ;
112 -> 120 ;
121 [label="dR_tau1_tau2 <= 2.0233\ngini = 0.39036793126\nsamples = 4200", shape="box"] ;
111 -> 121 ;
122 [label="sum_pt_full <= 194175.6250\ngini = 0.354444196469\nsamples = 3194", shape="box"] ;
121 -> 122 ;
123 [label="gini = 0.4306\nsamples = 252\nvalue = [ 0.0043387   0.00949285]", shape="box"] ;
122 -> 123 ;
124 [label="sum_pt_full <= 294439.5000\ngini = 0.343915846633\nsamples = 2942", shape="box"] ;
122 -> 124 ;
125 [label="MET_centrality <= 0.6428\ngini = 0.323174843354\nsamples = 2284", shape="box"] ;
124 -> 125 ;
126 [label="gini = 0.4069\nsamples = 206\nvalue = [ 0.002783    0.00700596]", shape="box"] ;
125 -> 126 ;
127 [label="sum_pt_full <= 265549.6875\ngini = 0.311003020612\nsamples = 2078", shape="box"] ;
125 -> 127 ;
128 [label="dR_tau1_tau2 <= 1.7121\ngini = 0.327327231792\nsamples = 1655", shape="box"] ;
127 -> 128 ;
129 [label="gini = 0.3925\nsamples = 453\nvalue = [ 0.00458937  0.0125233 ]", shape="box"] ;
128 -> 129 ;
130 [label="dR_tau1_tau2 <= 1.7677\ngini = 0.300932001884\nsamples = 1202", shape="box"] ;
128 -> 130 ;
131 [label="gini = 0.1925\nsamples = 218\nvalue = [ 0.0010535   0.00871265]", shape="box"] ;
130 -> 131 ;
132 [label="mmc1_mass <= 131.0379\ngini = 0.324279596246\nsamples = 984", shape="box"] ;
130 -> 132 ;
133 [label="MET_centrality <= 1.2903\ngini = 0.358048280753\nsamples = 620", shape="box"] ;
132 -> 133 ;
134 [label="gini = 0.2961\nsamples = 366\nvalue = [ 0.00268919  0.01219384]", shape="box"] ;
133 -> 134 ;
135 [label="gini = 0.4257\nsamples = 254\nvalue = [ 0.00328321  0.00740197]", shape="box"] ;
133 -> 135 ;
136 [label="gini = 0.2514\nsamples = 364\nvalue = [ 0.00201459  0.0116484 ]", shape="box"] ;
132 -> 136 ;
137 [label="gini = 0.2190\nsamples = 423\nvalue = [ 0.001665   0.0116401]", shape="box"] ;
127 -> 137 ;
138 [label="MET_centrality <= 1.3133\ngini = 0.39606802911\nsamples = 658", shape="box"] ;
124 -> 138 ;
139 [label="gini = 0.3388\nsamples = 453\nvalue = [ 0.00420168  0.0152409 ]", shape="box"] ;
138 -> 139 ;
140 [label="gini = 0.4633\nsamples = 205\nvalue = [ 0.00428826  0.00747764]", shape="box"] ;
138 -> 140 ;
141 [label="tau_pt_ratio <= 1.5394\ngini = 0.453966627859\nsamples = 1006", shape="box"] ;
121 -> 141 ;
142 [label="gini = 0.4894\nsamples = 337\nvalue = [ 0.00771703  0.01035269]", shape="box"] ;
141 -> 142 ;
143 [label="tau_pt_ratio <= 2.0754\ngini = 0.429830729547\nsamples = 669", shape="box"] ;
141 -> 143 ;
144 [label="gini = 0.3609\nsamples = 237\nvalue = [ 0.00353229  0.01141509]", shape="box"] ;
143 -> 144 ;
145 [label="MET_centrality <= 1.2826\ngini = 0.459827685941\nsamples = 432", shape="box"] ;
143 -> 145 ;
146 [label="gini = 0.4238\nsamples = 257\nvalue = [ 0.00401813  0.00916274]", shape="box"] ;
145 -> 146 ;
147 [label="gini = 0.4864\nsamples = 175\nvalue = [ 0.00495474  0.00690909]", shape="box"] ;
145 -> 147 ;
148 [label="sum_pt_full <= 268672.8125\ngini = 0.485745022087\nsamples = 419", shape="box"] ;
82 -> 148 ;
149 [label="gini = 0.4569\nsamples = 149\nvalue = [ 0.00345044  0.00631678]", shape="box"] ;
148 -> 149 ;
150 [label="gini = 0.3942\nsamples = 270\nvalue = [ 0.01132417  0.00418922]", shape="box"] ;
148 -> 150 ;
}