digraph Tree {
0 [label="mmc1_mass <= 97.8537\ngini = 0.499302710034\nsamples = 20609", shape="box"] ;
1 [label="mmc1_mass <= 85.1241\ngini = 0.306221942852\nsamples = 6885", shape="box"] ;
0 -> 1 ;
2 [label="dR_tau1_tau2 <= 1.5629\ngini = 0.156366114891\nsamples = 3516", shape="box"] ;
1 -> 2 ;
3 [label="tau_pt_ratio <= 3.4108\ngini = 0.132904701991\nsamples = 3281", shape="box"] ;
2 -> 3 ;
4 [label="tau_pt_ratio <= 1.4414\ngini = 0.114240518069\nsamples = 3115", shape="box"] ;
3 -> 4 ;
5 [label="mmc1_mass <= 82.4664\ngini = 0.0536210394888\nsamples = 1258", shape="box"] ;
4 -> 5 ;
6 [label="sum_pt_full <= 239874.0625\ngini = 0.0360029996913\nsamples = 1077", shape="box"] ;
5 -> 6 ;
7 [label="mmc1_mass <= 76.4409\ngini = 0.0239337229156\nsamples = 737", shape="box"] ;
6 -> 7 ;
8 [label="sum_pt_full <= 200963.1406\ngini = 0.0141486057716\nsamples = 538", shape="box"] ;
7 -> 8 ;
9 [label="gini = 0.0013\nsamples = 355\nvalue = [  1.50021529e-02   9.69401474e-06]", shape="box"] ;
8 -> 9 ;
10 [label="gini = 0.0336\nsamples = 183\nvalue = [ 0.00957733  0.00016669]", shape="box"] ;
8 -> 10 ;
11 [label="gini = 0.0484\nsamples = 199\nvalue = [ 0.00950053  0.00024151]", shape="box"] ;
7 -> 11 ;
12 [label="gini = 0.0601\nsamples = 340\nvalue = [ 0.01642379  0.00052553]", shape="box"] ;
6 -> 12 ;
13 [label="gini = 0.1368\nsamples = 181\nvalue = [ 0.00950198  0.00075788]", shape="box"] ;
5 -> 13 ;
14 [label="sum_pt_full <= 216139.2969\ngini = 0.152064932388\nsamples = 1857", shape="box"] ;
4 -> 14 ;
15 [label="dR_tau1_tau2 <= 1.3701\ngini = 0.0564063037144\nsamples = 637", shape="box"] ;
14 -> 15 ;
16 [label="gini = 0.0258\nsamples = 415\nvalue = [ 0.01774771  0.00023466]", shape="box"] ;
15 -> 16 ;
17 [label="gini = 0.1058\nsamples = 222\nvalue = [ 0.01006838  0.00059748]", shape="box"] ;
15 -> 17 ;
18 [label="dR_tau1_tau2 <= 1.3005\ngini = 0.190981141664\nsamples = 1220", shape="box"] ;
14 -> 18 ;
19 [label="tau_pt_ratio <= 1.6745\ngini = 0.13405652405\nsamples = 931", shape="box"] ;
18 -> 19 ;
20 [label="gini = 0.2027\nsamples = 216\nvalue = [ 0.01160209  0.00149926]", shape="box"] ;
19 -> 20 ;
21 [label="mmc1_mass <= 79.5260\ngini = 0.107275686279\nsamples = 715", shape="box"] ;
19 -> 21 ;
22 [label="dR_tau1_tau2 <= 1.0535\ngini = 0.0453131567117\nsamples = 469", shape="box"] ;
21 -> 22 ;
23 [label="gini = 0.0123\nsamples = 227\nvalue = [  1.03972867e-02   6.48061759e-05]", shape="box"] ;
22 -> 23 ;
24 [label="gini = 0.0740\nsamples = 242\nvalue = [ 0.01117756  0.0004475 ]", shape="box"] ;
22 -> 24 ;
25 [label="gini = 0.1966\nsamples = 246\nvalue = [ 0.0123276   0.00153208]", shape="box"] ;
21 -> 25 ;
26 [label="gini = 0.3419\nsamples = 289\nvalue = [ 0.01187024  0.00332553]", shape="box"] ;
18 -> 26 ;
27 [label="gini = 0.3662\nsamples = 166\nvalue = [ 0.00742981  0.00236388]", shape="box"] ;
3 -> 27 ;
28 [label="gini = 0.3711\nsamples = 235\nvalue = [ 0.01073953  0.00350563]", shape="box"] ;
2 -> 28 ;
29 [label="mmc1_mass <= 94.5706\ngini = 0.402438383862\nsamples = 3369", shape="box"] ;
1 -> 29 ;
30 [label="tau_pt_ratio <= 2.9822\ngini = 0.361367888529\nsamples = 2421", shape="box"] ;
29 -> 30 ;
31 [label="dR_tau1_tau2 <= 1.6251\ngini = 0.337313581799\nsamples = 2123", shape="box"] ;
30 -> 31 ;
32 [label="dR_tau1_tau2 <= 0.9894\ngini = 0.309731452308\nsamples = 1721", shape="box"] ;
31 -> 32 ;
33 [label="gini = 0.0975\nsamples = 189\nvalue = [ 0.01020745  0.00055306]", shape="box"] ;
32 -> 33 ;
34 [label="sum_pt_full <= 240269.8906\ngini = 0.328884844306\nsamples = 1532", shape="box"] ;
32 -> 34 ;
35 [label="sum_pt_full <= 192852.2500\ngini = 0.26458220649\nsamples = 747", shape="box"] ;
34 -> 35 ;
36 [label="gini = 0.3857\nsamples = 151\nvalue = [ 0.00761776  0.00268924]", shape="box"] ;
35 -> 36 ;
37 [label="mmc1_mass <= 91.5703\ngini = 0.220112075018\nsamples = 596", shape="box"] ;
35 -> 37 ;
38 [label="tau_pt_ratio <= 1.5540\ngini = 0.132384005832\nsamples = 414", shape="box"] ;
37 -> 38 ;
39 [label="gini = 0.0893\nsamples = 232\nvalue = [ 0.01341039  0.00065877]", shape="box"] ;
38 -> 39 ;
40 [label="gini = 0.1905\nsamples = 182\nvalue = [ 0.00869933  0.00103796]", shape="box"] ;
38 -> 40 ;
41 [label="gini = 0.3717\nsamples = 182\nvalue = [ 0.00811183  0.00265656]", shape="box"] ;
37 -> 41 ;
42 [label="dR_tau1_tau2 <= 1.3191\ngini = 0.378103378859\nsamples = 785", shape="box"] ;
34 -> 42 ;
43 [label="mmc1_mass <= 91.9134\ngini = 0.319259568891\nsamples = 519", shape="box"] ;
42 -> 43 ;
44 [label="mmc1_mass <= 87.9685\ngini = 0.259528261528\nsamples = 373", shape="box"] ;
43 -> 44 ;
45 [label="gini = 0.3555\nsamples = 153\nvalue = [ 0.00751766  0.00226077]", shape="box"] ;
44 -> 45 ;
46 [label="gini = 0.1715\nsamples = 220\nvalue = [ 0.01179483  0.00123451]", shape="box"] ;
44 -> 46 ;
47 [label="gini = 0.4253\nsamples = 146\nvalue = [ 0.00679057  0.00300536]", shape="box"] ;
43 -> 47 ;
48 [label="gini = 0.4581\nsamples = 266\nvalue = [ 0.01106223  0.00609498]", shape="box"] ;
42 -> 48 ;
49 [label="mmc1_mass <= 90.3963\ngini = 0.438650223471\nsamples = 402", shape="box"] ;
31 -> 49 ;
50 [label="gini = 0.4751\nsamples = 193\nvalue = [ 0.00675687  0.00429031]", shape="box"] ;
49 -> 50 ;
51 [label="gini = 0.3869\nsamples = 209\nvalue = [ 0.00826318  0.00293687]", shape="box"] ;
49 -> 51 ;
52 [label="gini = 0.4835\nsamples = 298\nvalue = [ 0.00958058  0.00663849]", shape="box"] ;
30 -> 52 ;
53 [label="MET_centrality <= 1.2833\ngini = 0.471502839818\nsamples = 948", shape="box"] ;
29 -> 53 ;
54 [label="tau_pt_ratio <= 1.4192\ngini = 0.430471322656\nsamples = 575", shape="box"] ;
53 -> 54 ;
55 [label="gini = 0.3581\nsamples = 171\nvalue = [ 0.00837755  0.00255436]", shape="box"] ;
54 -> 55 ;
56 [label="mmc1_mass <= 96.5013\ngini = 0.455681002512\nsamples = 404", shape="box"] ;
54 -> 56 ;
57 [label="gini = 0.3995\nsamples = 244\nvalue = [ 0.00939807  0.0035789 ]", shape="box"] ;
56 -> 57 ;
58 [label="gini = 0.4943\nsamples = 160\nvalue = [ 0.00567627  0.00457878]", shape="box"] ;
56 -> 58 ;
59 [label="tau_pt_ratio <= 1.8498\ngini = 0.498067892132\nsamples = 373", shape="box"] ;
53 -> 59 ;
60 [label="gini = 0.4832\nsamples = 201\nvalue = [ 0.00920976  0.00635332]", shape="box"] ;
59 -> 60 ;
61 [label="gini = 0.4929\nsamples = 172\nvalue = [ 0.00457692  0.00581963]", shape="box"] ;
59 -> 61 ;
62 [label="mmc1_mass <= 106.8813\ngini = 0.400396845724\nsamples = 13724", shape="box"] ;
0 -> 62 ;
63 [label="mmc1_mass <= 102.4580\ngini = 0.493639817474\nsamples = 2695", shape="box"] ;
62 -> 63 ;
64 [label="tau_pt_ratio <= 2.5547\ngini = 0.4999884929\nsamples = 1350", shape="box"] ;
63 -> 64 ;
65 [label="dR_tau1_tau2 <= 1.1966\ngini = 0.497825342877\nsamples = 1058", shape="box"] ;
64 -> 65 ;
66 [label="gini = 0.4618\nsamples = 199\nvalue = [ 0.00844629  0.00478652]", shape="box"] ;
65 -> 66 ;
67 [label="sum_pt_full <= 272372.1875\ngini = 0.499905786605\nsamples = 859", shape="box"] ;
65 -> 67 ;
68 [label="mmc1_mass <= 99.1322\ngini = 0.494774904612\nsamples = 667", shape="box"] ;
67 -> 68 ;
69 [label="gini = 0.4981\nsamples = 205\nvalue = [ 0.00593773  0.00670743]", shape="box"] ;
68 -> 69 ;
70 [label="sum_pt_full <= 210446.6719\ngini = 0.48411789604\nsamples = 462", shape="box"] ;
68 -> 70 ;
71 [label="gini = 0.4517\nsamples = 179\nvalue = [ 0.00694084  0.00365061]", shape="box"] ;
70 -> 71 ;
72 [label="gini = 0.4956\nsamples = 283\nvalue = [ 0.0090458   0.00749957]", shape="box"] ;
70 -> 72 ;
73 [label="gini = 0.4699\nsamples = 192\nvalue = [ 0.00512665  0.00846081]", shape="box"] ;
67 -> 73 ;
74 [label="gini = 0.4553\nsamples = 292\nvalue = [ 0.00561591  0.01040465]", shape="box"] ;
64 -> 74 ;
75 [label="sum_pt_full <= 244950.3281\ngini = 0.473680176141\nsamples = 1345", shape="box"] ;
63 -> 75 ;
76 [label="MET_centrality <= 1.3175\ngini = 0.497937127947\nsamples = 556", shape="box"] ;
75 -> 76 ;
77 [label="tau_pt_ratio <= 1.4569\ngini = 0.498448508999\nsamples = 372", shape="box"] ;
76 -> 77 ;
78 [label="gini = 0.4981\nsamples = 173\nvalue = [ 0.00456785  0.00517169]", shape="box"] ;
77 -> 78 ;
79 [label="gini = 0.4860\nsamples = 199\nvalue = [ 0.00598742  0.00426969]", shape="box"] ;
77 -> 79 ;
80 [label="gini = 0.4622\nsamples = 184\nvalue = [ 0.00412889  0.00725866]", shape="box"] ;
76 -> 80 ;
81 [label="MET_centrality <= 1.2742\ngini = 0.440699730101\nsamples = 789", shape="box"] ;
75 -> 81 ;
82 [label="tau_pt_ratio <= 1.5037\ngini = 0.460895205868\nsamples = 484", shape="box"] ;
81 -> 82 ;
83 [label="gini = 0.4914\nsamples = 159\nvalue = [ 0.00458993  0.00597288]", shape="box"] ;
82 -> 83 ;
84 [label="MET_centrality <= 0.9555\ngini = 0.43597198194\nsamples = 325", shape="box"] ;
82 -> 84 ;
85 [label="gini = 0.4670\nsamples = 158\nvalue = [ 0.00381699  0.00645662]", shape="box"] ;
84 -> 85 ;
86 [label="gini = 0.3926\nsamples = 167\nvalue = [ 0.00263431  0.00718486]", shape="box"] ;
84 -> 86 ;
87 [label="gini = 0.3840\nsamples = 305\nvalue = [ 0.00374411  0.01070398]", shape="box"] ;
81 -> 87 ;
88 [label="mmc1_mass <= 162.7357\ngini = 0.342003116471\nsamples = 11029", shape="box"] ;
62 -> 88 ;
89 [label="dR_tau1_tau2 <= 1.6110\ngini = 0.32170085368\nsamples = 10728", shape="box"] ;
88 -> 89 ;
90 [label="mmc1_mass <= 114.2916\ngini = 0.23252502894\nsamples = 5777", shape="box"] ;
89 -> 90 ;
91 [label="MET_centrality <= 0.6905\ngini = 0.309428909542\nsamples = 1538", shape="box"] ;
90 -> 91 ;
92 [label="gini = 0.3865\nsamples = 196\nvalue = [ 0.00269521  0.00760145]", shape="box"] ;
91 -> 92 ;
93 [label="MET_centrality <= 1.3615\ngini = 0.293771766949\nsamples = 1342", shape="box"] ;
91 -> 93 ;
94 [label="mmc1_mass <= 110.8949\ngini = 0.262511576566\nsamples = 999", shape="box"] ;
93 -> 94 ;
95 [label="MET_centrality <= 1.1518\ngini = 0.303980246287\nsamples = 532", shape="box"] ;
94 -> 95 ;
96 [label="gini = 0.3719\nsamples = 242\nvalue = [ 0.00264609  0.0080688 ]", shape="box"] ;
95 -> 96 ;
97 [label="gini = 0.2411\nsamples = 290\nvalue = [ 0.00192875  0.0118293 ]", shape="box"] ;
95 -> 97 ;
98 [label="gini = 0.2023\nsamples = 467\nvalue = [ 0.00213626  0.01657479]", shape="box"] ;
94 -> 98 ;
99 [label="gini = 0.3707\nsamples = 343\nvalue = [ 0.00372664  0.01143789]", shape="box"] ;
93 -> 99 ;
100 [label="dR_tau1_tau2 <= 1.1070\ngini = 0.190828007848\nsamples = 4239", shape="box"] ;
90 -> 100 ;
101 [label="mmc1_mass <= 119.5978\ngini = 0.102136064653\nsamples = 1022", shape="box"] ;
100 -> 101 ;
102 [label="gini = 0.1727\nsamples = 288\nvalue = [ 0.00118491  0.01122439]", shape="box"] ;
101 -> 102 ;
103 [label="gini = 0.0513\nsamples = 734\nvalue = [ 0.0004907   0.01814013]", shape="box"] ;
101 -> 103 ;
104 [label="mmc1_mass <= 141.3914\ngini = 0.213545598086\nsamples = 3217", shape="box"] ;
100 -> 104 ;
105 [label="MET_centrality <= 0.7703\ngini = 0.200251216989\nsamples = 2962", shape="box"] ;
104 -> 105 ;
106 [label="mmc1_mass <= 122.9695\ngini = 0.271563016083\nsamples = 494", shape="box"] ;
105 -> 106 ;
107 [label="gini = 0.3417\nsamples = 207\nvalue = [ 0.00216404  0.00773264]", shape="box"] ;
106 -> 107 ;
108 [label="gini = 0.1960\nsamples = 287\nvalue = [ 0.00118795  0.00960181]", shape="box"] ;
106 -> 108 ;
109 [label="sum_pt_full <= 318613.7812\ngini = 0.180442288854\nsamples = 2468", shape="box"] ;
105 -> 109 ;
110 [label="MET_centrality <= 1.3050\ngini = 0.208441918398\nsamples = 1224", shape="box"] ;
109 -> 110 ;
111 [label="sum_pt_full <= 285361.6875\ngini = 0.147245202486\nsamples = 769", shape="box"] ;
110 -> 111 ;
112 [label="gini = 0.1889\nsamples = 417\nvalue = [ 0.001628    0.01378611]", shape="box"] ;
111 -> 112 ;
113 [label="gini = 0.0811\nsamples = 352\nvalue = [ 0.00044272  0.01001845]", shape="box"] ;
111 -> 113 ;
114 [label="gini = 0.3047\nsamples = 455\nvalue = [ 0.00267049  0.01156947]", shape="box"] ;
110 -> 114 ;
115 [label="sum_pt_full <= 347962.2500\ngini = 0.151587989146\nsamples = 1244", shape="box"] ;
109 -> 115 ;
116 [label="gini = 0.0389\nsamples = 424\nvalue = [ 0.00021628  0.01068377]", shape="box"] ;
115 -> 116 ;
117 [label="tau_pt_ratio <= 2.5409\ngini = 0.188871388905\nsamples = 820", shape="box"] ;
115 -> 117 ;
118 [label="dR_tau1_tau2 <= 1.2421\ngini = 0.23228958163\nsamples = 550", shape="box"] ;
117 -> 118 ;
119 [label="gini = 0.1818\nsamples = 260\nvalue = [ 0.00099684  0.00886305]", shape="box"] ;
118 -> 119 ;
120 [label="gini = 0.2785\nsamples = 290\nvalue = [ 0.00164784  0.00820842]", shape="box"] ;
118 -> 120 ;
121 [label="gini = 0.0945\nsamples = 270\nvalue = [ 0.00050157  0.00958094]", shape="box"] ;
117 -> 121 ;
122 [label="gini = 0.3322\nsamples = 255\nvalue = [ 0.00208787  0.00783917]", shape="box"] ;
104 -> 122 ;
123 [label="mmc1_mass <= 114.6603\ngini = 0.387782619542\nsamples = 4951", shape="box"] ;
89 -> 123 ;
124 [label="mmc1_mass <= 109.4198\ngini = 0.468319130586\nsamples = 1016", shape="box"] ;
123 -> 124 ;
125 [label="gini = 0.4953\nsamples = 294\nvalue = [ 0.00646398  0.00785061]", shape="box"] ;
124 -> 125 ;
126 [label="mmc1_mass <= 111.1547\ngini = 0.450866371147\nsamples = 722", shape="box"] ;
124 -> 126 ;
127 [label="gini = 0.4016\nsamples = 244\nvalue = [ 0.00353502  0.00917002]", shape="box"] ;
126 -> 127 ;
128 [label="tau_pt_ratio <= 1.5736\ngini = 0.470665703212\nsamples = 478", shape="box"] ;
126 -> 128 ;
129 [label="gini = 0.4309\nsamples = 220\nvalue = [ 0.00364406  0.00795633]", shape="box"] ;
128 -> 129 ;
130 [label="gini = 0.4937\nsamples = 258\nvalue = [ 0.00514109  0.00644493]", shape="box"] ;
128 -> 130 ;
131 [label="dR_tau1_tau2 <= 2.0233\ngini = 0.356422137954\nsamples = 3935", shape="box"] ;
123 -> 131 ;
132 [label="sum_pt_full <= 293798.3750\ngini = 0.306738578481\nsamples = 2873", shape="box"] ;
131 -> 132 ;
133 [label="sum_pt_full <= 193877.5156\ngini = 0.284036897012\nsamples = 2323", shape="box"] ;
132 -> 133 ;
134 [label="gini = 0.3849\nsamples = 244\nvalue = [ 0.00337738  0.00960481]", shape="box"] ;
133 -> 134 ;
135 [label="mmc1_mass <= 140.2558\ngini = 0.265377282604\nsamples = 2079", shape="box"] ;
133 -> 135 ;
136 [label="dR_tau1_tau2 <= 1.9422\ngini = 0.277059197711\nsamples = 1818", shape="box"] ;
135 -> 136 ;
137 [label="mmc1_mass <= 122.1777\ngini = 0.261665648983\nsamples = 1566", shape="box"] ;
136 -> 137 ;
138 [label="mmc1_mass <= 118.3364\ngini = 0.311557592956\nsamples = 614", shape="box"] ;
137 -> 138 ;
139 [label="gini = 0.2553\nsamples = 310\nvalue = [ 0.00190118  0.01075326]", shape="box"] ;
138 -> 139 ;
140 [label="gini = 0.3558\nsamples = 304\nvalue = [ 0.00326105  0.01082554]", shape="box"] ;
138 -> 140 ;
141 [label="MET_centrality <= 1.1904\ngini = 0.219739506513\nsamples = 952", shape="box"] ;
137 -> 141 ;
142 [label="gini = 0.1588\nsamples = 485\nvalue = [ 0.00166954  0.01753385]", shape="box"] ;
141 -> 142 ;
143 [label="gini = 0.2854\nsamples = 467\nvalue = [ 0.00274236  0.01316399]", shape="box"] ;
141 -> 143 ;
144 [label="gini = 0.3560\nsamples = 252\nvalue = [ 0.00247908  0.0082238 ]", shape="box"] ;
136 -> 144 ;
145 [label="gini = 0.1750\nsamples = 261\nvalue = [ 0.00100101  0.00933315]", shape="box"] ;
135 -> 145 ;
146 [label="mmc1_mass <= 133.8295\ngini = 0.378643018632\nsamples = 550", shape="box"] ;
132 -> 146 ;
147 [label="gini = 0.3127\nsamples = 324\nvalue = [ 0.00316615  0.01315634]", shape="box"] ;
146 -> 147 ;
148 [label="gini = 0.4554\nsamples = 226\nvalue = [ 0.00352406  0.00652713]", shape="box"] ;
146 -> 148 ;
149 [label="mmc1_mass <= 143.9482\ngini = 0.437911288912\nsamples = 1062", shape="box"] ;
131 -> 149 ;
150 [label="MET_centrality <= 1.2426\ngini = 0.415279582778\nsamples = 831", shape="box"] ;
149 -> 150 ;
151 [label="mmc1_mass <= 127.9856\ngini = 0.354243024516\nsamples = 457", shape="box"] ;
150 -> 151 ;
152 [label="gini = 0.4107\nsamples = 228\nvalue = [ 0.00338292  0.00833369]", shape="box"] ;
151 -> 152 ;
153 [label="gini = 0.2808\nsamples = 229\nvalue = [ 0.00190269  0.00935762]", shape="box"] ;
151 -> 153 ;
154 [label="MET_centrality <= 1.3738\ngini = 0.461408401449\nsamples = 374", shape="box"] ;
150 -> 154 ;
155 [label="gini = 0.4867\nsamples = 200\nvalue = [ 0.00451097  0.0062709 ]", shape="box"] ;
154 -> 155 ;
156 [label="gini = 0.4249\nsamples = 174\nvalue = [ 0.00344322  0.00780316]", shape="box"] ;
154 -> 156 ;
157 [label="gini = 0.4911\nsamples = 231\nvalue = [ 0.00527898  0.00690684]", shape="box"] ;
149 -> 157 ;
158 [label="gini = 0.4489\nsamples = 301\nvalue = [ 0.01155111  0.00595353]", shape="box"] ;
88 -> 158 ;
}