digraph Tree {
0 [label="mass_jet1_jet2 <= 513352.6250\ngini = 0.499999999713\nsamples = 15260", shape="box"] ;
1 [label="vector_sum_pt <= 7059.8354\ngini = 0.499874973698\nsamples = 6892", shape="box"] ;
0 -> 1 ;
2 [label="gini = 0.4988\nsamples = 2985\nvalue = [ 0.12427719  0.11266719]", shape="box"] ;
1 -> 2 ;
3 [label="tau1_centrality <= 0.5197\ngini = 0.498811641007\nsamples = 3907", shape="box"] ;
1 -> 3 ;
4 [label="gini = 0.4922\nsamples = 1234\nvalue = [ 0.08505618  0.10931694]", shape="box"] ;
3 -> 4 ;
5 [label="gini = 0.5000\nsamples = 2673\nvalue = [ 0.13669238  0.13516091]", shape="box"] ;
3 -> 5 ;
6 [label="gini = 0.4993\nsamples = 8368\nvalue = [ 0.15398622  0.14284299]", shape="box"] ;
0 -> 6 ;
}