digraph Tree {
0 [label="vector_sum_pt <= 18709.6680\ngini = 0.499999999934\nsamples = 15260", shape="box"] ;
1 [label="mmc1_mass <= 102.4715\ngini = 0.499518308201\nsamples = 8942", shape="box"] ;
0 -> 1 ;
2 [label="gini = 0.4993\nsamples = 2413\nvalue = [ 0.11409554  0.10560896]", shape="box"] ;
1 -> 2 ;
3 [label="gini = 0.4951\nsamples = 6529\nvalue = [ 0.10167238  0.1239822 ]", shape="box"] ;
1 -> 3 ;
4 [label="dR_tau1_tau2 <= 1.8771\ngini = 0.499688909808\nsamples = 6318", shape="box"] ;
0 -> 4 ;
5 [label="gini = 0.4997\nsamples = 4617\nvalue = [ 0.17798668  0.18624726]", shape="box"] ;
4 -> 5 ;
6 [label="gini = 0.4933\nsamples = 1701\nvalue = [ 0.10625114  0.08415585]", shape="box"] ;
4 -> 6 ;
}