digraph Tree {
0 [label="mmc1_mass <= 112.8588\ngini = 0.499999645672\nsamples = 15260", shape="box"] ;
1 [label="MET_centrality <= 0.9939\ngini = 0.497806932518\nsamples = 7590", shape="box"] ;
0 -> 1 ;
2 [label="gini = 0.4753\nsamples = 2219\nvalue = [ 0.14060632  0.08948004]", shape="box"] ;
1 -> 2 ;
3 [label="mass_jet1_jet2 <= 313506.6250\ngini = 0.499922004877\nsamples = 5371", shape="box"] ;
1 -> 3 ;
4 [label="gini = 0.4945\nsamples = 1307\nvalue = [ 0.1041401   0.08438679]", shape="box"] ;
3 -> 4 ;
5 [label="gini = 0.4955\nsamples = 4064\nvalue = [ 0.1209681   0.14641555]", shape="box"] ;
3 -> 5 ;
6 [label="gini = 0.4891\nsamples = 7670\nvalue = [ 0.13386457  0.18013853]", shape="box"] ;
0 -> 6 ;
}