digraph Tree {
0 [label="dEta_jets <= 2.9117\ngini = 0.499999999945\nsamples = 15260", shape="box"] ;
1 [label="vector_sum_pt <= 26430.6895\ngini = 0.499561407728\nsamples = 3778", shape="box"] ;
0 -> 1 ;
2 [label="gini = 0.4949\nsamples = 2334\nvalue = [ 0.12449073  0.1017445 ]", shape="box"] ;
1 -> 2 ;
3 [label="gini = 0.4987\nsamples = 1444\nvalue = [ 0.09447596  0.10462489]", shape="box"] ;
1 -> 3 ;
4 [label="vector_sum_pt <= 25931.2637\ngini = 0.49976012964\nsamples = 11482", shape="box"] ;
0 -> 4 ;
5 [label="gini = 0.4969\nsamples = 8290\nvalue = [ 0.15180271  0.17767733]", shape="box"] ;
4 -> 5 ;
6 [label="gini = 0.4985\nsamples = 3192\nvalue = [ 0.12923582  0.11594806]", shape="box"] ;
4 -> 6 ;
}