digraph Tree {
0 [label="mass_jet1_jet2 <= 494095.4062\ngini = 0.499999999859\nsamples = 15260", shape="box"] ;
1 [label="vector_sum_pt <= 7059.8354\ngini = 0.499792278065\nsamples = 6573", shape="box"] ;
0 -> 1 ;
2 [label="gini = 0.4979\nsamples = 2824\nvalue = [ 0.1205599   0.10584644]", shape="box"] ;
1 -> 2 ;
3 [label="mass_jet1_jet2 <= 270859.5000\ngini = 0.498011657634\nsamples = 3749", shape="box"] ;
1 -> 3 ;
4 [label="gini = 0.4994\nsamples = 1323\nvalue = [ 0.09818964  0.09139719]", shape="box"] ;
3 -> 4 ;
5 [label="gini = 0.4910\nsamples = 2426\nvalue = [ 0.11396996  0.14932133]", shape="box"] ;
3 -> 5 ;
6 [label="gini = 0.4991\nsamples = 8687\nvalue = [ 0.16727209  0.15344344]", shape="box"] ;
0 -> 6 ;
}