digraph Tree {
0 [label="mass_jet1_jet2 <= 513352.6250\ngini = 0.499999999721\nsamples = 15260", shape="box"] ;
1 [label="dR_tau1_tau2 <= 1.6132\ngini = 0.499908285416\nsamples = 6892", shape="box"] ;
0 -> 1 ;
2 [label="gini = 0.4994\nsamples = 2985\nvalue = [ 0.13956903  0.13014574]", shape="box"] ;
1 -> 2 ;
3 [label="dR_tau1_tau2 <= 1.9600\ngini = 0.499049288569\nsamples = 3907", shape="box"] ;
1 -> 3 ;
4 [label="gini = 0.4952\nsamples = 1970\nvalue = [ 0.09114563  0.1108854 ]", shape="box"] ;
3 -> 4 ;
5 [label="gini = 0.5000\nsamples = 1937\nvalue = [ 0.11685991  0.11608751]", shape="box"] ;
3 -> 5 ;
6 [label="gini = 0.4995\nsamples = 8368\nvalue = [ 0.15243723  0.14286954]", shape="box"] ;
0 -> 6 ;
}