digraph Tree {
0 [label="dR_tau1_tau2 <= 2.1385\ngini = 0.499999999988\nsamples = 15260", shape="box"] ;
1 [label="dR_tau1_tau2 <= 1.6681\ngini = 0.499894648545\nsamples = 13335", shape="box"] ;
0 -> 1 ;
2 [label="mmc1_mass <= 96.4037\ngini = 0.499704820836\nsamples = 8468", shape="box"] ;
1 -> 2 ;
3 [label="gini = 0.4933\nsamples = 1935\nvalue = [ 0.1096427   0.08693574]", shape="box"] ;
2 -> 3 ;
4 [label="gini = 0.4991\nsamples = 6533\nvalue = [ 0.1275929   0.13904497]", shape="box"] ;
2 -> 4 ;
5 [label="gini = 0.4978\nsamples = 4867\nvalue = [ 0.1622503   0.18527358]", shape="box"] ;
1 -> 5 ;
6 [label="gini = 0.4981\nsamples = 1925\nvalue = [ 0.10051164  0.08874817]", shape="box"] ;
0 -> 6 ;
}