digraph Tree {
0 [label="dR_tau1_tau2 <= 1.3188\ngini = 0.49999999963\nsamples = 15260", shape="box"] ;
1 [label="gini = 0.4990\nsamples = 4142\nvalue = [ 0.10669648  0.09774951]", shape="box"] ;
0 -> 1 ;
2 [label="mmc1_mass <= 93.7729\ngini = 0.499937145337\nsamples = 11118", shape="box"] ;
0 -> 2 ;
3 [label="gini = 0.4972\nsamples = 1868\nvalue = [ 0.10553943  0.12246621]", shape="box"] ;
2 -> 3 ;
4 [label="mass_jet1_jet2 <= 289304.6250\ngini = 0.499900481136\nsamples = 9250", shape="box"] ;
2 -> 4 ;
5 [label="gini = 0.4989\nsamples = 1529\nvalue = [ 0.0981595   0.10767955]", shape="box"] ;
4 -> 5 ;
6 [label="gini = 0.4988\nsamples = 7721\nvalue = [ 0.1896182   0.17209113]", shape="box"] ;
4 -> 6 ;
}