digraph Tree {
0 [label="mass_jet1_jet2 <= 513352.6250\ngini = 0.5\nsamples = 15260", shape="box"] ;
1 [label="vector_sum_pt <= 7059.8354\ngini = 0.499880591752\nsamples = 6892", shape="box"] ;
0 -> 1 ;
2 [label="gini = 0.4981\nsamples = 2985\nvalue = [ 0.12555365  0.1110388 ]", shape="box"] ;
1 -> 2 ;
3 [label="tau1_centrality <= 0.5197\ngini = 0.498518631993\nsamples = 3907", shape="box"] ;
1 -> 3 ;
4 [label="gini = 0.4906\nsamples = 1234\nvalue = [ 0.08425101  0.11106309]", shape="box"] ;
3 -> 4 ;
5 [label="gini = 0.5000\nsamples = 2673\nvalue = [ 0.13615921  0.13472266]", shape="box"] ;
3 -> 5 ;
6 [label="gini = 0.4993\nsamples = 8368\nvalue = [ 0.15403594  0.14317564]", shape="box"] ;
0 -> 6 ;
}