digraph Tree {
0 [label="mmc1_mass <= 112.8588\ngini = 0.499997153812\nsamples = 15260", shape="box"] ;
1 [label="MET_centrality <= 0.9939\ngini = 0.495810916135\nsamples = 7590", shape="box"] ;
0 -> 1 ;
2 [label="gini = 0.4585\nsamples = 2219\nvalue = [ 0.14968131  0.08271568]", shape="box"] ;
1 -> 2 ;
3 [label="tau1_centrality <= 0.8304\ngini = 0.499953232052\nsamples = 5371", shape="box"] ;
1 -> 3 ;
4 [label="gini = 0.4934\nsamples = 2423\nvalue = [ 0.14585574  0.11588643]", shape="box"] ;
3 -> 4 ;
5 [label="gini = 0.4836\nsamples = 2948\nvalue = [ 0.07771244  0.11204841]", shape="box"] ;
3 -> 5 ;
6 [label="gini = 0.4789\nsamples = 7670\nvalue = [ 0.12555758  0.19054241]", shape="box"] ;
0 -> 6 ;
}