digraph Tree {
0 [label="vector_sum_pt <= 13431.5840\ngini = 0.499999999968\nsamples = 15260", shape="box"] ;
1 [label="mmc1_mass <= 102.6472\ngini = 0.499694946188\nsamples = 8359", shape="box"] ;
0 -> 1 ;
2 [label="gini = 0.4997\nsamples = 2231\nvalue = [ 0.10038014  0.09574879]", shape="box"] ;
1 -> 2 ;
3 [label="gini = 0.4975\nsamples = 6128\nvalue = [ 0.09543661  0.10998643]", shape="box"] ;
1 -> 3 ;
4 [label="vector_sum_pt <= 29325.6992\ngini = 0.49986243642\nsamples = 6901", shape="box"] ;
0 -> 4 ;
5 [label="gini = 0.4980\nsamples = 2988\nvalue = [ 0.11483747  0.10108862]", shape="box"] ;
4 -> 5 ;
6 [label="mass_jet1_jet2 <= 403381.6250\ngini = 0.499950073341\nsamples = 3913", shape="box"] ;
4 -> 6 ;
7 [label="gini = 0.4985\nsamples = 1482\nvalue = [ 0.09177872  0.10236845]", shape="box"] ;
6 -> 7 ;
8 [label="gini = 0.4994\nsamples = 2431\nvalue = [ 0.09757105  0.09080372]", shape="box"] ;
6 -> 8 ;
}