digraph Tree {
0 [label="eta_product_jets <= -0.9952\ngini = 0.499999999603\nsamples = 15260", shape="box"] ;
1 [label="tau2_centrality <= 0.6186\ngini = 0.499874137376\nsamples = 12428", shape="box"] ;
0 -> 1 ;
2 [label="gini = 0.4956\nsamples = 2287\nvalue = [ 0.10323748  0.08546336]", shape="box"] ;
1 -> 2 ;
3 [label="vector_sum_pt <= 27273.7051\ngini = 0.499907444873\nsamples = 10141", shape="box"] ;
1 -> 3 ;
4 [label="gini = 0.4986\nsamples = 7543\nvalue = [ 0.13946001  0.15482708]", shape="box"] ;
3 -> 4 ;
5 [label="gini = 0.4992\nsamples = 2598\nvalue = [ 0.10788376  0.09934001]", shape="box"] ;
3 -> 5 ;
6 [label="gini = 0.4994\nsamples = 2832\nvalue = [ 0.14943285  0.16035545]", shape="box"] ;
0 -> 6 ;
}