digraph Tree {
0 [label="mmc1_mass <= 116.8569\ngini = 0.499999999936\nsamples = 15260", shape="box"] ;
1 [label="mass_jet1_jet2 <= 271159.2812\ngini = 0.499885053206\nsamples = 8848", shape="box"] ;
0 -> 1 ;
2 [label="gini = 0.4973\nsamples = 1609\nvalue = [ 0.12192014  0.10520685]", shape="box"] ;
1 -> 2 ;
3 [label="dEta_jets <= 3.3875\ngini = 0.499943269862\nsamples = 7239", shape="box"] ;
1 -> 3 ;
4 [label="gini = 0.4972\nsamples = 2225\nvalue = [ 0.10461004  0.1216799 ]", shape="box"] ;
3 -> 4 ;
5 [label="gini = 0.4992\nsamples = 5014\nvalue = [ 0.14967411  0.13807972]", shape="box"] ;
3 -> 5 ;
6 [label="gini = 0.4991\nsamples = 6412\nvalue = [ 0.12380138  0.13502787]", shape="box"] ;
0 -> 6 ;
}