digraph Tree {
0 [label="mass_jet1_jet2 <= 513352.6250\ngini = 0.499999999601\nsamples = 15260", shape="box"] ;
1 [label="tau2_centrality <= 0.6934\ngini = 0.499893209555\nsamples = 6892", shape="box"] ;
0 -> 1 ;
2 [label="gini = 0.4980\nsamples = 2938\nvalue = [ 0.16800175  0.19043541]", shape="box"] ;
1 -> 2 ;
3 [label="gini = 0.4994\nsamples = 3954\nvalue = [ 0.17843738  0.16627991]", shape="box"] ;
1 -> 3 ;
4 [label="gini = 0.4994\nsamples = 8368\nvalue = [ 0.153575    0.14327055]", shape="box"] ;
0 -> 4 ;
}