digraph Tree {
0 [label="dEta_jets <= 2.9117\ngini = 0.499999999631\nsamples = 15260", shape="box"] ;
1 [label="vector_sum_pt <= 26430.6895\ngini = 0.499632638699\nsamples = 3778", shape="box"] ;
0 -> 1 ;
2 [label="gini = 0.4961\nsamples = 2334\nvalue = [ 0.12329937  0.10325075]", shape="box"] ;
1 -> 2 ;
3 [label="gini = 0.4991\nsamples = 1444\nvalue = [ 0.09530627  0.10381669]", shape="box"] ;
1 -> 3 ;
4 [label="mass_jet1_jet2 <= 538906.6250\ngini = 0.499799146144\nsamples = 11482", shape="box"] ;
0 -> 4 ;
5 [label="gini = 0.4997\nsamples = 3824\nvalue = [ 0.17336345  0.16566304]", shape="box"] ;
4 -> 5 ;
6 [label="gini = 0.4967\nsamples = 7658\nvalue = [ 0.10804449  0.12725593]", shape="box"] ;
4 -> 6 ;
}