digraph Tree {
0 [label="vector_sum_pt <= 18709.6680\ngini = 0.499999999602\nsamples = 15260", shape="box"] ;
1 [label="MET_centrality <= 1.2405\ngini = 0.499671131045\nsamples = 8942", shape="box"] ;
0 -> 1 ;
2 [label="gini = 0.4999\nsamples = 4784\nvalue = [ 0.12787842  0.1238117 ]", shape="box"] ;
1 -> 2 ;
3 [label="gini = 0.4968\nsamples = 4158\nvalue = [ 0.08966     0.10517858]", shape="box"] ;
1 -> 3 ;
4 [label="tau2_centrality <= 0.8722\ngini = 0.499784885542\nsamples = 6318", shape="box"] ;
0 -> 4 ;
5 [label="gini = 0.4984\nsamples = 3471\nvalue = [ 0.19086275  0.17013979]", shape="box"] ;
4 -> 5 ;
6 [label="gini = 0.4988\nsamples = 2847\nvalue = [ 0.09161294  0.10085583]", shape="box"] ;
4 -> 6 ;
}