digraph Tree {
0 [label="mmc1_mass <= 95.1012\ngini = 0.499609449624\nsamples = 20277", shape="box"] ;
1 [label="mmc1_mass <= 74.6446\ngini = 0.458061054846\nsamples = 6097", shape="box"] ;
0 -> 1 ;
2 [label="MET_centrality <= 0.5883\ngini = 0.348869008661\nsamples = 1610", shape="box"] ;
1 -> 2 ;
3 [label="gini = 0.4314\nsamples = 366\nvalue = [ 0.00723807  0.00332613]", shape="box"] ;
2 -> 3 ;
4 [label="dR_tau1_tau2 <= 1.2055\ngini = 0.309159463488\nsamples = 1244", shape="box"] ;
2 -> 4 ;
5 [label="gini = 0.1882\nsamples = 792\nvalue = [ 0.01253451  0.00147316]", shape="box"] ;
4 -> 5 ;
6 [label="gini = 0.4013\nsamples = 452\nvalue = [ 0.010014    0.00385379]", shape="box"] ;
4 -> 6 ;
7 [label="tau_pt_ratio <= 3.8807\ngini = 0.469192057939\nsamples = 4487", shape="box"] ;
1 -> 7 ;
8 [label="dR_tau1_tau2 <= 0.9450\ngini = 0.463002500039\nsamples = 4297", shape="box"] ;
7 -> 8 ;
9 [label="gini = 0.2290\nsamples = 283\nvalue = [ 0.00913016  0.00138728]", shape="box"] ;
8 -> 9 ;
10 [label="MET_centrality <= 0.8396\ngini = 0.468863280958\nsamples = 4014", shape="box"] ;
8 -> 10 ;
11 [label="tau_pt_ratio <= 1.7653\ngini = 0.41461886803\nsamples = 941", shape="box"] ;
10 -> 11 ;
12 [label="gini = 0.3190\nsamples = 511\nvalue = [ 0.01551906  0.00385867]", shape="box"] ;
11 -> 12 ;
13 [label="MET_centrality <= 0.4581\ngini = 0.46810322164\nsamples = 430", shape="box"] ;
11 -> 13 ;
14 [label="gini = 0.4965\nsamples = 151\nvalue = [ 0.00527508  0.0044575 ]", shape="box"] ;
13 -> 14 ;
15 [label="gini = 0.4283\nsamples = 279\nvalue = [ 0.0089645   0.00403943]", shape="box"] ;
13 -> 15 ;
16 [label="tau_pt_ratio <= 1.1658\ngini = 0.477912148733\nsamples = 3073", shape="box"] ;
10 -> 16 ;
17 [label="mmc1_mass <= 87.5968\ngini = 0.415650516344\nsamples = 410", shape="box"] ;
16 -> 17 ;
18 [label="gini = 0.4671\nsamples = 226\nvalue = [ 0.0063314   0.00374706]", shape="box"] ;
17 -> 18 ;
19 [label="gini = 0.3419\nsamples = 184\nvalue = [ 0.00801356  0.00224491]", shape="box"] ;
17 -> 19 ;
20 [label="mmc1_mass <= 90.2857\ngini = 0.48310347125\nsamples = 2663", shape="box"] ;
16 -> 20 ;
21 [label="tau_pt_ratio <= 2.4470\ngini = 0.471893565527\nsamples = 1872", shape="box"] ;
20 -> 21 ;
22 [label="tau_pt_ratio <= 1.8590\ngini = 0.455832869249\nsamples = 1520", shape="box"] ;
21 -> 22 ;
23 [label="MET_centrality <= 1.3354\ngini = 0.473616313696\nsamples = 1077", shape="box"] ;
22 -> 23 ;
24 [label="sum_pt_full <= 222043.6875\ngini = 0.491465010552\nsamples = 690", shape="box"] ;
23 -> 24 ;
25 [label="gini = 0.4449\nsamples = 362\nvalue = [ 0.01118704  0.00561044]", shape="box"] ;
24 -> 25 ;
26 [label="mmc1_mass <= 84.3382\ngini = 0.499164302455\nsamples = 328", shape="box"] ;
24 -> 26 ;
27 [label="gini = 0.4767\nsamples = 170\nvalue = [ 0.00391092  0.00606544]", shape="box"] ;
26 -> 27 ;
28 [label="gini = 0.4904\nsamples = 158\nvalue = [ 0.00554405  0.00419558]", shape="box"] ;
26 -> 28 ;
29 [label="gini = 0.4120\nsamples = 387\nvalue = [ 0.01352782  0.00553246]", shape="box"] ;
23 -> 29 ;
30 [label="gini = 0.3750\nsamples = 443\nvalue = [ 0.01387097  0.00462313]", shape="box"] ;
22 -> 30 ;
31 [label="MET_centrality <= 1.3239\ngini = 0.498564676086\nsamples = 352", shape="box"] ;
21 -> 31 ;
32 [label="gini = 0.4854\nsamples = 212\nvalue = [ 0.0082987   0.00587537]", shape="box"] ;
31 -> 32 ;
33 [label="gini = 0.4938\nsamples = 140\nvalue = [ 0.00448345  0.00560673]", shape="box"] ;
31 -> 33 ;
34 [label="sum_pt_full <= 308514.9375\ngini = 0.495856023733\nsamples = 791", shape="box"] ;
20 -> 34 ;
35 [label="sum_pt_full <= 269763.6250\ngini = 0.49938704652\nsamples = 624", shape="box"] ;
34 -> 35 ;
36 [label="sum_pt_full <= 230691.4531\ngini = 0.493406352376\nsamples = 520", shape="box"] ;
35 -> 36 ;
37 [label="MET_centrality <= 1.2991\ngini = 0.499762767515\nsamples = 344", shape="box"] ;
36 -> 37 ;
38 [label="gini = 0.4702\nsamples = 182\nvalue = [ 0.00695231  0.00422494]", shape="box"] ;
37 -> 38 ;
39 [label="gini = 0.4889\nsamples = 162\nvalue = [ 0.00618005  0.00834751]", shape="box"] ;
37 -> 39 ;
40 [label="gini = 0.4439\nsamples = 176\nvalue = [ 0.00725186  0.00361233]", shape="box"] ;
36 -> 40 ;
41 [label="gini = 0.4678\nsamples = 104\nvalue = [ 0.00377493  0.00633983]", shape="box"] ;
35 -> 41 ;
42 [label="gini = 0.4356\nsamples = 167\nvalue = [ 0.00663243  0.00312835]", shape="box"] ;
34 -> 42 ;
43 [label="gini = 0.4898\nsamples = 190\nvalue = [ 0.00594611  0.00792266]", shape="box"] ;
7 -> 43 ;
44 [label="mmc1_mass <= 107.2942\ngini = 0.488527123314\nsamples = 14180", shape="box"] ;
0 -> 44 ;
45 [label="tau_pt_ratio <= 3.5981\ngini = 0.499724863966\nsamples = 3515", shape="box"] ;
44 -> 45 ;
46 [label="mmc1_mass <= 99.8847\ngini = 0.499976834615\nsamples = 3239", shape="box"] ;
45 -> 46 ;
47 [label="MET_centrality <= 1.4043\ngini = 0.497936322583\nsamples = 1195", shape="box"] ;
46 -> 47 ;
48 [label="dR_tau1_tau2 <= 1.6513\ngini = 0.495169952701\nsamples = 1054", shape="box"] ;
47 -> 48 ;
49 [label="sum_pt_full <= 229869.9531\ngini = 0.498700714192\nsamples = 766", shape="box"] ;
48 -> 49 ;
50 [label="MET_centrality <= 1.1035\ngini = 0.486612609424\nsamples = 200", shape="box"] ;
49 -> 50 ;
51 [label="gini = 0.4464\nsamples = 89\nvalue = [ 0.00331367  0.00654021]", shape="box"] ;
50 -> 51 ;
52 [label="gini = 0.5000\nsamples = 111\nvalue = [ 0.00515777  0.00524599]", shape="box"] ;
50 -> 52 ;
53 [label="sum_pt_full <= 261105.6562\ngini = 0.487793666616\nsamples = 566", shape="box"] ;
49 -> 53 ;
54 [label="gini = 0.4337\nsamples = 151\nvalue = [ 0.0068342   0.00318626]", shape="box"] ;
53 -> 54 ;
55 [label="dR_tau1_tau2 <= 1.0893\ngini = 0.495979548154\nsamples = 415", shape="box"] ;
53 -> 55 ;
56 [label="gini = 0.4610\nsamples = 130\nvalue = [ 0.00657722  0.00370514]", shape="box"] ;
55 -> 56 ;
57 [label="dR_tau1_tau2 <= 1.2892\ngini = 0.499994848234\nsamples = 285", shape="box"] ;
55 -> 57 ;
58 [label="gini = 0.4979\nsamples = 133\nvalue = [ 0.00454934  0.00518507]", shape="box"] ;
57 -> 58 ;
59 [label="gini = 0.4987\nsamples = 152\nvalue = [ 0.00591455  0.00534622]", shape="box"] ;
57 -> 59 ;
60 [label="gini = 0.4649\nsamples = 288\nvalue = [ 0.01105548  0.00642521]", shape="box"] ;
48 -> 60 ;
61 [label="gini = 0.4891\nsamples = 141\nvalue = [ 0.00542041  0.00729407]", shape="box"] ;
47 -> 61 ;
62 [label="MET_centrality <= 1.1433\ngini = 0.498685888229\nsamples = 2044", shape="box"] ;
46 -> 62 ;
63 [label="MET_centrality <= 1.0036\ngini = 0.499816413377\nsamples = 866", shape="box"] ;
62 -> 63 ;
64 [label="tau_pt_ratio <= 1.2954\ngini = 0.49866359403\nsamples = 572", shape="box"] ;
63 -> 64 ;
65 [label="gini = 0.4775\nsamples = 128\nvalue = [ 0.00431563  0.00663987]", shape="box"] ;
64 -> 65 ;
66 [label="tau_pt_ratio <= 1.6707\ngini = 0.499999997367\nsamples = 444", shape="box"] ;
64 -> 66 ;
67 [label="gini = 0.4821\nsamples = 132\nvalue = [ 0.00585021  0.00398768]", shape="box"] ;
66 -> 67 ;
68 [label="sum_pt_full <= 280009.5000\ngini = 0.497025474099\nsamples = 312", shape="box"] ;
66 -> 68 ;
69 [label="gini = 0.4844\nsamples = 164\nvalue = [ 0.00554922  0.00793008]", shape="box"] ;
68 -> 69 ;
70 [label="gini = 0.4988\nsamples = 148\nvalue = [ 0.00557874  0.00505795]", shape="box"] ;
68 -> 70 ;
71 [label="dR_tau1_tau2 <= 1.5343\ngini = 0.48589132293\nsamples = 294", shape="box"] ;
63 -> 71 ;
72 [label="gini = 0.5000\nsamples = 148\nvalue = [ 0.00579545  0.00579311]", shape="box"] ;
71 -> 72 ;
73 [label="gini = 0.4328\nsamples = 146\nvalue = [ 0.00669256  0.00310282]", shape="box"] ;
71 -> 73 ;
74 [label="sum_pt_full <= 192727.6875\ngini = 0.494017514089\nsamples = 1178", shape="box"] ;
62 -> 74 ;
75 [label="gini = 0.4919\nsamples = 171\nvalue = [ 0.00632229  0.00489414]", shape="box"] ;
74 -> 75 ;
76 [label="MET_centrality <= 1.3737\ngini = 0.4890778975\nsamples = 1007", shape="box"] ;
74 -> 76 ;
77 [label="sum_pt_full <= 229455.2344\ngini = 0.473807225995\nsamples = 607", shape="box"] ;
76 -> 77 ;
78 [label="gini = 0.4208\nsamples = 190\nvalue = [ 0.00425147  0.00987532]", shape="box"] ;
77 -> 78 ;
79 [label="sum_pt_full <= 310851.8438\ngini = 0.489754667088\nsamples = 417", shape="box"] ;
77 -> 79 ;
80 [label="gini = 0.4999\nsamples = 266\nvalue = [ 0.00834765  0.00853073]", shape="box"] ;
79 -> 80 ;
81 [label="gini = 0.4401\nsamples = 151\nvalue = [ 0.0035983   0.00740658]", shape="box"] ;
79 -> 81 ;
82 [label="MET_centrality <= 1.4089\ngini = 0.499754820674\nsamples = 400", shape="box"] ;
76 -> 82 ;
83 [label="gini = 0.4975\nsamples = 258\nvalue = [ 0.00902642  0.00783739]", shape="box"] ;
82 -> 83 ;
84 [label="gini = 0.4847\nsamples = 142\nvalue = [ 0.00422743  0.00601673]", shape="box"] ;
82 -> 84 ;
85 [label="gini = 0.4626\nsamples = 276\nvalue = [ 0.0057615   0.01010294]", shape="box"] ;
45 -> 85 ;
86 [label="mmc1_mass <= 148.1710\ngini = 0.475497812533\nsamples = 10665", shape="box"] ;
44 -> 86 ;
87 [label="dR_tau1_tau2 <= 1.6108\ngini = 0.468763895228\nsamples = 9965", shape="box"] ;
86 -> 87 ;
88 [label="mmc1_mass <= 114.8748\ngini = 0.447000591741\nsamples = 5427", shape="box"] ;
87 -> 88 ;
89 [label="MET_centrality <= 1.3893\ngini = 0.474994292856\nsamples = 1548", shape="box"] ;
88 -> 89 ;
90 [label="MET_centrality <= 1.3001\ngini = 0.465104198149\nsamples = 1325", shape="box"] ;
89 -> 90 ;
91 [label="sum_pt_full <= 318895.6875\ngini = 0.475438914838\nsamples = 1060", shape="box"] ;
90 -> 91 ;
92 [label="mmc1_mass <= 109.4187\ngini = 0.491097481604\nsamples = 546", shape="box"] ;
91 -> 92 ;
93 [label="gini = 0.4606\nsamples = 151\nvalue = [ 0.00349999  0.00623144]", shape="box"] ;
92 -> 93 ;
94 [label="sum_pt_full <= 271144.1250\ngini = 0.497238002809\nsamples = 395", shape="box"] ;
92 -> 94 ;
95 [label="gini = 0.4997\nsamples = 195\nvalue = [ 0.00662346  0.00629216]", shape="box"] ;
94 -> 95 ;
96 [label="gini = 0.4823\nsamples = 200\nvalue = [ 0.00459615  0.00672912]", shape="box"] ;
94 -> 96 ;
97 [label="sum_pt_full <= 411796.9688\ngini = 0.43726885362\nsamples = 514", shape="box"] ;
91 -> 97 ;
98 [label="gini = 0.3364\nsamples = 300\nvalue = [ 0.00256509  0.00942289]", shape="box"] ;
97 -> 98 ;
99 [label="gini = 0.4942\nsamples = 214\nvalue = [ 0.00473295  0.00588085]", shape="box"] ;
97 -> 99 ;
100 [label="gini = 0.3732\nsamples = 265\nvalue = [ 0.00249423  0.0075564 ]", shape="box"] ;
90 -> 100 ;
101 [label="gini = 0.4992\nsamples = 223\nvalue = [ 0.00533789  0.00493332]", shape="box"] ;
89 -> 101 ;
102 [label="sum_pt_full <= 438178.9375\ngini = 0.419771772945\nsamples = 3879", shape="box"] ;
88 -> 102 ;
103 [label="sum_pt_full <= 402925.8750\ngini = 0.434217203377\nsamples = 2967", shape="box"] ;
102 -> 103 ;
104 [label="sum_pt_full <= 368202.5625\ngini = 0.418901389191\nsamples = 2602", shape="box"] ;
103 -> 104 ;
105 [label="tau_pt_ratio <= 1.2119\ngini = 0.432338868927\nsamples = 2179", shape="box"] ;
104 -> 105 ;
106 [label="gini = 0.3381\nsamples = 534\nvalue = [ 0.0026298   0.00957547]", shape="box"] ;
105 -> 106 ;
107 [label="tau_pt_ratio <= 2.0634\ngini = 0.449759748448\nsamples = 1645", shape="box"] ;
105 -> 107 ;
108 [label="sum_pt_full <= 332883.6875\ngini = 0.473444282877\nsamples = 1117", shape="box"] ;
107 -> 108 ;
109 [label="tau_pt_ratio <= 1.5008\ngini = 0.445727577739\nsamples = 838", shape="box"] ;
108 -> 109 ;
110 [label="gini = 0.4793\nsamples = 387\nvalue = [ 0.00455195  0.00688029]", shape="box"] ;
109 -> 110 ;
111 [label="gini = 0.4014\nsamples = 451\nvalue = [ 0.00348509  0.00905457]", shape="box"] ;
109 -> 111 ;
112 [label="gini = 0.5000\nsamples = 279\nvalue = [ 0.00511545  0.00509535]", shape="box"] ;
108 -> 112 ;
113 [label="gini = 0.3612\nsamples = 528\nvalue = [ 0.00333251  0.01075618]", shape="box"] ;
107 -> 113 ;
114 [label="gini = 0.3116\nsamples = 423\nvalue = [ 0.00192917  0.00806223]", shape="box"] ;
104 -> 114 ;
115 [label="gini = 0.4948\nsamples = 365\nvalue = [ 0.00485621  0.00595924]", shape="box"] ;
103 -> 115 ;
116 [label="dR_tau1_tau2 <= 1.0238\ngini = 0.35798556052\nsamples = 912", shape="box"] ;
102 -> 116 ;
117 [label="gini = 0.4032\nsamples = 466\nvalue = [ 0.0032908   0.00846432]", shape="box"] ;
116 -> 117 ;
118 [label="gini = 0.3028\nsamples = 446\nvalue = [ 0.00213685  0.00934998]", shape="box"] ;
116 -> 118 ;
119 [label="sum_pt_full <= 391558.0625\ngini = 0.481430003781\nsamples = 4538", shape="box"] ;
87 -> 119 ;
120 [label="mmc1_mass <= 117.8598\ngini = 0.478310376686\nsamples = 4379", shape="box"] ;
119 -> 120 ;
121 [label="tau_pt_ratio <= 1.7610\ngini = 0.492753867375\nsamples = 1400", shape="box"] ;
120 -> 121 ;
122 [label="dR_tau1_tau2 <= 1.8018\ngini = 0.481952034719\nsamples = 751", shape="box"] ;
121 -> 122 ;
123 [label="sum_pt_full <= 226911.0938\ngini = 0.496437491581\nsamples = 411", shape="box"] ;
122 -> 123 ;
124 [label="gini = 0.4995\nsamples = 229\nvalue = [ 0.00765105  0.00718517]", shape="box"] ;
123 -> 124 ;
125 [label="gini = 0.4693\nsamples = 182\nvalue = [ 0.003951    0.00655611]", shape="box"] ;
123 -> 125 ;
126 [label="sum_pt_full <= 203336.5938\ngini = 0.454682327361\nsamples = 340", shape="box"] ;
122 -> 126 ;
127 [label="gini = 0.4871\nsamples = 206\nvalue = [ 0.00569125  0.00787   ]", shape="box"] ;
126 -> 127 ;
128 [label="gini = 0.3839\nsamples = 134\nvalue = [ 0.00272787  0.0078019 ]", shape="box"] ;
126 -> 128 ;
129 [label="mmc1_mass <= 115.2273\ngini = 0.499620697941\nsamples = 649", shape="box"] ;
121 -> 129 ;
130 [label="mmc1_mass <= 112.0148\ngini = 0.49313850158\nsamples = 479", shape="box"] ;
129 -> 130 ;
131 [label="gini = 0.4996\nsamples = 279\nvalue = [ 0.00800249  0.00757518]", shape="box"] ;
130 -> 131 ;
132 [label="gini = 0.4504\nsamples = 200\nvalue = [ 0.00389837  0.00748391]", shape="box"] ;
130 -> 132 ;
133 [label="gini = 0.4776\nsamples = 170\nvalue = [ 0.00611987  0.00398244]", shape="box"] ;
129 -> 133 ;
134 [label="dR_tau1_tau2 <= 2.0377\ngini = 0.465869852812\nsamples = 2979", shape="box"] ;
120 -> 134 ;
135 [label="tau_pt_ratio <= 1.8628\ngini = 0.453407557245\nsamples = 2247", shape="box"] ;
134 -> 135 ;
136 [label="sum_pt_full <= 231449.6875\ngini = 0.467083798189\nsamples = 1441", shape="box"] ;
135 -> 136 ;
137 [label="MET_centrality <= 1.2848\ngini = 0.434912782714\nsamples = 674", shape="box"] ;
136 -> 137 ;
138 [label="gini = 0.3758\nsamples = 415\nvalue = [ 0.00442013  0.01320223]", shape="box"] ;
137 -> 138 ;
139 [label="gini = 0.4869\nsamples = 259\nvalue = [ 0.00510855  0.00708335]", shape="box"] ;
137 -> 139 ;
140 [label="mmc1_mass <= 124.3082\ngini = 0.484881595972\nsamples = 767", shape="box"] ;
136 -> 140 ;
141 [label="gini = 0.5000\nsamples = 206\nvalue = [ 0.00587688  0.0057845 ]", shape="box"] ;
140 -> 141 ;
142 [label="mmc1_mass <= 134.8530\ngini = 0.46730874027\nsamples = 561", shape="box"] ;
140 -> 142 ;
143 [label="gini = 0.4179\nsamples = 338\nvalue = [ 0.00351515  0.00830233]", shape="box"] ;
142 -> 143 ;
144 [label="gini = 0.4915\nsamples = 223\nvalue = [ 0.00612901  0.00796823]", shape="box"] ;
142 -> 144 ;
145 [label="MET_centrality <= 0.9122\ngini = 0.417892976829\nsamples = 806", shape="box"] ;
135 -> 145 ;
146 [label="gini = 0.4898\nsamples = 183\nvalue = [ 0.00417942  0.00556876]", shape="box"] ;
145 -> 146 ;
147 [label="tau_pt_ratio <= 2.4335\ngini = 0.366745969939\nsamples = 623", shape="box"] ;
145 -> 147 ;
148 [label="gini = 0.2759\nsamples = 321\nvalue = [ 0.00192228  0.00970732]", shape="box"] ;
147 -> 148 ;
149 [label="gini = 0.4350\nsamples = 302\nvalue = [ 0.00365769  0.00778208]", shape="box"] ;
147 -> 149 ;
150 [label="dR_tau1_tau2 <= 2.0894\ngini = 0.487302165572\nsamples = 732", shape="box"] ;
134 -> 150 ;
151 [label="gini = 0.4996\nsamples = 182\nvalue = [ 0.00522593  0.00492204]", shape="box"] ;
150 -> 151 ;
152 [label="sum_pt_full <= 224379.0938\ngini = 0.476374244202\nsamples = 550", shape="box"] ;
150 -> 152 ;
153 [label="sum_pt_full <= 197383.9375\ngini = 0.495070252211\nsamples = 306", shape="box"] ;
152 -> 153 ;
154 [label="gini = 0.4621\nsamples = 160\nvalue = [ 0.00375951  0.0066136 ]", shape="box"] ;
153 -> 154 ;
155 [label="gini = 0.4973\nsamples = 146\nvalue = [ 0.00566777  0.00489223]", shape="box"] ;
153 -> 155 ;
156 [label="gini = 0.4117\nsamples = 244\nvalue = [ 0.00353065  0.00865022]", shape="box"] ;
152 -> 156 ;
157 [label="gini = 0.4851\nsamples = 159\nvalue = [ 0.00574343  0.00405327]", shape="box"] ;
119 -> 157 ;
158 [label="sum_pt_full <= 261303.9375\ngini = 0.498800731229\nsamples = 700", shape="box"] ;
86 -> 158 ;
159 [label="gini = 0.4853\nsamples = 254\nvalue = [ 0.00773145  0.01093699]", shape="box"] ;
158 -> 159 ;
160 [label="dR_tau1_tau2 <= 1.8431\ngini = 0.478295737894\nsamples = 446", shape="box"] ;
158 -> 160 ;
161 [label="gini = 0.4993\nsamples = 219\nvalue = [ 0.00586794  0.00633329]", shape="box"] ;
160 -> 161 ;
162 [label="gini = 0.4081\nsamples = 227\nvalue = [ 0.00975015  0.00389895]", shape="box"] ;
160 -> 162 ;
}