digraph Tree {
0 [label="mmc1_mass <= 98.6313\ngini = 0.499924177254\nsamples = 20277", shape="box"] ;
1 [label="mmc1_mass <= 90.8892\ngini = 0.235276983657\nsamples = 7020", shape="box"] ;
0 -> 1 ;
2 [label="mmc1_mass <= 83.1825\ngini = 0.145677514615\nsamples = 4936", shape="box"] ;
1 -> 2 ;
3 [label="dR_tau1_tau2 <= 1.5325\ngini = 0.0778212729314\nsamples = 3082", shape="box"] ;
2 -> 3 ;
4 [label="tau_pt_ratio <= 3.0937\ngini = 0.0577057244704\nsamples = 2859", shape="box"] ;
3 -> 4 ;
5 [label="mmc1_mass <= 76.7802\ngini = 0.0431766601664\nsamples = 2683", shape="box"] ;
4 -> 5 ;
6 [label="sum_pt_full <= 332777.9375\ngini = 0.0226809764329\nsamples = 1775", shape="box"] ;
5 -> 6 ;
7 [label="dR_tau1_tau2 <= 1.2055\ngini = 0.015605656727\nsamples = 1611", shape="box"] ;
6 -> 7 ;
8 [label="dR_tau1_tau2 <= 0.8620\ngini = 0.00916971030451\nsamples = 990", shape="box"] ;
7 -> 8 ;
9 [label="gini = 0.0299\nsamples = 123\nvalue = [ 0.00961659  0.00014819]", shape="box"] ;
8 -> 9 ;
10 [label="sum_pt_full <= 258827.4688\ngini = 0.00587125662951\nsamples = 867", shape="box"] ;
8 -> 10 ;
11 [label="MET_centrality <= 1.1587\ngini = 0.00137413609561\nsamples = 689", shape="box"] ;
10 -> 11 ;
12 [label="tau_pt_ratio <= 1.7863\ngini = 1.31031711481e-07\nsamples = 429", shape="box"] ;
11 -> 12 ;
13 [label="gini = 0.0000\nsamples = 291\nvalue = [ 0.0230713  0.       ]", shape="box"] ;
12 -> 13 ;
14 [label="gini = 0.0000\nsamples = 138\nvalue = [  9.76921380e-03   2.15157446e-09]", shape="box"] ;
12 -> 14 ;
15 [label="gini = 0.0039\nsamples = 260\nvalue = [  1.79227271e-02   3.49236567e-05]", shape="box"] ;
11 -> 15 ;
16 [label="gini = 0.0258\nsamples = 178\nvalue = [ 0.01116442  0.00014795]", shape="box"] ;
10 -> 16 ;
17 [label="dR_tau1_tau2 <= 1.2669\ngini = 0.0271743231429\nsamples = 621", shape="box"] ;
7 -> 17 ;
18 [label="gini = 0.0470\nsamples = 163\nvalue = [ 0.01074988  0.000265  ]", shape="box"] ;
17 -> 18 ;
19 [label="mmc1_mass <= 72.7451\ngini = 0.0194416322051\nsamples = 458", shape="box"] ;
17 -> 19 ;
20 [label="gini = 0.0084\nsamples = 263\nvalue = [  1.72170022e-02   7.26877796e-05]", shape="box"] ;
19 -> 20 ;
21 [label="gini = 0.0361\nsamples = 195\nvalue = [ 0.01110209  0.00020808]", shape="box"] ;
19 -> 21 ;
22 [label="gini = 0.0995\nsamples = 164\nvalue = [ 0.00929229  0.0005147 ]", shape="box"] ;
6 -> 22 ;
23 [label="dR_tau1_tau2 <= 1.3836\ngini = 0.0856422032274\nsamples = 908", shape="box"] ;
5 -> 23 ;
24 [label="MET_centrality <= 0.8640\ngini = 0.0513967108716\nsamples = 656", shape="box"] ;
23 -> 24 ;
25 [label="gini = 0.1025\nsamples = 200\nvalue = [ 0.01211611  0.00069379]", shape="box"] ;
24 -> 25 ;
26 [label="tau_pt_ratio <= 1.8278\ngini = 0.0273357408065\nsamples = 456", shape="box"] ;
24 -> 26 ;
27 [label="gini = 0.0136\nsamples = 294\nvalue = [ 0.01851291  0.00012795]", shape="box"] ;
26 -> 27 ;
28 [label="gini = 0.0530\nsamples = 162\nvalue = [ 0.00946807  0.00026531]", shape="box"] ;
26 -> 28 ;
29 [label="gini = 0.1709\nsamples = 252\nvalue = [ 0.01389136  0.00144689]", shape="box"] ;
23 -> 29 ;
30 [label="gini = 0.2816\nsamples = 176\nvalue = [ 0.00809075  0.00165209]", shape="box"] ;
4 -> 30 ;
31 [label="gini = 0.3213\nsamples = 223\nvalue = [ 0.01009648  0.00254163]", shape="box"] ;
3 -> 31 ;
32 [label="tau_pt_ratio <= 2.4462\ngini = 0.256757238275\nsamples = 1854", shape="box"] ;
2 -> 32 ;
33 [label="dR_tau1_tau2 <= 1.3824\ngini = 0.185746104552\nsamples = 1419", shape="box"] ;
32 -> 33 ;
34 [label="dR_tau1_tau2 <= 1.1245\ngini = 0.11342693749\nsamples = 711", shape="box"] ;
33 -> 34 ;
35 [label="gini = 0.0230\nsamples = 258\nvalue = [ 0.01631956  0.0001921 ]", shape="box"] ;
34 -> 35 ;
36 [label="tau_pt_ratio <= 1.3846\ngini = 0.161924738911\nsamples = 453", shape="box"] ;
34 -> 36 ;
37 [label="gini = 0.0756\nsamples = 172\nvalue = [ 0.01054763  0.000432  ]", shape="box"] ;
36 -> 37 ;
38 [label="gini = 0.2118\nsamples = 281\nvalue = [ 0.01517016  0.0020761 ]", shape="box"] ;
36 -> 38 ;
39 [label="sum_pt_full <= 224948.1719\ngini = 0.258791136208\nsamples = 708", shape="box"] ;
33 -> 39 ;
40 [label="MET_centrality <= 1.2109\ngini = 0.203475379064\nsamples = 529", shape="box"] ;
39 -> 40 ;
41 [label="gini = 0.1027\nsamples = 263\nvalue = [ 0.01350854  0.00077541]", shape="box"] ;
40 -> 41 ;
42 [label="gini = 0.2858\nsamples = 266\nvalue = [ 0.01241333  0.00259137]", shape="box"] ;
40 -> 42 ;
43 [label="gini = 0.3868\nsamples = 179\nvalue = [ 0.00746072  0.00265028]", shape="box"] ;
39 -> 43 ;
44 [label="MET_centrality <= 1.2300\ngini = 0.440303135773\nsamples = 435", shape="box"] ;
32 -> 44 ;
45 [label="gini = 0.3483\nsamples = 258\nvalue = [ 0.00985566  0.00285477]", shape="box"] ;
44 -> 45 ;
46 [label="gini = 0.4963\nsamples = 177\nvalue = [ 0.0054715   0.00460034]", shape="box"] ;
44 -> 46 ;
47 [label="tau_pt_ratio <= 3.1793\ngini = 0.413926280566\nsamples = 2084", shape="box"] ;
1 -> 47 ;
48 [label="MET_centrality <= 0.9254\ngini = 0.39100806583\nsamples = 1871", shape="box"] ;
47 -> 48 ;
49 [label="tau_pt_ratio <= 1.8898\ngini = 0.257194185524\nsamples = 504", shape="box"] ;
48 -> 49 ;
50 [label="gini = 0.1440\nsamples = 311\nvalue = [ 0.01565174  0.00132613]", shape="box"] ;
49 -> 50 ;
51 [label="gini = 0.3966\nsamples = 193\nvalue = [ 0.00749693  0.00280935]", shape="box"] ;
49 -> 51 ;
52 [label="mmc1_mass <= 93.6374\ngini = 0.427018042372\nsamples = 1367", shape="box"] ;
48 -> 52 ;
53 [label="MET_centrality <= 1.2985\ngini = 0.350058225583\nsamples = 501", shape="box"] ;
52 -> 53 ;
54 [label="gini = 0.2466\nsamples = 271\nvalue = [ 0.01202449  0.00202381]", shape="box"] ;
53 -> 54 ;
55 [label="gini = 0.4262\nsamples = 230\nvalue = [ 0.00976913  0.00434668]", shape="box"] ;
53 -> 55 ;
56 [label="sum_pt_full <= 205057.1250\ngini = 0.460733988717\nsamples = 866", shape="box"] ;
52 -> 56 ;
57 [label="gini = 0.4919\nsamples = 216\nvalue = [ 0.00638308  0.0049443 ]", shape="box"] ;
56 -> 57 ;
58 [label="mmc1_mass <= 96.2774\ngini = 0.445356801194\nsamples = 650", shape="box"] ;
56 -> 58 ;
59 [label="gini = 0.4178\nsamples = 336\nvalue = [ 0.01297736  0.00548817]", shape="box"] ;
58 -> 59 ;
60 [label="gini = 0.4702\nsamples = 314\nvalue = [ 0.00995547  0.0060493 ]", shape="box"] ;
58 -> 60 ;
61 [label="gini = 0.4977\nsamples = 213\nvalue = [ 0.00507137  0.00581669]", shape="box"] ;
47 -> 61 ;
62 [label="mmc1_mass <= 106.6642\ngini = 0.3506702438\nsamples = 13257", shape="box"] ;
0 -> 62 ;
63 [label="mmc1_mass <= 102.5798\ngini = 0.488250941149\nsamples = 2365", shape="box"] ;
62 -> 63 ;
64 [label="sum_pt_full <= 202434.7188\ngini = 0.499990369919\nsamples = 1120", shape="box"] ;
63 -> 64 ;
65 [label="gini = 0.4784\nsamples = 210\nvalue = [ 0.00602535  0.00395205]", shape="box"] ;
64 -> 65 ;
66 [label="dR_tau1_tau2 <= 1.1708\ngini = 0.498753882903\nsamples = 910", shape="box"] ;
64 -> 66 ;
67 [label="gini = 0.4857\nsamples = 222\nvalue = [ 0.00587229  0.00417217]", shape="box"] ;
66 -> 67 ;
68 [label="MET_centrality <= 1.0701\ngini = 0.493914647951\nsamples = 688", shape="box"] ;
66 -> 68 ;
69 [label="gini = 0.4980\nsamples = 226\nvalue = [ 0.00641158  0.0056421 ]", shape="box"] ;
68 -> 69 ;
70 [label="MET_centrality <= 1.2742\ngini = 0.480720045606\nsamples = 462", shape="box"] ;
68 -> 70 ;
71 [label="gini = 0.4551\nsamples = 178\nvalue = [ 0.00362939  0.00673763]", shape="box"] ;
70 -> 71 ;
72 [label="gini = 0.4928\nsamples = 284\nvalue = [ 0.00617368  0.00785616]", shape="box"] ;
70 -> 72 ;
73 [label="MET_centrality <= 1.1474\ngini = 0.457298388084\nsamples = 1245", shape="box"] ;
63 -> 73 ;
74 [label="tau_pt_ratio <= 1.5834\ngini = 0.495325140239\nsamples = 554", shape="box"] ;
73 -> 74 ;
75 [label="gini = 0.4968\nsamples = 208\nvalue = [ 0.00565264  0.00481339]", shape="box"] ;
74 -> 75 ;
76 [label="gini = 0.4785\nsamples = 346\nvalue = [ 0.00661623  0.01008211]", shape="box"] ;
74 -> 76 ;
77 [label="mmc1_mass <= 104.1335\ngini = 0.398076344996\nsamples = 691", shape="box"] ;
73 -> 77 ;
78 [label="gini = 0.4720\nsamples = 245\nvalue = [ 0.00416234  0.00674103]", shape="box"] ;
77 -> 78 ;
79 [label="dR_tau1_tau2 <= 1.5240\ngini = 0.345483974822\nsamples = 446", shape="box"] ;
77 -> 79 ;
80 [label="gini = 0.2439\nsamples = 236\nvalue = [ 0.0017636   0.01064228]", shape="box"] ;
79 -> 80 ;
81 [label="gini = 0.4357\nsamples = 210\nvalue = [ 0.0032215  0.0068233]", shape="box"] ;
79 -> 81 ;
82 [label="mmc1_mass <= 164.9010\ngini = 0.29154151596\nsamples = 10892", shape="box"] ;
62 -> 82 ;
83 [label="dR_tau1_tau2 <= 1.5390\ngini = 0.270299093959\nsamples = 10657", shape="box"] ;
82 -> 83 ;
84 [label="mmc1_mass <= 114.8776\ngini = 0.171203291476\nsamples = 4983", shape="box"] ;
83 -> 84 ;
85 [label="dR_tau1_tau2 <= 1.2768\ngini = 0.289036140781\nsamples = 1482", shape="box"] ;
84 -> 85 ;
86 [label="mmc1_mass <= 110.8851\ngini = 0.217415584525\nsamples = 771", shape="box"] ;
85 -> 86 ;
87 [label="gini = 0.2749\nsamples = 377\nvalue = [ 0.00268528  0.01363918]", shape="box"] ;
86 -> 87 ;
88 [label="gini = 0.1506\nsamples = 394\nvalue = [ 0.00128564  0.01438471]", shape="box"] ;
86 -> 88 ;
89 [label="tau_pt_ratio <= 1.4393\ngini = 0.35177106728\nsamples = 711", shape="box"] ;
85 -> 89 ;
90 [label="gini = 0.3964\nsamples = 250\nvalue = [ 0.00301725  0.00805934]", shape="box"] ;
89 -> 90 ;
91 [label="mmc1_mass <= 110.9047\ngini = 0.32369542191\nsamples = 461", shape="box"] ;
89 -> 91 ;
92 [label="gini = 0.3699\nsamples = 238\nvalue = [ 0.0024805   0.00764723]", shape="box"] ;
91 -> 92 ;
93 [label="gini = 0.2693\nsamples = 223\nvalue = [ 0.00159087  0.00832798]", shape="box"] ;
91 -> 93 ;
94 [label="MET_centrality <= 1.4020\ngini = 0.107287992713\nsamples = 3501", shape="box"] ;
84 -> 94 ;
95 [label="dR_tau1_tau2 <= 1.1588\ngini = 0.0949521464096\nsamples = 3159", shape="box"] ;
94 -> 95 ;
96 [label="dR_tau1_tau2 <= 0.9488\ngini = 0.0514259463402\nsamples = 1084", shape="box"] ;
95 -> 96 ;
97 [label="gini = 0.0109\nsamples = 338\nvalue = [  8.07288839e-05   1.46262011e-02]", shape="box"] ;
96 -> 97 ;
98 [label="MET_centrality <= 1.1718\ngini = 0.07256654075\nsamples = 746", shape="box"] ;
96 -> 98 ;
99 [label="gini = 0.1044\nsamples = 433\nvalue = [ 0.00090164  0.01540902]", shape="box"] ;
98 -> 99 ;
100 [label="gini = 0.0227\nsamples = 313\nvalue = [ 0.00012553  0.01080625]", shape="box"] ;
98 -> 100 ;
101 [label="tau_pt_ratio <= 1.8800\ngini = 0.117288956305\nsamples = 2075", shape="box"] ;
95 -> 101 ;
102 [label="mmc1_mass <= 119.3878\ngini = 0.0859277541151\nsamples = 1266", shape="box"] ;
101 -> 102 ;
103 [label="gini = 0.1625\nsamples = 290\nvalue = [ 0.00098118  0.01001806]", shape="box"] ;
102 -> 103 ;
104 [label="sum_pt_full <= 336403.5000\ngini = 0.0611094887112\nsamples = 976", shape="box"] ;
102 -> 104 ;
105 [label="gini = 0.0263\nsamples = 552\nvalue = [ 0.00025297  0.01872389]", shape="box"] ;
104 -> 105 ;
106 [label="gini = 0.0979\nsamples = 424\nvalue = [ 0.00088893  0.01632734]", shape="box"] ;
104 -> 106 ;
107 [label="sum_pt_full <= 394500.0625\ngini = 0.162166458862\nsamples = 809", shape="box"] ;
101 -> 107 ;
108 [label="sum_pt_full <= 329370.0000\ngini = 0.120100699594\nsamples = 551", shape="box"] ;
107 -> 108 ;
109 [label="gini = 0.1614\nsamples = 271\nvalue = [ 0.00086372  0.00889373]", shape="box"] ;
108 -> 109 ;
110 [label="gini = 0.0798\nsamples = 280\nvalue = [ 0.0004395   0.01011255]", shape="box"] ;
108 -> 110 ;
111 [label="gini = 0.2331\nsamples = 258\nvalue = [ 0.0014873  0.0095555]", shape="box"] ;
107 -> 111 ;
112 [label="gini = 0.2011\nsamples = 342\nvalue = [ 0.00166974  0.01305665]", shape="box"] ;
94 -> 112 ;
113 [label="mmc1_mass <= 112.3164\ngini = 0.335353358188\nsamples = 5674", shape="box"] ;
83 -> 113 ;
114 [label="MET_centrality <= 1.0830\ngini = 0.42964808771\nsamples = 896", shape="box"] ;
113 -> 114 ;
115 [label="gini = 0.4848\nsamples = 297\nvalue = [ 0.00552965  0.0078665 ]", shape="box"] ;
114 -> 115 ;
116 [label="sum_pt_full <= 208898.7500\ngini = 0.391048467282\nsamples = 599", shape="box"] ;
114 -> 116 ;
117 [label="gini = 0.4582\nsamples = 223\nvalue = [ 0.0038796   0.00703326]", shape="box"] ;
116 -> 117 ;
118 [label="gini = 0.3363\nsamples = 376\nvalue = [ 0.00393593  0.0144668 ]", shape="box"] ;
116 -> 118 ;
119 [label="mmc1_mass <= 145.0076\ngini = 0.31149399907\nsamples = 4778", shape="box"] ;
113 -> 119 ;
120 [label="dR_tau1_tau2 <= 1.9071\ngini = 0.285687613826\nsamples = 4262", shape="box"] ;
119 -> 120 ;
121 [label="sum_pt_full <= 345965.1250\ngini = 0.239295066955\nsamples = 2739", shape="box"] ;
120 -> 121 ;
122 [label="MET_centrality <= 0.8990\ngini = 0.220716948146\nsamples = 2489", shape="box"] ;
121 -> 122 ;
123 [label="tau_pt_ratio <= 1.5972\ngini = 0.308056043847\nsamples = 494", shape="box"] ;
122 -> 123 ;
124 [label="gini = 0.2490\nsamples = 241\nvalue = [ 0.00155899  0.00913744]", shape="box"] ;
123 -> 124 ;
125 [label="gini = 0.3567\nsamples = 253\nvalue = [ 0.00262169  0.00866158]", shape="box"] ;
123 -> 125 ;
126 [label="sum_pt_full <= 204184.0625\ngini = 0.194745501615\nsamples = 1995", shape="box"] ;
122 -> 126 ;
127 [label="gini = 0.3101\nsamples = 229\nvalue = [ 0.00193714  0.00816008]", shape="box"] ;
126 -> 127 ;
128 [label="mmc1_mass <= 116.7022\ngini = 0.176537354441\nsamples = 1766", shape="box"] ;
126 -> 128 ;
129 [label="gini = 0.2523\nsamples = 307\nvalue = [ 0.00210498  0.01210775]", shape="box"] ;
128 -> 129 ;
130 [label="mmc1_mass <= 135.6418\ngini = 0.156543814291\nsamples = 1459", shape="box"] ;
128 -> 130 ;
131 [label="mmc1_mass <= 125.1357\ngini = 0.131914528295\nsamples = 1222", shape="box"] ;
130 -> 131 ;
132 [label="tau_pt_ratio <= 1.8740\ngini = 0.169051430736\nsamples = 676", shape="box"] ;
131 -> 132 ;
133 [label="gini = 0.2109\nsamples = 441\nvalue = [ 0.00218216  0.0160347 ]", shape="box"] ;
132 -> 133 ;
134 [label="gini = 0.0921\nsamples = 235\nvalue = [ 0.000523    0.01028092]", shape="box"] ;
132 -> 134 ;
135 [label="gini = 0.0700\nsamples = 546\nvalue = [ 0.00067472  0.01790982]", shape="box"] ;
131 -> 135 ;
136 [label="gini = 0.2554\nsamples = 237\nvalue = [ 0.00161503  0.00913202]", shape="box"] ;
130 -> 136 ;
137 [label="gini = 0.3849\nsamples = 250\nvalue = [ 0.00284053  0.00808059]", shape="box"] ;
121 -> 137 ;
138 [label="sum_pt_full <= 296307.3750\ngini = 0.351300394009\nsamples = 1523", shape="box"] ;
120 -> 138 ;
139 [label="sum_pt_full <= 216126.8125\ngini = 0.330451055806\nsamples = 1343", shape="box"] ;
138 -> 139 ;
140 [label="mmc1_mass <= 120.7135\ngini = 0.387644331058\nsamples = 689", shape="box"] ;
139 -> 140 ;
141 [label="gini = 0.4505\nsamples = 219\nvalue = [ 0.00358095  0.00686959]", shape="box"] ;
140 -> 141 ;
142 [label="dR_tau1_tau2 <= 2.1046\ngini = 0.350083482696\nsamples = 470", shape="box"] ;
140 -> 142 ;
143 [label="gini = 0.2839\nsamples = 263\nvalue = [ 0.00210097  0.01016489]", shape="box"] ;
142 -> 143 ;
144 [label="gini = 0.4127\nsamples = 207\nvalue = [ 0.00302214  0.00735907]", shape="box"] ;
142 -> 144 ;
145 [label="mmc1_mass <= 124.2436\ngini = 0.247698007361\nsamples = 654", shape="box"] ;
139 -> 145 ;
146 [label="gini = 0.3353\nsamples = 230\nvalue = [ 0.00211006  0.00779593]", shape="box"] ;
145 -> 146 ;
147 [label="gini = 0.1919\nsamples = 424\nvalue = [ 0.00194383  0.0161423 ]", shape="box"] ;
145 -> 147 ;
148 [label="gini = 0.4480\nsamples = 180\nvalue = [ 0.00343264  0.00669876]", shape="box"] ;
138 -> 148 ;
149 [label="sum_pt_full <= 262789.2500\ngini = 0.45377634627\nsamples = 516", shape="box"] ;
119 -> 149 ;
150 [label="gini = 0.4001\nsamples = 272\nvalue = [ 0.00361475  0.00945662]", shape="box"] ;
149 -> 150 ;
151 [label="gini = 0.4901\nsamples = 244\nvalue = [ 0.00491577  0.00652765]", shape="box"] ;
149 -> 151 ;
152 [label="gini = 0.3032\nsamples = 235\nvalue = [ 0.00928103  0.00212512]", shape="box"] ;
82 -> 152 ;
}