digraph Tree {
0 [label="mmc1_mass <= 95.1012\ngini = 0.4997488192\nsamples = 20277", shape="box"] ;
1 [label="mmc1_mass <= 74.6446\ngini = 0.474201071276\nsamples = 6097", shape="box"] ;
0 -> 1 ;
2 [label="MET_centrality <= 0.5883\ngini = 0.399909009918\nsamples = 1610", shape="box"] ;
1 -> 2 ;
3 [label="gini = 0.4627\nsamples = 366\nvalue = [ 0.00664217  0.00379306]", shape="box"] ;
2 -> 3 ;
4 [label="dR_tau1_tau2 <= 1.2055\ngini = 0.366023097499\nsamples = 1244", shape="box"] ;
2 -> 4 ;
5 [label="gini = 0.2532\nsamples = 792\nvalue = [ 0.01054086  0.00184193]", shape="box"] ;
4 -> 5 ;
6 [label="gini = 0.4393\nsamples = 452\nvalue = [ 0.00912278  0.00440783]", shape="box"] ;
4 -> 6 ;
7 [label="tau_pt_ratio <= 4.2355\ngini = 0.481226582377\nsamples = 4487", shape="box"] ;
1 -> 7 ;
8 [label="dR_tau1_tau2 <= 1.3061\ngini = 0.477805259322\nsamples = 4356", shape="box"] ;
7 -> 8 ;
9 [label="sum_pt_full <= 241043.0000\ngini = 0.450856104839\nsamples = 1869", shape="box"] ;
8 -> 9 ;
10 [label="gini = 0.2839\nsamples = 355\nvalue = [ 0.00899191  0.00185882]", shape="box"] ;
9 -> 10 ;
11 [label="dR_tau1_tau2 <= 0.9378\ngini = 0.465340545877\nsamples = 1514", shape="box"] ;
9 -> 11 ;
12 [label="gini = 0.3307\nsamples = 268\nvalue = [ 0.00773409  0.00204377]", shape="box"] ;
11 -> 12 ;
13 [label="MET_centrality <= 1.3621\ngini = 0.476890356095\nsamples = 1246", shape="box"] ;
11 -> 13 ;
14 [label="MET_centrality <= 0.8401\ngini = 0.485427131122\nsamples = 1020", shape="box"] ;
13 -> 14 ;
15 [label="gini = 0.4387\nsamples = 354\nvalue = [ 0.01071223  0.00515451]", shape="box"] ;
14 -> 15 ;
16 [label="sum_pt_full <= 276280.8750\ngini = 0.495313341741\nsamples = 666", shape="box"] ;
14 -> 16 ;
17 [label="gini = 0.4965\nsamples = 218\nvalue = [ 0.00641048  0.00757328]", shape="box"] ;
16 -> 17 ;
18 [label="MET_centrality <= 1.0760\ngini = 0.48014640841\nsamples = 448", shape="box"] ;
16 -> 18 ;
19 [label="gini = 0.4969\nsamples = 170\nvalue = [ 0.00589384  0.00502956]", shape="box"] ;
18 -> 19 ;
20 [label="gini = 0.4563\nsamples = 278\nvalue = [ 0.00883589  0.00480528]", shape="box"] ;
18 -> 20 ;
21 [label="gini = 0.3972\nsamples = 226\nvalue = [ 0.00734007  0.00275998]", shape="box"] ;
13 -> 21 ;
22 [label="sum_pt_full <= 214326.5000\ngini = 0.488711470515\nsamples = 2487", shape="box"] ;
8 -> 22 ;
23 [label="MET_centrality <= 1.2109\ngini = 0.467186424393\nsamples = 1299", shape="box"] ;
22 -> 23 ;
24 [label="mmc1_mass <= 89.8391\ngini = 0.384437379669\nsamples = 640", shape="box"] ;
23 -> 24 ;
25 [label="gini = 0.3126\nsamples = 448\nvalue = [ 0.01198868  0.00288431]", shape="box"] ;
24 -> 25 ;
26 [label="gini = 0.4571\nsamples = 192\nvalue = [ 0.00672154  0.00367666]", shape="box"] ;
24 -> 26 ;
27 [label="mmc1_mass <= 90.5846\ngini = 0.492519653365\nsamples = 659", shape="box"] ;
23 -> 27 ;
28 [label="dR_tau1_tau2 <= 1.5043\ngini = 0.481889808704\nsamples = 476", shape="box"] ;
27 -> 28 ;
29 [label="gini = 0.4997\nsamples = 188\nvalue = [ 0.00594555  0.00565099]", shape="box"] ;
28 -> 29 ;
30 [label="gini = 0.4533\nsamples = 288\nvalue = [ 0.0108375   0.00576526]", shape="box"] ;
28 -> 30 ;
31 [label="gini = 0.4999\nsamples = 183\nvalue = [ 0.00700787  0.00718902]", shape="box"] ;
27 -> 31 ;
32 [label="mmc1_mass <= 88.7837\ngini = 0.498351804432\nsamples = 1188", shape="box"] ;
22 -> 32 ;
33 [label="dR_tau1_tau2 <= 1.5677\ngini = 0.499367522585\nsamples = 621", shape="box"] ;
32 -> 33 ;
34 [label="mmc1_mass <= 86.4388\ngini = 0.498502739301\nsamples = 515", shape="box"] ;
33 -> 34 ;
35 [label="dR_tau1_tau2 <= 1.4019\ngini = 0.489561094273\nsamples = 388", shape="box"] ;
34 -> 35 ;
36 [label="gini = 0.4999\nsamples = 192\nvalue = [ 0.00527789  0.00511128]", shape="box"] ;
35 -> 36 ;
37 [label="gini = 0.4645\nsamples = 196\nvalue = [ 0.00692589  0.00401105]", shape="box"] ;
35 -> 37 ;
38 [label="gini = 0.4903\nsamples = 127\nvalue = [ 0.00424252  0.0056174 ]", shape="box"] ;
34 -> 38 ;
39 [label="gini = 0.4475\nsamples = 106\nvalue = [ 0.00330005  0.00646302]", shape="box"] ;
33 -> 39 ;
40 [label="mmc1_mass <= 91.4438\ngini = 0.486805705284\nsamples = 567", shape="box"] ;
32 -> 40 ;
41 [label="gini = 0.4583\nsamples = 244\nvalue = [ 0.00916135  0.00505484]", shape="box"] ;
40 -> 41 ;
42 [label="sum_pt_full <= 235940.4688\ngini = 0.496728831993\nsamples = 323", shape="box"] ;
40 -> 42 ;
43 [label="gini = 0.4947\nsamples = 118\nvalue = [ 0.00437616  0.00537914]", shape="box"] ;
42 -> 43 ;
44 [label="gini = 0.4743\nsamples = 205\nvalue = [ 0.00753222  0.00474699]", shape="box"] ;
42 -> 44 ;
45 [label="gini = 0.4796\nsamples = 131\nvalue = [ 0.0039232   0.00590929]", shape="box"] ;
7 -> 45 ;
46 [label="mmc1_mass <= 106.1430\ngini = 0.493080070748\nsamples = 14180", shape="box"] ;
0 -> 46 ;
47 [label="tau_pt_ratio <= 3.1784\ngini = 0.499953229559\nsamples = 3124", shape="box"] ;
46 -> 47 ;
48 [label="dR_tau1_tau2 <= 1.0845\ngini = 0.499961386953\nsamples = 2766", shape="box"] ;
47 -> 48 ;
49 [label="MET_centrality <= 1.2561\ngini = 0.481386035643\nsamples = 310", shape="box"] ;
48 -> 49 ;
50 [label="gini = 0.4489\nsamples = 182\nvalue = [ 0.00786802  0.00405715]", shape="box"] ;
49 -> 50 ;
51 [label="gini = 0.4989\nsamples = 128\nvalue = [ 0.00541598  0.00492977]", shape="box"] ;
49 -> 51 ;
52 [label="sum_pt_full <= 370189.8438\ngini = 0.49991398844\nsamples = 2456", shape="box"] ;
48 -> 52 ;
53 [label="tau_pt_ratio <= 2.5213\ngini = 0.499999599296\nsamples = 2293", shape="box"] ;
52 -> 53 ;
54 [label="MET_centrality <= 1.4092\ngini = 0.499872266598\nsamples = 2016", shape="box"] ;
53 -> 54 ;
55 [label="mmc1_mass <= 103.6211\ngini = 0.499998566759\nsamples = 1859", shape="box"] ;
54 -> 55 ;
56 [label="dR_tau1_tau2 <= 1.2211\ngini = 0.499517142856\nsamples = 1408", shape="box"] ;
55 -> 56 ;
57 [label="gini = 0.4885\nsamples = 117\nvalue = [ 0.00415562  0.00564267]", shape="box"] ;
56 -> 57 ;
58 [label="dR_tau1_tau2 <= 1.4161\ngini = 0.498799784383\nsamples = 1291", shape="box"] ;
56 -> 58 ;
59 [label="mmc1_mass <= 99.1834\ngini = 0.485895528424\nsamples = 304", shape="box"] ;
58 -> 59 ;
60 [label="gini = 0.4508\nsamples = 157\nvalue = [ 0.00727154  0.00379949]", shape="box"] ;
59 -> 60 ;
61 [label="gini = 0.4993\nsamples = 147\nvalue = [ 0.00644948  0.00597529]", shape="box"] ;
59 -> 61 ;
62 [label="dR_tau1_tau2 <= 1.5161\ngini = 0.499922476715\nsamples = 987", shape="box"] ;
58 -> 62 ;
63 [label="gini = 0.4950\nsamples = 215\nvalue = [ 0.00872545  0.01066595]", shape="box"] ;
62 -> 63 ;
64 [label="mmc1_mass <= 96.9699\ngini = 0.498716454691\nsamples = 772", shape="box"] ;
62 -> 64 ;
65 [label="gini = 0.4678\nsamples = 141\nvalue = [ 0.00618649  0.00368138]", shape="box"] ;
64 -> 65 ;
66 [label="dR_tau1_tau2 <= 1.7935\ngini = 0.499966289171\nsamples = 631", shape="box"] ;
64 -> 66 ;
67 [label="MET_centrality <= 1.2733\ngini = 0.499019374482\nsamples = 450", shape="box"] ;
66 -> 67 ;
68 [label="sum_pt_full <= 212202.2812\ngini = 0.499058142877\nsamples = 262", shape="box"] ;
67 -> 68 ;
69 [label="gini = 0.4948\nsamples = 132\nvalue = [ 0.00502896  0.00617542]", shape="box"] ;
68 -> 69 ;
70 [label="gini = 0.4783\nsamples = 130\nvalue = [ 0.00597604  0.00391404]", shape="box"] ;
68 -> 70 ;
71 [label="gini = 0.4844\nsamples = 188\nvalue = [ 0.0057677   0.00823767]", shape="box"] ;
67 -> 71 ;
72 [label="gini = 0.4872\nsamples = 181\nvalue = [ 0.00703592  0.00509368]", shape="box"] ;
66 -> 72 ;
73 [label="dR_tau1_tau2 <= 1.5809\ngini = 0.495468317066\nsamples = 451", shape="box"] ;
55 -> 73 ;
74 [label="gini = 0.4750\nsamples = 234\nvalue = [ 0.00695145  0.01095569]", shape="box"] ;
73 -> 74 ;
75 [label="gini = 0.4985\nsamples = 217\nvalue = [ 0.00810941  0.00727455]", shape="box"] ;
73 -> 75 ;
76 [label="gini = 0.4773\nsamples = 157\nvalue = [ 0.00505534  0.00778968]", shape="box"] ;
54 -> 76 ;
77 [label="gini = 0.4894\nsamples = 277\nvalue = [ 0.01043362  0.00778562]", shape="box"] ;
53 -> 77 ;
78 [label="gini = 0.4801\nsamples = 163\nvalue = [ 0.00524801  0.00785977]", shape="box"] ;
52 -> 78 ;
79 [label="tau_pt_ratio <= 3.7077\ngini = 0.48376127097\nsamples = 358", shape="box"] ;
47 -> 79 ;
80 [label="gini = 0.4572\nsamples = 146\nvalue = [ 0.00374486  0.00684112]", shape="box"] ;
79 -> 80 ;
81 [label="gini = 0.4966\nsamples = 212\nvalue = [ 0.00555066  0.00654132]", shape="box"] ;
79 -> 81 ;
82 [label="mmc1_mass <= 175.5185\ngini = 0.485780433203\nsamples = 11056", shape="box"] ;
46 -> 82 ;
83 [label="dR_tau1_tau2 <= 1.2771\ngini = 0.484066517766\nsamples = 10890", shape="box"] ;
82 -> 83 ;
84 [label="dR_tau1_tau2 <= 1.2199\ngini = 0.450858313401\nsamples = 2646", shape="box"] ;
83 -> 84 ;
85 [label="dR_tau1_tau2 <= 1.1756\ngini = 0.466347648611\nsamples = 2202", shape="box"] ;
84 -> 85 ;
86 [label="mmc1_mass <= 123.0832\ngini = 0.450329186166\nsamples = 1859", shape="box"] ;
85 -> 86 ;
87 [label="tau_pt_ratio <= 1.7923\ngini = 0.468019019652\nsamples = 1143", shape="box"] ;
86 -> 87 ;
88 [label="dR_tau1_tau2 <= 1.0225\ngini = 0.49279298737\nsamples = 571", shape="box"] ;
87 -> 88 ;
89 [label="gini = 0.4987\nsamples = 258\nvalue = [ 0.00545895  0.00492672]", shape="box"] ;
88 -> 89 ;
90 [label="gini = 0.4554\nsamples = 313\nvalue = [ 0.00349262  0.00646754]", shape="box"] ;
88 -> 90 ;
91 [label="gini = 0.4227\nsamples = 572\nvalue = [ 0.00585219  0.01343229]", shape="box"] ;
87 -> 91 ;
92 [label="gini = 0.3779\nsamples = 716\nvalue = [ 0.00348848  0.01030366]", shape="box"] ;
86 -> 92 ;
93 [label="gini = 0.4997\nsamples = 343\nvalue = [ 0.0061912   0.00650704]", shape="box"] ;
85 -> 93 ;
94 [label="gini = 0.3278\nsamples = 444\nvalue = [ 0.00270222  0.01037809]", shape="box"] ;
84 -> 94 ;
95 [label="sum_pt_full <= 427462.0000\ngini = 0.488454260555\nsamples = 8244", shape="box"] ;
83 -> 95 ;
96 [label="sum_pt_full <= 368255.6875\ngini = 0.486638685077\nsamples = 7913", shape="box"] ;
95 -> 96 ;
97 [label="MET_centrality <= 0.8990\ngini = 0.48872946961\nsamples = 7478", shape="box"] ;
96 -> 97 ;
98 [label="mmc1_mass <= 140.7206\ngini = 0.499143555922\nsamples = 1516", shape="box"] ;
97 -> 98 ;
99 [label="sum_pt_full <= 203880.6562\ngini = 0.496429505468\nsamples = 1355", shape="box"] ;
98 -> 99 ;
100 [label="gini = 0.4806\nsamples = 163\nvalue = [ 0.00709039  0.00475582]", shape="box"] ;
99 -> 100 ;
101 [label="mmc1_mass <= 112.3083\ngini = 0.490146947906\nsamples = 1192", shape="box"] ;
99 -> 101 ;
102 [label="gini = 0.4982\nsamples = 247\nvalue = [ 0.0083915   0.00744377]", shape="box"] ;
101 -> 102 ;
103 [label="sum_pt_full <= 231168.7188\ngini = 0.477387325574\nsamples = 945", shape="box"] ;
101 -> 103 ;
104 [label="gini = 0.4242\nsamples = 183\nvalue = [ 0.00299056  0.00680271]", shape="box"] ;
103 -> 104 ;
105 [label="mmc1_mass <= 123.0210\ngini = 0.486894098293\nsamples = 762", shape="box"] ;
103 -> 105 ;
106 [label="gini = 0.4572\nsamples = 343\nvalue = [ 0.00565773  0.0103351 ]", shape="box"] ;
105 -> 106 ;
107 [label="gini = 0.4989\nsamples = 419\nvalue = [ 0.00861955  0.00945823]", shape="box"] ;
105 -> 107 ;
108 [label="gini = 0.4729\nsamples = 161\nvalue = [ 0.00693629  0.00431719]", shape="box"] ;
98 -> 108 ;
109 [label="MET_centrality <= 1.0059\ngini = 0.483435761549\nsamples = 5962", shape="box"] ;
97 -> 109 ;
110 [label="tau_pt_ratio <= 1.5014\ngini = 0.401742138878\nsamples = 593", shape="box"] ;
109 -> 110 ;
111 [label="gini = 0.4563\nsamples = 270\nvalue = [ 0.00467151  0.00859239]", shape="box"] ;
110 -> 111 ;
112 [label="gini = 0.3209\nsamples = 323\nvalue = [ 0.00253567  0.01009299]", shape="box"] ;
110 -> 112 ;
113 [label="mmc1_mass <= 119.1047\ngini = 0.487887181519\nsamples = 5369", shape="box"] ;
109 -> 113 ;
114 [label="sum_pt_full <= 313904.6250\ngini = 0.496000908427\nsamples = 2195", shape="box"] ;
113 -> 114 ;
115 [label="MET_centrality <= 1.0723\ngini = 0.493703847172\nsamples = 2010", shape="box"] ;
114 -> 115 ;
116 [label="gini = 0.4904\nsamples = 178\nvalue = [ 0.0065544   0.00495944]", shape="box"] ;
115 -> 116 ;
117 [label="MET_centrality <= 1.4027\ngini = 0.490104214328\nsamples = 1832", shape="box"] ;
115 -> 117 ;
118 [label="MET_centrality <= 1.3515\ngini = 0.48349597113\nsamples = 1514", shape="box"] ;
117 -> 118 ;
119 [label="MET_centrality <= 1.2361\ngini = 0.492405973546\nsamples = 1104", shape="box"] ;
118 -> 119 ;
120 [label="dR_tau1_tau2 <= 1.6556\ngini = 0.470996366428\nsamples = 534", shape="box"] ;
119 -> 120 ;
121 [label="gini = 0.4951\nsamples = 255\nvalue = [ 0.00680544  0.00830594]", shape="box"] ;
120 -> 121 ;
122 [label="gini = 0.4294\nsamples = 279\nvalue = [ 0.00495302  0.01091344]", shape="box"] ;
120 -> 122 ;
123 [label="mmc1_mass <= 113.5140\ngini = 0.49998019832\nsamples = 570", shape="box"] ;
119 -> 123 ;
124 [label="gini = 0.4958\nsamples = 322\nvalue = [ 0.00883725  0.01061265]", shape="box"] ;
123 -> 124 ;
125 [label="gini = 0.4909\nsamples = 248\nvalue = [ 0.00664112  0.00506177]", shape="box"] ;
123 -> 125 ;
126 [label="sum_pt_full <= 230748.5312\ngini = 0.436272055363\nsamples = 410", shape="box"] ;
118 -> 126 ;
127 [label="gini = 0.3734\nsamples = 207\nvalue = [ 0.00271827  0.00822458]", shape="box"] ;
126 -> 127 ;
128 [label="gini = 0.4813\nsamples = 203\nvalue = [ 0.0039398   0.00582705]", shape="box"] ;
126 -> 128 ;
129 [label="gini = 0.4991\nsamples = 318\nvalue = [ 0.00967893  0.00889571]", shape="box"] ;
117 -> 129 ;
130 [label="gini = 0.4860\nsamples = 185\nvalue = [ 0.00584499  0.0041676 ]", shape="box"] ;
114 -> 130 ;
131 [label="dR_tau1_tau2 <= 1.6186\ngini = 0.476552325704\nsamples = 3174", shape="box"] ;
113 -> 131 ;
132 [label="tau_pt_ratio <= 1.7628\ngini = 0.410187938955\nsamples = 949", shape="box"] ;
131 -> 132 ;
133 [label="gini = 0.3386\nsamples = 604\nvalue = [ 0.00266604  0.00968277]", shape="box"] ;
132 -> 133 ;
134 [label="gini = 0.4710\nsamples = 345\nvalue = [ 0.00369587  0.00603842]", shape="box"] ;
132 -> 134 ;
135 [label="sum_pt_full <= 288183.6562\ngini = 0.48459494525\nsamples = 2225", shape="box"] ;
131 -> 135 ;
136 [label="dR_tau1_tau2 <= 2.1709\ngini = 0.476742387764\nsamples = 1864", shape="box"] ;
135 -> 136 ;
137 [label="MET_centrality <= 1.3670\ngini = 0.46571591414\nsamples = 1581", shape="box"] ;
136 -> 137 ;
138 [label="dR_tau1_tau2 <= 1.9204\ngini = 0.443091360365\nsamples = 1098", shape="box"] ;
137 -> 138 ;
139 [label="dR_tau1_tau2 <= 1.8222\ngini = 0.469912264489\nsamples = 644", shape="box"] ;
138 -> 139 ;
140 [label="gini = 0.4082\nsamples = 412\nvalue = [ 0.00391786  0.00979179]", shape="box"] ;
139 -> 140 ;
141 [label="gini = 0.5000\nsamples = 232\nvalue = [ 0.00517399  0.00521052]", shape="box"] ;
139 -> 141 ;
142 [label="dR_tau1_tau2 <= 2.0476\ngini = 0.407096503095\nsamples = 454", shape="box"] ;
138 -> 142 ;
143 [label="gini = 0.3286\nsamples = 268\nvalue = [ 0.00247402  0.00946084]", shape="box"] ;
142 -> 143 ;
144 [label="gini = 0.4624\nsamples = 186\nvalue = [ 0.00426132  0.00748035]", shape="box"] ;
142 -> 144 ;
145 [label="MET_centrality <= 1.4026\ngini = 0.493580199119\nsamples = 483", shape="box"] ;
137 -> 145 ;
146 [label="gini = 0.4989\nsamples = 247\nvalue = [ 0.00632339  0.00575429]", shape="box"] ;
145 -> 146 ;
147 [label="gini = 0.4630\nsamples = 236\nvalue = [ 0.00444302  0.00776384]", shape="box"] ;
145 -> 147 ;
148 [label="gini = 0.4995\nsamples = 283\nvalue = [ 0.00881012  0.00941269]", shape="box"] ;
136 -> 148 ;
149 [label="tau_pt_ratio <= 1.8599\ngini = 0.499985983816\nsamples = 361", shape="box"] ;
135 -> 149 ;
150 [label="gini = 0.4885\nsamples = 139\nvalue = [ 0.00616742  0.00454334]", shape="box"] ;
149 -> 150 ;
151 [label="gini = 0.4865\nsamples = 222\nvalue = [ 0.00442126  0.00615805]", shape="box"] ;
149 -> 151 ;
152 [label="sum_pt_full <= 392797.3125\ngini = 0.421873572036\nsamples = 435", shape="box"] ;
96 -> 152 ;
153 [label="gini = 0.3412\nsamples = 229\nvalue = [ 0.00224363  0.00803809]", shape="box"] ;
152 -> 153 ;
154 [label="gini = 0.4726\nsamples = 206\nvalue = [ 0.00410903  0.00661978]", shape="box"] ;
152 -> 154 ;
155 [label="gini = 0.4927\nsamples = 331\nvalue = [ 0.00914418  0.00717746]", shape="box"] ;
95 -> 155 ;
156 [label="gini = 0.4497\nsamples = 166\nvalue = [ 0.00645076  0.00334522]", shape="box"] ;
82 -> 156 ;
}