digraph Tree {
0 [label="mmc1_mass <= 98.6313\ngini = 0.499341156453\nsamples = 20277", shape="box"] ;
1 [label="mmc1_mass <= 83.1825\ngini = 0.446962239001\nsamples = 7020", shape="box"] ;
0 -> 1 ;
2 [label="dR_tau1_tau2 <= 1.5325\ngini = 0.35487709028\nsamples = 3082", shape="box"] ;
1 -> 2 ;
3 [label="sum_pt_full <= 343001.3750\ngini = 0.323597446105\nsamples = 2859", shape="box"] ;
2 -> 3 ;
4 [label="mmc1_mass <= 78.9568\ngini = 0.284272388747\nsamples = 2497", shape="box"] ;
3 -> 4 ;
5 [label="tau_pt_ratio <= 1.3547\ngini = 0.227053397985\nsamples = 1924", shape="box"] ;
4 -> 5 ;
6 [label="gini = 0.1573\nsamples = 617\nvalue = [ 0.01142188  0.00107537]", shape="box"] ;
5 -> 6 ;
7 [label="MET_centrality <= 1.2131\ngini = 0.248836177241\nsamples = 1307", shape="box"] ;
5 -> 7 ;
8 [label="sum_pt_full <= 214815.7969\ngini = 0.290809305185\nsamples = 806", shape="box"] ;
7 -> 8 ;
9 [label="gini = 0.2260\nsamples = 390\nvalue = [ 0.00870617  0.00129957]", shape="box"] ;
8 -> 9 ;
10 [label="gini = 0.3346\nsamples = 416\nvalue = [ 0.0102621   0.00276834]", shape="box"] ;
8 -> 10 ;
11 [label="gini = 0.1711\nsamples = 501\nvalue = [ 0.01262796  0.00131753]", shape="box"] ;
7 -> 11 ;
12 [label="mmc1_mass <= 80.6010\ngini = 0.384377924459\nsamples = 573", shape="box"] ;
4 -> 12 ;
13 [label="gini = 0.4702\nsamples = 220\nvalue = [ 0.00629174  0.00382198]", shape="box"] ;
12 -> 13 ;
14 [label="gini = 0.2783\nsamples = 353\nvalue = [ 0.01077851  0.00216199]", shape="box"] ;
12 -> 14 ;
15 [label="gini = 0.4411\nsamples = 362\nvalue = [ 0.01221747  0.00597336]", shape="box"] ;
3 -> 15 ;
16 [label="gini = 0.4825\nsamples = 223\nvalue = [ 0.00845194  0.00578987]", shape="box"] ;
2 -> 16 ;
17 [label="tau_pt_ratio <= 3.8801\ngini = 0.472316499459\nsamples = 3938", shape="box"] ;
1 -> 17 ;
18 [label="dR_tau1_tau2 <= 0.9421\ngini = 0.466517065937\nsamples = 3746", shape="box"] ;
17 -> 18 ;
19 [label="gini = 0.2258\nsamples = 216\nvalue = [ 0.00982591  0.00146506]", shape="box"] ;
18 -> 19 ;
20 [label="mmc1_mass <= 93.5686\ngini = 0.472535916711\nsamples = 3530", shape="box"] ;
18 -> 20 ;
21 [label="tau_pt_ratio <= 1.3947\ngini = 0.451820334038\nsamples = 2318", shape="box"] ;
20 -> 21 ;
22 [label="dR_tau1_tau2 <= 1.2908\ngini = 0.390117564631\nsamples = 733", shape="box"] ;
21 -> 22 ;
23 [label="gini = 0.2560\nsamples = 244\nvalue = [ 0.00877058  0.00155679]", shape="box"] ;
22 -> 23 ;
24 [label="tau_pt_ratio <= 1.2319\ngini = 0.424564562927\nsamples = 489", shape="box"] ;
22 -> 24 ;
25 [label="gini = 0.4605\nsamples = 291\nvalue = [ 0.01169771  0.00656644]", shape="box"] ;
24 -> 25 ;
26 [label="gini = 0.3416\nsamples = 198\nvalue = [ 0.00879442  0.00246004]", shape="box"] ;
24 -> 26 ;
27 [label="MET_centrality <= 1.2301\ngini = 0.469831071333\nsamples = 1585", shape="box"] ;
21 -> 27 ;
28 [label="sum_pt_full <= 213875.9844\ngini = 0.436580270593\nsamples = 918", shape="box"] ;
27 -> 28 ;
29 [label="gini = 0.2937\nsamples = 239\nvalue = [ 0.0083691   0.00182272]", shape="box"] ;
28 -> 29 ;
30 [label="dR_tau1_tau2 <= 1.3122\ngini = 0.459595715658\nsamples = 679", shape="box"] ;
28 -> 30 ;
31 [label="dR_tau1_tau2 <= 1.1687\ngini = 0.414907854381\nsamples = 342", shape="box"] ;
30 -> 31 ;
32 [label="gini = 0.4492\nsamples = 175\nvalue = [ 0.00671437  0.00346841]", shape="box"] ;
31 -> 32 ;
33 [label="gini = 0.3717\nsamples = 167\nvalue = [ 0.00764423  0.00250326]", shape="box"] ;
31 -> 33 ;
34 [label="mmc1_mass <= 88.6499\ngini = 0.487913147575\nsamples = 337", shape="box"] ;
30 -> 34 ;
35 [label="gini = 0.4980\nsamples = 155\nvalue = [ 0.00537434  0.00473383]", shape="box"] ;
34 -> 35 ;
36 [label="gini = 0.4694\nsamples = 182\nvalue = [ 0.00632346  0.00381591]", shape="box"] ;
34 -> 36 ;
37 [label="mmc1_mass <= 87.4573\ngini = 0.492142800071\nsamples = 667", shape="box"] ;
27 -> 37 ;
38 [label="gini = 0.4999\nsamples = 231\nvalue = [ 0.00858938  0.00883117]", shape="box"] ;
37 -> 38 ;
39 [label="mmc1_mass <= 90.8959\ngini = 0.4782938017\nsamples = 436", shape="box"] ;
37 -> 39 ;
40 [label="gini = 0.4418\nsamples = 232\nvalue = [ 0.0097691   0.00479905]", shape="box"] ;
39 -> 40 ;
41 [label="gini = 0.4971\nsamples = 204\nvalue = [ 0.0078874   0.00676845]", shape="box"] ;
39 -> 41 ;
42 [label="MET_centrality <= 0.7301\ngini = 0.493687616337\nsamples = 1212", shape="box"] ;
20 -> 42 ;
43 [label="gini = 0.4271\nsamples = 192\nvalue = [ 0.00684216  0.00306047]", shape="box"] ;
42 -> 43 ;
44 [label="tau_pt_ratio <= 2.6507\ngini = 0.497029250761\nsamples = 1020", shape="box"] ;
42 -> 44 ;
45 [label="MET_centrality <= 1.4045\ngini = 0.49358810122\nsamples = 878", shape="box"] ;
44 -> 45 ;
46 [label="dR_tau1_tau2 <= 1.6558\ngini = 0.489256190202\nsamples = 766", shape="box"] ;
45 -> 46 ;
47 [label="sum_pt_full <= 217264.5625\ngini = 0.494466392528\nsamples = 563", shape="box"] ;
46 -> 47 ;
48 [label="gini = 0.4922\nsamples = 145\nvalue = [ 0.0059977  0.0077145]", shape="box"] ;
47 -> 48 ;
49 [label="mmc1_mass <= 96.6045\ngini = 0.477853045215\nsamples = 418", shape="box"] ;
47 -> 49 ;
50 [label="gini = 0.4589\nsamples = 251\nvalue = [ 0.01194735  0.00662156]", shape="box"] ;
49 -> 50 ;
51 [label="gini = 0.4963\nsamples = 167\nvalue = [ 0.0062183   0.00522722]", shape="box"] ;
49 -> 51 ;
52 [label="gini = 0.4554\nsamples = 203\nvalue = [ 0.00773322  0.00417759]", shape="box"] ;
46 -> 52 ;
53 [label="gini = 0.4973\nsamples = 112\nvalue = [ 0.00460855  0.00533744]", shape="box"] ;
45 -> 53 ;
54 [label="gini = 0.4875\nsamples = 142\nvalue = [ 0.00423821  0.00583344]", shape="box"] ;
44 -> 54 ;
55 [label="gini = 0.4842\nsamples = 192\nvalue = [ 0.0054655   0.00783236]", shape="box"] ;
17 -> 55 ;
56 [label="mmc1_mass <= 107.4545\ngini = 0.472795103287\nsamples = 13257", shape="box"] ;
0 -> 56 ;
57 [label="sum_pt_full <= 192250.0625\ngini = 0.497457170668\nsamples = 2646", shape="box"] ;
56 -> 57 ;
58 [label="gini = 0.4938\nsamples = 290\nvalue = [ 0.01069884  0.00855735]", shape="box"] ;
57 -> 58 ;
59 [label="MET_centrality <= 1.3238\ngini = 0.49571344863\nsamples = 2356", shape="box"] ;
57 -> 59 ;
60 [label="mmc1_mass <= 99.5022\ngini = 0.498819258515\nsamples = 1571", shape="box"] ;
59 -> 60 ;
61 [label="gini = 0.4815\nsamples = 153\nvalue = [ 0.00719443  0.00487083]", shape="box"] ;
60 -> 61 ;
62 [label="tau_pt_ratio <= 2.8563\ngini = 0.497023245326\nsamples = 1418", shape="box"] ;
60 -> 62 ;
63 [label="MET_centrality <= 1.1433\ngini = 0.499111525021\nsamples = 1123", shape="box"] ;
62 -> 63 ;
64 [label="tau_pt_ratio <= 1.2539\ngini = 0.499417208586\nsamples = 738", shape="box"] ;
63 -> 64 ;
65 [label="gini = 0.4884\nsamples = 152\nvalue = [ 0.00507781  0.00690677]", shape="box"] ;
64 -> 65 ;
66 [label="tau_pt_ratio <= 1.5589\ngini = 0.496398393184\nsamples = 586", shape="box"] ;
64 -> 66 ;
67 [label="gini = 0.4536\nsamples = 165\nvalue = [ 0.00856871  0.00456564]", shape="box"] ;
66 -> 67 ;
68 [label="tau_pt_ratio <= 2.0479\ngini = 0.499965123659\nsamples = 421", shape="box"] ;
66 -> 68 ;
69 [label="gini = 0.4839\nsamples = 202\nvalue = [ 0.00659056  0.00947527]", shape="box"] ;
68 -> 69 ;
70 [label="gini = 0.4845\nsamples = 219\nvalue = [ 0.00877151  0.00614556]", shape="box"] ;
68 -> 70 ;
71 [label="MET_centrality <= 1.2621\ngini = 0.481777228621\nsamples = 385", shape="box"] ;
63 -> 71 ;
72 [label="gini = 0.4338\nsamples = 225\nvalue = [ 0.00542931  0.01163862]", shape="box"] ;
71 -> 72 ;
73 [label="gini = 0.4981\nsamples = 160\nvalue = [ 0.00621121  0.0054951 ]", shape="box"] ;
71 -> 73 ;
74 [label="gini = 0.4683\nsamples = 295\nvalue = [ 0.00635756  0.01064019]", shape="box"] ;
62 -> 74 ;
75 [label="MET_centrality <= 1.3745\ngini = 0.48187251925\nsamples = 785", shape="box"] ;
59 -> 75 ;
76 [label="gini = 0.4352\nsamples = 262\nvalue = [ 0.00548192  0.01165091]", shape="box"] ;
75 -> 76 ;
77 [label="MET_centrality <= 1.4045\ngini = 0.49446627443\nsamples = 523", shape="box"] ;
75 -> 77 ;
78 [label="gini = 0.5000\nsamples = 259\nvalue = [ 0.00792082  0.00798077]", shape="box"] ;
77 -> 78 ;
79 [label="gini = 0.4812\nsamples = 264\nvalue = [ 0.00734213  0.01087113]", shape="box"] ;
77 -> 79 ;
80 [label="mmc1_mass <= 175.5185\ngini = 0.455673460027\nsamples = 10611", shape="box"] ;
56 -> 80 ;
81 [label="dR_tau1_tau2 <= 1.7749\ngini = 0.450646863417\nsamples = 10445", shape="box"] ;
80 -> 81 ;
82 [label="mmc1_mass <= 113.0282\ngini = 0.424808352955\nsamples = 7146", shape="box"] ;
81 -> 82 ;
83 [label="sum_pt_full <= 252440.9531\ngini = 0.464332945801\nsamples = 1452", shape="box"] ;
82 -> 83 ;
84 [label="tau_pt_ratio <= 1.3308\ngini = 0.485648003145\nsamples = 436", shape="box"] ;
83 -> 84 ;
85 [label="gini = 0.4476\nsamples = 167\nvalue = [ 0.00347688  0.0068054 ]", shape="box"] ;
84 -> 85 ;
86 [label="gini = 0.4971\nsamples = 269\nvalue = [ 0.00789093  0.00920006]", shape="box"] ;
84 -> 86 ;
87 [label="mmc1_mass <= 108.7126\ngini = 0.448705232642\nsamples = 1016", shape="box"] ;
83 -> 87 ;
88 [label="gini = 0.3718\nsamples = 216\nvalue = [ 0.00264513  0.00807315]", shape="box"] ;
87 -> 88 ;
89 [label="tau_pt_ratio <= 1.4660\ngini = 0.463599438719\nsamples = 800", shape="box"] ;
87 -> 89 ;
90 [label="gini = 0.4887\nsamples = 239\nvalue = [ 0.00571047  0.00773568]", shape="box"] ;
89 -> 90 ;
91 [label="sum_pt_full <= 355751.2500\ngini = 0.445125188924\nsamples = 561", shape="box"] ;
89 -> 91 ;
92 [label="gini = 0.4711\nsamples = 304\nvalue = [ 0.00570677  0.00931866]", shape="box"] ;
91 -> 92 ;
93 [label="gini = 0.3965\nsamples = 257\nvalue = [ 0.00301166  0.00803807]", shape="box"] ;
91 -> 93 ;
94 [label="dR_tau1_tau2 <= 1.2771\ngini = 0.404253884894\nsamples = 5694", shape="box"] ;
82 -> 94 ;
95 [label="MET_centrality <= 1.3537\ngini = 0.351827928678\nsamples = 2012", shape="box"] ;
94 -> 95 ;
96 [label="MET_centrality <= 1.0380\ngini = 0.312008758794\nsamples = 1586", shape="box"] ;
95 -> 96 ;
97 [label="MET_centrality <= 0.7947\ngini = 0.381021487988\nsamples = 769", shape="box"] ;
96 -> 97 ;
98 [label="gini = 0.2464\nsamples = 402\nvalue = [ 0.00166605  0.00991105]", shape="box"] ;
97 -> 98 ;
99 [label="gini = 0.4729\nsamples = 367\nvalue = [ 0.00390888  0.00628292]", shape="box"] ;
97 -> 99 ;
100 [label="gini = 0.2006\nsamples = 817\nvalue = [ 0.00192207  0.01507063]", shape="box"] ;
96 -> 100 ;
101 [label="gini = 0.4354\nsamples = 426\nvalue = [ 0.00462094  0.00981003]", shape="box"] ;
95 -> 101 ;
102 [label="tau_pt_ratio <= 2.7208\ngini = 0.421790624084\nsamples = 3682", shape="box"] ;
94 -> 102 ;
103 [label="tau_pt_ratio <= 1.8964\ngini = 0.432743834145\nsamples = 3124", shape="box"] ;
102 -> 103 ;
104 [label="MET_centrality <= 1.3149\ngini = 0.413887611032\nsamples = 2338", shape="box"] ;
103 -> 104 ;
105 [label="MET_centrality <= 1.2426\ngini = 0.431200915669\nsamples = 1622", shape="box"] ;
104 -> 105 ;
106 [label="mmc1_mass <= 134.9490\ngini = 0.41452461348\nsamples = 1363", shape="box"] ;
105 -> 106 ;
107 [label="mmc1_mass <= 125.1431\ngini = 0.393663867687\nsamples = 1130", shape="box"] ;
106 -> 107 ;
108 [label="mmc1_mass <= 121.0921\ngini = 0.427061355972\nsamples = 725", shape="box"] ;
107 -> 108 ;
109 [label="MET_centrality <= 1.0101\ngini = 0.391160173386\nsamples = 482", shape="box"] ;
108 -> 109 ;
110 [label="gini = 0.3287\nsamples = 246\nvalue = [ 0.00223348  0.00853935]", shape="box"] ;
109 -> 110 ;
111 [label="gini = 0.4393\nsamples = 236\nvalue = [ 0.00352667  0.00729679]", shape="box"] ;
109 -> 111 ;
112 [label="gini = 0.4805\nsamples = 243\nvalue = [ 0.00397976  0.00594157]", shape="box"] ;
108 -> 112 ;
113 [label="gini = 0.2596\nsamples = 405\nvalue = [ 0.00164884  0.0091052 ]", shape="box"] ;
107 -> 113 ;
114 [label="gini = 0.4780\nsamples = 233\nvalue = [ 0.00391221  0.00598992]", shape="box"] ;
106 -> 114 ;
115 [label="gini = 0.4895\nsamples = 259\nvalue = [ 0.00419196  0.00560922]", shape="box"] ;
105 -> 115 ;
116 [label="MET_centrality <= 1.4037\ngini = 0.355331424564\nsamples = 716", shape="box"] ;
104 -> 116 ;
117 [label="gini = 0.2588\nsamples = 502\nvalue = [ 0.00190642  0.01057873]", shape="box"] ;
116 -> 117 ;
118 [label="gini = 0.4433\nsamples = 214\nvalue = [ 0.00322676  0.00650485]", shape="box"] ;
116 -> 118 ;
119 [label="tau_pt_ratio <= 2.0630\ngini = 0.47117315024\nsamples = 786", shape="box"] ;
103 -> 119 ;
120 [label="gini = 0.4983\nsamples = 214\nvalue = [ 0.00499473  0.0056196 ]", shape="box"] ;
119 -> 120 ;
121 [label="MET_centrality <= 1.1784\ngini = 0.445623342749\nsamples = 572", shape="box"] ;
119 -> 121 ;
122 [label="gini = 0.4077\nsamples = 303\nvalue = [ 0.00333541  0.00836054]", shape="box"] ;
121 -> 122 ;
123 [label="gini = 0.4779\nsamples = 269\nvalue = [ 0.00385428  0.00590442]", shape="box"] ;
121 -> 123 ;
124 [label="gini = 0.3349\nsamples = 558\nvalue = [ 0.00396615  0.0146831 ]", shape="box"] ;
102 -> 124 ;
125 [label="sum_pt_full <= 320475.0312\ngini = 0.47798234477\nsamples = 3299", shape="box"] ;
81 -> 125 ;
126 [label="MET_centrality <= 0.5437\ngini = 0.470249921884\nsamples = 2996", shape="box"] ;
125 -> 126 ;
127 [label="gini = 0.4988\nsamples = 174\nvalue = [ 0.00533221  0.00482608]", shape="box"] ;
126 -> 127 ;
128 [label="dR_tau1_tau2 <= 1.7980\ngini = 0.465404724991\nsamples = 2822", shape="box"] ;
126 -> 128 ;
129 [label="gini = 0.4990\nsamples = 198\nvalue = [ 0.00518119  0.00474533]", shape="box"] ;
128 -> 129 ;
130 [label="dR_tau1_tau2 <= 1.9016\ngini = 0.459704967773\nsamples = 2624", shape="box"] ;
128 -> 130 ;
131 [label="sum_pt_full <= 204184.0625\ngini = 0.413212656315\nsamples = 807", shape="box"] ;
130 -> 131 ;
132 [label="gini = 0.4698\nsamples = 198\nvalue = [ 0.00443558  0.00732468]", shape="box"] ;
131 -> 132 ;
133 [label="mmc1_mass <= 129.9063\ngini = 0.377991639665\nsamples = 609", shape="box"] ;
131 -> 133 ;
134 [label="gini = 0.3016\nsamples = 385\nvalue = [ 0.00300508  0.01323397]", shape="box"] ;
133 -> 134 ;
135 [label="gini = 0.4642\nsamples = 224\nvalue = [ 0.00357053  0.00617997]", shape="box"] ;
133 -> 135 ;
136 [label="MET_centrality <= 1.4051\ngini = 0.471755631268\nsamples = 1817", shape="box"] ;
130 -> 136 ;
137 [label="sum_pt_full <= 259996.4688\ngini = 0.463191120812\nsamples = 1601", shape="box"] ;
136 -> 137 ;
138 [label="sum_pt_full <= 237443.3125\ngini = 0.449275316114\nsamples = 1322", shape="box"] ;
137 -> 138 ;
139 [label="mmc1_mass <= 116.2413\ngini = 0.461895476753\nsamples = 1083", shape="box"] ;
138 -> 139 ;
140 [label="gini = 0.4935\nsamples = 227\nvalue = [ 0.00638869  0.00803103]", shape="box"] ;
139 -> 140 ;
141 [label="mmc1_mass <= 139.4746\ngini = 0.447554965175\nsamples = 856", shape="box"] ;
139 -> 141 ;
142 [label="sum_pt_full <= 192929.7500\ngini = 0.42686123423\nsamples = 640", shape="box"] ;
141 -> 142 ;
143 [label="gini = 0.4667\nsamples = 216\nvalue = [ 0.00462165  0.00783631]", shape="box"] ;
142 -> 143 ;
144 [label="MET_centrality <= 1.1748\ngini = 0.399318747573\nsamples = 424", shape="box"] ;
142 -> 144 ;
145 [label="gini = 0.3467\nsamples = 179\nvalue = [ 0.00233905  0.0081453 ]", shape="box"] ;
144 -> 145 ;
146 [label="gini = 0.4340\nsamples = 245\nvalue = [ 0.00410776  0.008797  ]", shape="box"] ;
144 -> 146 ;
147 [label="gini = 0.4867\nsamples = 216\nvalue = [ 0.0054671  0.007598 ]", shape="box"] ;
141 -> 147 ;
148 [label="gini = 0.3563\nsamples = 239\nvalue = [ 0.00286477  0.0094877 ]", shape="box"] ;
138 -> 148 ;
149 [label="gini = 0.4969\nsamples = 279\nvalue = [ 0.00854902  0.01001463]", shape="box"] ;
137 -> 149 ;
150 [label="gini = 0.4999\nsamples = 216\nvalue = [ 0.0069939   0.00719442]", shape="box"] ;
136 -> 150 ;
151 [label="mmc1_mass <= 133.5740\ngini = 0.498367018265\nsamples = 303", shape="box"] ;
125 -> 151 ;
152 [label="gini = 0.4882\nsamples = 151\nvalue = [ 0.00416881  0.0056826 ]", shape="box"] ;
151 -> 152 ;
153 [label="gini = 0.4713\nsamples = 152\nvalue = [ 0.0070495  0.0043228]", shape="box"] ;
151 -> 153 ;
154 [label="gini = 0.3993\nsamples = 166\nvalue = [ 0.00722518  0.00274933]", shape="box"] ;
80 -> 154 ;
}