digraph Tree {
0 [label="mmc1_mass <= 95.1012\ngini = 0.499792687167\nsamples = 20277", shape="box"] ;
1 [label="mmc1_mass <= 76.7126\ngini = 0.478874382318\nsamples = 6097", shape="box"] ;
0 -> 1 ;
2 [label="tau_pt_ratio <= 1.6383\ngini = 0.427122384433\nsamples = 1925", shape="box"] ;
1 -> 2 ;
3 [label="gini = 0.3711\nsamples = 1034\nvalue = [ 0.01454052  0.00474756]", shape="box"] ;
2 -> 3 ;
4 [label="MET_centrality <= 0.9822\ngini = 0.457862858469\nsamples = 891", shape="box"] ;
2 -> 4 ;
5 [label="gini = 0.4039\nsamples = 378\nvalue = [ 0.00769189  0.00300304]", shape="box"] ;
4 -> 5 ;
6 [label="gini = 0.4819\nsamples = 513\nvalue = [ 0.0094398   0.00641985]", shape="box"] ;
4 -> 6 ;
7 [label="tau_pt_ratio <= 1.3914\ngini = 0.485495194702\nsamples = 4172", shape="box"] ;
1 -> 7 ;
8 [label="dR_tau1_tau2 <= 1.1684\ngini = 0.456465558233\nsamples = 1280", shape="box"] ;
7 -> 8 ;
9 [label="gini = 0.3547\nsamples = 334\nvalue = [ 0.00757458  0.00226877]", shape="box"] ;
8 -> 9 ;
10 [label="MET_centrality <= 1.3888\ngini = 0.46922341257\nsamples = 946", shape="box"] ;
8 -> 10 ;
11 [label="tau_pt_ratio <= 1.1658\ngini = 0.455123184873\nsamples = 803", shape="box"] ;
10 -> 11 ;
12 [label="gini = 0.3922\nsamples = 347\nvalue = [ 0.01164391  0.00425963]", shape="box"] ;
11 -> 12 ;
13 [label="tau_pt_ratio <= 1.2753\ngini = 0.481794478692\nsamples = 456", shape="box"] ;
11 -> 13 ;
14 [label="gini = 0.4999\nsamples = 225\nvalue = [ 0.00643558  0.00622321]", shape="box"] ;
13 -> 14 ;
15 [label="gini = 0.4264\nsamples = 231\nvalue = [ 0.00790468  0.00352127]", shape="box"] ;
13 -> 15 ;
16 [label="gini = 0.4980\nsamples = 143\nvalue = [ 0.0059161   0.00521378]", shape="box"] ;
10 -> 16 ;
17 [label="MET_centrality <= 1.2274\ngini = 0.492168681526\nsamples = 2892", shape="box"] ;
7 -> 17 ;
18 [label="sum_pt_full <= 213908.0625\ngini = 0.481563823367\nsamples = 1640", shape="box"] ;
17 -> 18 ;
19 [label="gini = 0.3578\nsamples = 384\nvalue = [ 0.01087772  0.00331112]", shape="box"] ;
18 -> 19 ;
20 [label="sum_pt_full <= 362134.5000\ngini = 0.492017087729\nsamples = 1256", shape="box"] ;
18 -> 20 ;
21 [label="dR_tau1_tau2 <= 1.3124\ngini = 0.481220763072\nsamples = 950", shape="box"] ;
20 -> 21 ;
22 [label="dR_tau1_tau2 <= 1.1484\ngini = 0.448205198305\nsamples = 504", shape="box"] ;
21 -> 22 ;
23 [label="gini = 0.4849\nsamples = 220\nvalue = [ 0.00681283  0.004798  ]", shape="box"] ;
22 -> 23 ;
24 [label="gini = 0.4027\nsamples = 284\nvalue = [ 0.01039823  0.00403174]", shape="box"] ;
22 -> 24 ;
25 [label="dR_tau1_tau2 <= 1.4222\ngini = 0.49736671245\nsamples = 446", shape="box"] ;
21 -> 25 ;
26 [label="gini = 0.4925\nsamples = 196\nvalue = [ 0.00625527  0.00800399]", shape="box"] ;
25 -> 26 ;
27 [label="gini = 0.4600\nsamples = 250\nvalue = [ 0.00849619  0.00475127]", shape="box"] ;
25 -> 27 ;
28 [label="sum_pt_full <= 417128.4375\ngini = 0.498620929663\nsamples = 306", shape="box"] ;
20 -> 28 ;
29 [label="gini = 0.4713\nsamples = 123\nvalue = [ 0.00372536  0.00607244]", shape="box"] ;
28 -> 29 ;
30 [label="gini = 0.4923\nsamples = 183\nvalue = [ 0.00583948  0.00455273]", shape="box"] ;
28 -> 30 ;
31 [label="mmc1_mass <= 84.8830\ngini = 0.498645411607\nsamples = 1252", shape="box"] ;
17 -> 31 ;
32 [label="dR_tau1_tau2 <= 1.4544\ngini = 0.474709903651\nsamples = 450", shape="box"] ;
31 -> 32 ;
33 [label="gini = 0.4107\nsamples = 297\nvalue = [ 0.0079402   0.00322252]", shape="box"] ;
32 -> 33 ;
34 [label="gini = 0.5000\nsamples = 153\nvalue = [ 0.00492902  0.00492094]", shape="box"] ;
32 -> 34 ;
35 [label="mmc1_mass <= 86.8292\ngini = 0.499958826745\nsamples = 802", shape="box"] ;
31 -> 35 ;
36 [label="gini = 0.4604\nsamples = 117\nvalue = [ 0.00410851  0.00732885]", shape="box"] ;
35 -> 36 ;
37 [label="mmc1_mass <= 90.8959\ngini = 0.498438930853\nsamples = 685", shape="box"] ;
35 -> 37 ;
38 [label="MET_centrality <= 1.3532\ngini = 0.483265518414\nsamples = 321", shape="box"] ;
37 -> 38 ;
39 [label="gini = 0.5000\nsamples = 141\nvalue = [ 0.00502826  0.00505409]", shape="box"] ;
38 -> 39 ;
40 [label="gini = 0.4301\nsamples = 180\nvalue = [ 0.00673243  0.00306897]", shape="box"] ;
38 -> 40 ;
41 [label="sum_pt_full <= 230691.4531\ngini = 0.49942065046\nsamples = 364", shape="box"] ;
37 -> 41 ;
42 [label="gini = 0.4828\nsamples = 145\nvalue = [ 0.00532069  0.00774319]", shape="box"] ;
41 -> 42 ;
43 [label="gini = 0.4952\nsamples = 219\nvalue = [ 0.00825094  0.00678495]", shape="box"] ;
41 -> 43 ;
44 [label="mmc1_mass <= 110.1842\ngini = 0.494368826945\nsamples = 14180", shape="box"] ;
0 -> 44 ;
45 [label="dR_tau1_tau2 <= 0.8802\ngini = 0.499583970133\nsamples = 4447", shape="box"] ;
44 -> 45 ;
46 [label="gini = 0.4687\nsamples = 148\nvalue = [ 0.00652048  0.0039115 ]", shape="box"] ;
45 -> 46 ;
47 [label="sum_pt_full <= 325299.6562\ngini = 0.499264308002\nsamples = 4299", shape="box"] ;
45 -> 47 ;
48 [label="tau_pt_ratio <= 1.0513\ngini = 0.49997554968\nsamples = 3284", shape="box"] ;
47 -> 48 ;
49 [label="gini = 0.4764\nsamples = 156\nvalue = [ 0.00496562  0.00772233]", shape="box"] ;
48 -> 49 ;
50 [label="tau_pt_ratio <= 1.1816\ngini = 0.499988183128\nsamples = 3128", shape="box"] ;
48 -> 50 ;
51 [label="tau_pt_ratio <= 1.1371\ngini = 0.486023608884\nsamples = 364", shape="box"] ;
50 -> 51 ;
52 [label="dR_tau1_tau2 <= 1.5401\ngini = 0.496496851975\nsamples = 240", shape="box"] ;
51 -> 52 ;
53 [label="gini = 0.4775\nsamples = 120\nvalue = [ 0.00601248  0.00390714]", shape="box"] ;
52 -> 53 ;
54 [label="gini = 0.4989\nsamples = 120\nvalue = [ 0.00464146  0.00510102]", shape="box"] ;
52 -> 54 ;
55 [label="gini = 0.4452\nsamples = 124\nvalue = [ 0.00667102  0.00335348]", shape="box"] ;
51 -> 55 ;
56 [label="tau_pt_ratio <= 1.2386\ngini = 0.499803906066\nsamples = 2764", shape="box"] ;
50 -> 56 ;
57 [label="gini = 0.4054\nsamples = 149\nvalue = [ 0.00325506  0.00826452]", shape="box"] ;
56 -> 57 ;
58 [label="tau_pt_ratio <= 1.5455\ngini = 0.499980768143\nsamples = 2615", shape="box"] ;
56 -> 58 ;
59 [label="dR_tau1_tau2 <= 1.7395\ngini = 0.494247735566\nsamples = 744", shape="box"] ;
58 -> 59 ;
60 [label="MET_centrality <= 1.3471\ngini = 0.480588698735\nsamples = 573", shape="box"] ;
59 -> 60 ;
61 [label="sum_pt_full <= 252516.0781\ngini = 0.460468888319\nsamples = 420", shape="box"] ;
60 -> 61 ;
62 [label="dR_tau1_tau2 <= 1.5558\ngini = 0.437609483969\nsamples = 256", shape="box"] ;
61 -> 62 ;
63 [label="gini = 0.4680\nsamples = 116\nvalue = [ 0.00614322  0.00366383]", shape="box"] ;
62 -> 63 ;
64 [label="gini = 0.4006\nsamples = 140\nvalue = [ 0.00768384  0.00294455]", shape="box"] ;
62 -> 64 ;
65 [label="gini = 0.4889\nsamples = 164\nvalue = [ 0.00641572  0.00474905]", shape="box"] ;
61 -> 65 ;
66 [label="gini = 0.4998\nsamples = 153\nvalue = [ 0.00596392  0.00622191]", shape="box"] ;
60 -> 66 ;
67 [label="gini = 0.4806\nsamples = 171\nvalue = [ 0.00519233  0.0077365 ]", shape="box"] ;
59 -> 67 ;
68 [label="tau_pt_ratio <= 1.6302\ngini = 0.499244288536\nsamples = 1871", shape="box"] ;
58 -> 68 ;
69 [label="gini = 0.4678\nsamples = 173\nvalue = [ 0.00537682  0.00903063]", shape="box"] ;
68 -> 69 ;
70 [label="MET_centrality <= 0.7798\ngini = 0.499934622414\nsamples = 1698", shape="box"] ;
68 -> 70 ;
71 [label="sum_pt_full <= 254759.5312\ngini = 0.48080859269\nsamples = 264", shape="box"] ;
70 -> 71 ;
72 [label="gini = 0.4965\nsamples = 142\nvalue = [ 0.00475609  0.00562605]", shape="box"] ;
71 -> 72 ;
73 [label="gini = 0.4516\nsamples = 122\nvalue = [ 0.00347585  0.00661731]", shape="box"] ;
71 -> 73 ;
74 [label="sum_pt_full <= 290752.1250\ngini = 0.499564664286\nsamples = 1434", shape="box"] ;
70 -> 74 ;
75 [label="mmc1_mass <= 104.6518\ngini = 0.499982406971\nsamples = 1213", shape="box"] ;
74 -> 75 ;
76 [label="sum_pt_full <= 207815.3594\ngini = 0.497910406331\nsamples = 759", shape="box"] ;
75 -> 76 ;
77 [label="gini = 0.4643\nsamples = 202\nvalue = [ 0.00745454  0.00431133]", shape="box"] ;
76 -> 77 ;
78 [label="MET_centrality <= 1.1254\ngini = 0.499990125756\nsamples = 557", shape="box"] ;
76 -> 78 ;
79 [label="gini = 0.4888\nsamples = 168\nvalue = [ 0.00760561  0.00562512]", shape="box"] ;
78 -> 79 ;
80 [label="dR_tau1_tau2 <= 1.6243\ngini = 0.497653980565\nsamples = 389", shape="box"] ;
78 -> 80 ;
81 [label="gini = 0.4997\nsamples = 220\nvalue = [ 0.00735692  0.00701744]", shape="box"] ;
80 -> 81 ;
82 [label="gini = 0.4840\nsamples = 169\nvalue = [ 0.0049134   0.00705749]", shape="box"] ;
80 -> 82 ;
83 [label="tau_pt_ratio <= 1.9835\ngini = 0.489865858174\nsamples = 454", shape="box"] ;
75 -> 83 ;
84 [label="gini = 0.4467\nsamples = 165\nvalue = [ 0.00348742  0.00686893]", shape="box"] ;
83 -> 84 ;
85 [label="gini = 0.4997\nsamples = 289\nvalue = [ 0.00790169  0.00830135]", shape="box"] ;
83 -> 85 ;
86 [label="gini = 0.4754\nsamples = 221\nvalue = [ 0.00877146  0.00558704]", shape="box"] ;
74 -> 86 ;
87 [label="dR_tau1_tau2 <= 1.5131\ngini = 0.489074990711\nsamples = 1015", shape="box"] ;
47 -> 87 ;
88 [label="MET_centrality <= 0.7636\ngini = 0.479692206903\nsamples = 875", shape="box"] ;
87 -> 88 ;
89 [label="gini = 0.4990\nsamples = 189\nvalue = [ 0.00680968  0.00744872]", shape="box"] ;
88 -> 89 ;
90 [label="dR_tau1_tau2 <= 1.1793\ngini = 0.468076020151\nsamples = 686", shape="box"] ;
88 -> 90 ;
91 [label="dR_tau1_tau2 <= 1.0548\ngini = 0.486069183038\nsamples = 424", shape="box"] ;
90 -> 91 ;
92 [label="gini = 0.4539\nsamples = 253\nvalue = [ 0.00527981  0.00988397]", shape="box"] ;
91 -> 92 ;
93 [label="gini = 0.4997\nsamples = 171\nvalue = [ 0.00556012  0.00529977]", shape="box"] ;
91 -> 93 ;
94 [label="gini = 0.4282\nsamples = 262\nvalue = [ 0.00548392  0.01217885]", shape="box"] ;
90 -> 94 ;
95 [label="gini = 0.4875\nsamples = 140\nvalue = [ 0.00589535  0.00428811]", shape="box"] ;
87 -> 95 ;
96 [label="mmc1_mass <= 148.1710\ngini = 0.486228714864\nsamples = 9733", shape="box"] ;
44 -> 96 ;
97 [label="dR_tau1_tau2 <= 1.6115\ngini = 0.481513953926\nsamples = 9033", shape="box"] ;
96 -> 97 ;
98 [label="sum_pt_full <= 438955.9375\ngini = 0.467127660559\nsamples = 4866", shape="box"] ;
97 -> 98 ;
99 [label="sum_pt_full <= 410572.9375\ngini = 0.474954049114\nsamples = 3812", shape="box"] ;
98 -> 99 ;
100 [label="sum_pt_full <= 351348.2812\ngini = 0.467743218342\nsamples = 3494", shape="box"] ;
99 -> 100 ;
101 [label="mmc1_mass <= 118.9436\ngini = 0.477506589053\nsamples = 2508", shape="box"] ;
100 -> 101 ;
102 [label="dR_tau1_tau2 <= 1.4871\ngini = 0.489806825343\nsamples = 1102", shape="box"] ;
101 -> 102 ;
103 [label="mmc1_mass <= 114.3617\ngini = 0.498436066943\nsamples = 767", shape="box"] ;
102 -> 103 ;
104 [label="gini = 0.4856\nsamples = 386\nvalue = [ 0.00739474  0.01042141]", shape="box"] ;
103 -> 104 ;
105 [label="gini = 0.4976\nsamples = 381\nvalue = [ 0.00867178  0.0075487 ]", shape="box"] ;
103 -> 105 ;
106 [label="gini = 0.4501\nsamples = 335\nvalue = [ 0.00583374  0.0112257 ]", shape="box"] ;
102 -> 106 ;
107 [label="mmc1_mass <= 123.7722\ngini = 0.44949947104\nsamples = 1406", shape="box"] ;
101 -> 107 ;
108 [label="gini = 0.3433\nsamples = 476\nvalue = [ 0.00230859  0.00818156]", shape="box"] ;
107 -> 108 ;
109 [label="tau_pt_ratio <= 1.8055\ngini = 0.478472822285\nsamples = 930", shape="box"] ;
107 -> 109 ;
110 [label="gini = 0.4507\nsamples = 637\nvalue = [ 0.00455263  0.00872053]", shape="box"] ;
109 -> 110 ;
111 [label="gini = 0.4981\nsamples = 293\nvalue = [ 0.00456826  0.00517648]", shape="box"] ;
109 -> 111 ;
112 [label="MET_centrality <= 1.3044\ngini = 0.421795366616\nsamples = 986", shape="box"] ;
100 -> 112 ;
113 [label="gini = 0.3415\nsamples = 675\nvalue = [ 0.00333287  0.01192329]", shape="box"] ;
112 -> 113 ;
114 [label="gini = 0.4910\nsamples = 311\nvalue = [ 0.00423883  0.00555556]", shape="box"] ;
112 -> 114 ;
115 [label="gini = 0.4968\nsamples = 318\nvalue = [ 0.00588333  0.00501216]", shape="box"] ;
99 -> 115 ;
116 [label="dR_tau1_tau2 <= 1.0237\ngini = 0.421026083536\nsamples = 1054", shape="box"] ;
98 -> 116 ;
117 [label="gini = 0.4599\nsamples = 540\nvalue = [ 0.00499707  0.0089472 ]", shape="box"] ;
116 -> 117 ;
118 [label="gini = 0.3690\nsamples = 514\nvalue = [ 0.00339793  0.01052164]", shape="box"] ;
116 -> 118 ;
119 [label="sum_pt_full <= 389843.7812\ngini = 0.489041415636\nsamples = 4167", shape="box"] ;
97 -> 119 ;
120 [label="tau_pt_ratio <= 1.1159\ngini = 0.487087760511\nsamples = 4012", shape="box"] ;
119 -> 120 ;
121 [label="MET_centrality <= 1.2907\ngini = 0.441742334873\nsamples = 427", shape="box"] ;
120 -> 121 ;
122 [label="gini = 0.3295\nsamples = 246\nvalue = [ 0.00224389  0.00854363]", shape="box"] ;
121 -> 122 ;
123 [label="gini = 0.4971\nsamples = 181\nvalue = [ 0.00455608  0.0053044 ]", shape="box"] ;
121 -> 123 ;
124 [label="sum_pt_full <= 214444.0000\ngini = 0.490128303212\nsamples = 3585", shape="box"] ;
120 -> 124 ;
125 [label="MET_centrality <= 1.3856\ngini = 0.498834009494\nsamples = 1105", shape="box"] ;
124 -> 125 ;
126 [label="sum_pt_full <= 178824.9062\ngini = 0.495346295413\nsamples = 909", shape="box"] ;
125 -> 126 ;
127 [label="gini = 0.4974\nsamples = 182\nvalue = [ 0.00666812  0.00576736]", shape="box"] ;
126 -> 127 ;
128 [label="sum_pt_full <= 197438.4375\ngini = 0.489308118822\nsamples = 727", shape="box"] ;
126 -> 128 ;
129 [label="gini = 0.4431\nsamples = 279\nvalue = [ 0.00484134  0.00976876]", shape="box"] ;
128 -> 129 ;
130 [label="dR_tau1_tau2 <= 2.0386\ngini = 0.498981807607\nsamples = 448", shape="box"] ;
128 -> 130 ;
131 [label="gini = 0.4883\nsamples = 329\nvalue = [ 0.00754108  0.01027116]", shape="box"] ;
130 -> 131 ;
132 [label="gini = 0.4885\nsamples = 119\nvalue = [ 0.00563826  0.00415387]", shape="box"] ;
130 -> 132 ;
133 [label="gini = 0.4906\nsamples = 196\nvalue = [ 0.00807573  0.00612838]", shape="box"] ;
125 -> 133 ;
134 [label="dR_tau1_tau2 <= 1.6412\ngini = 0.48092924318\nsamples = 2480", shape="box"] ;
124 -> 134 ;
135 [label="gini = 0.4885\nsamples = 187\nvalue = [ 0.00574711  0.00423133]", shape="box"] ;
134 -> 135 ;
136 [label="sum_pt_full <= 236941.8438\ngini = 0.474006252776\nsamples = 2293", shape="box"] ;
134 -> 136 ;
137 [label="mmc1_mass <= 118.3902\ngini = 0.414815753374\nsamples = 714", shape="box"] ;
136 -> 137 ;
138 [label="gini = 0.4691\nsamples = 206\nvalue = [ 0.00371664  0.00617495]", shape="box"] ;
137 -> 138 ;
139 [label="gini = 0.3730\nsamples = 508\nvalue = [ 0.00442141  0.01340314]", shape="box"] ;
137 -> 139 ;
140 [label="tau_pt_ratio <= 1.9748\ngini = 0.486791876788\nsamples = 1579", shape="box"] ;
136 -> 140 ;
141 [label="mmc1_mass <= 133.0699\ngini = 0.497562093107\nsamples = 725", shape="box"] ;
140 -> 141 ;
142 [label="mmc1_mass <= 119.7307\ngini = 0.48895027742\nsamples = 483", shape="box"] ;
141 -> 142 ;
143 [label="gini = 0.4974\nsamples = 164\nvalue = [ 0.00642244  0.00555599]", shape="box"] ;
142 -> 143 ;
144 [label="gini = 0.4442\nsamples = 319\nvalue = [ 0.00475421  0.00952393]", shape="box"] ;
142 -> 144 ;
145 [label="gini = 0.4973\nsamples = 242\nvalue = [ 0.00778104  0.00672404]", shape="box"] ;
141 -> 145 ;
146 [label="sum_pt_full <= 283007.8125\ngini = 0.465296179437\nsamples = 854", shape="box"] ;
140 -> 146 ;
147 [label="gini = 0.4181\nsamples = 479\nvalue = [ 0.00508357  0.01199462]", shape="box"] ;
146 -> 147 ;
148 [label="MET_centrality <= 1.1151\ngini = 0.489484379543\nsamples = 375", shape="box"] ;
146 -> 148 ;
149 [label="gini = 0.5000\nsamples = 170\nvalue = [ 0.00505467  0.00496476]", shape="box"] ;
148 -> 149 ;
150 [label="gini = 0.4567\nsamples = 205\nvalue = [ 0.00365069  0.00669382]", shape="box"] ;
148 -> 150 ;
151 [label="gini = 0.4929\nsamples = 155\nvalue = [ 0.0054494   0.00429214]", shape="box"] ;
119 -> 151 ;
152 [label="MET_centrality <= 0.9290\ngini = 0.498902777015\nsamples = 700", shape="box"] ;
96 -> 152 ;
153 [label="gini = 0.4450\nsamples = 158\nvalue = [ 0.00751069  0.00377024]", shape="box"] ;
152 -> 153 ;
154 [label="mmc1_mass <= 167.6081\ngini = 0.49882373477\nsamples = 542", shape="box"] ;
152 -> 154 ;
155 [label="MET_centrality <= 1.3156\ngini = 0.486467671882\nsamples = 377", shape="box"] ;
154 -> 155 ;
156 [label="gini = 0.4478\nsamples = 205\nvalue = [ 0.00410361  0.00801945]", shape="box"] ;
155 -> 156 ;
157 [label="gini = 0.5000\nsamples = 172\nvalue = [ 0.00576412  0.00573434]", shape="box"] ;
155 -> 157 ;
158 [label="gini = 0.4750\nsamples = 165\nvalue = [ 0.00615892  0.00390679]", shape="box"] ;
154 -> 158 ;
}