digraph Tree {
0 [label="tau2_centrality <= 0.9525\ngini = 0.499999999717\nsamples = 15158", shape="box"] ;
1 [label="vector_sum_pt <= 4587.3765\ngini = 0.499860512273\nsamples = 10570", shape="box"] ;
0 -> 1 ;
2 [label="gini = 0.4949\nsamples = 4137\nvalue = [ 0.11034183  0.09003545]", shape="box"] ;
1 -> 2 ;
3 [label="eta_product_jets <= -0.9573\ngini = 0.499934720155\nsamples = 6433", shape="box"] ;
1 -> 3 ;
4 [label="vector_sum_pt <= 28661.4727\ngini = 0.499272628002\nsamples = 4898", shape="box"] ;
3 -> 4 ;
5 [label="gini = 0.4993\nsamples = 2746\nvalue = [ 0.09425808  0.10150497]", shape="box"] ;
4 -> 5 ;
6 [label="gini = 0.4938\nsamples = 2152\nvalue = [ 0.11106732  0.0887332 ]", shape="box"] ;
4 -> 6 ;
7 [label="gini = 0.4944\nsamples = 1535\nvalue = [ 0.09269243  0.11466885]", shape="box"] ;
3 -> 7 ;
8 [label="gini = 0.4977\nsamples = 4588\nvalue = [ 0.09165224  0.10504564]", shape="box"] ;
0 -> 8 ;
}