digraph Tree {
0 [label="mmc1_mass <= 87.4602\ngini = 0.499999999933\nsamples = 15158", shape="box"] ;
1 [label="gini = 0.4986\nsamples = 1897\nvalue = [ 0.10021118  0.09005906]", shape="box"] ;
0 -> 1 ;
2 [label="dR_tau1_tau2 <= 1.5010\ngini = 0.499921583046\nsamples = 13261", shape="box"] ;
0 -> 2 ;
3 [label="gini = 0.4939\nsamples = 5418\nvalue = [ 0.10228414  0.12761082]", shape="box"] ;
2 -> 3 ;
4 [label="eta_product_jets <= -1.3624\ngini = 0.499657028588\nsamples = 7843", shape="box"] ;
2 -> 4 ;
5 [label="gini = 0.4969\nsamples = 5964\nvalue = [ 0.18075485  0.15449814]", shape="box"] ;
4 -> 5 ;
6 [label="gini = 0.4990\nsamples = 1879\nvalue = [ 0.11675564  0.12782618]", shape="box"] ;
4 -> 6 ;
}