digraph Tree {
0 [label="vector_sum_pt <= 14493.4961\ngini = 0.499999999941\nsamples = 15158", shape="box"] ;
1 [label="eta_product_jets <= -1.6611\ngini = 0.499630460761\nsamples = 8430", shape="box"] ;
0 -> 1 ;
2 [label="gini = 0.4996\nsamples = 6225\nvalue = [ 0.10128603  0.10724671]", shape="box"] ;
1 -> 2 ;
3 [label="gini = 0.4961\nsamples = 2205\nvalue = [ 0.10299368  0.08621987]", shape="box"] ;
1 -> 3 ;
4 [label="mmc1_mass <= 99.0707\ngini = 0.499839141428\nsamples = 6728", shape="box"] ;
0 -> 4 ;
5 [label="gini = 0.4961\nsamples = 1952\nvalue = [ 0.11312717  0.13492738]", shape="box"] ;
4 -> 5 ;
6 [label="gini = 0.4995\nsamples = 4776\nvalue = [ 0.18259853  0.17160062]", shape="box"] ;
4 -> 6 ;
}