digraph Tree {
0 [label="mmc1_mass <= 110.1137\ngini = 0.499997335507\nsamples = 15158", shape="box"] ;
1 [label="MET_centrality <= 1.0707\ngini = 0.49095181252\nsamples = 6563", shape="box"] ;
0 -> 1 ;
2 [label="gini = 0.4368\nsamples = 2328\nvalue = [ 0.17195368  0.08174727]", shape="box"] ;
1 -> 2 ;
3 [label="gini = 0.4999\nsamples = 4235\nvalue = [ 0.18208389  0.18833233]", shape="box"] ;
1 -> 3 ;
4 [label="gini = 0.4737\nsamples = 8595\nvalue = [ 0.1448082   0.23107463]", shape="box"] ;
0 -> 4 ;
}