digraph Tree {
0 [label="vector_sum_pt <= 43929.1250\ngini = 0.49999999999\nsamples = 15158", shape="box"] ;
1 [label="mmc1_mass <= 95.9182\ngini = 0.49994266486\nsamples = 13116", shape="box"] ;
0 -> 1 ;
2 [label="gini = 0.4993\nsamples = 2608\nvalue = [ 0.14630733  0.13612366]", shape="box"] ;
1 -> 2 ;
3 [label="vector_sum_pt <= 7833.0688\ngini = 0.499306354587\nsamples = 10508", shape="box"] ;
1 -> 3 ;
4 [label="gini = 0.4950\nsamples = 6268\nvalue = [ 0.09467476  0.11562516]", shape="box"] ;
3 -> 4 ;
5 [label="gini = 0.5000\nsamples = 4240\nvalue = [ 0.14490893  0.14249623]", shape="box"] ;
3 -> 5 ;
6 [label="gini = 0.4993\nsamples = 2042\nvalue = [ 0.1141067   0.10575724]", shape="box"] ;
0 -> 6 ;
}