digraph Tree {
0 [label="mmc1_mass <= 87.4602\ngini = 0.499999999999\nsamples = 15158", shape="box"] ;
1 [label="gini = 0.4979\nsamples = 1897\nvalue = [ 0.10329514  0.09070321]", shape="box"] ;
0 -> 1 ;
2 [label="dR_tau1_tau2 <= 1.5010\ngini = 0.499877942545\nsamples = 13261", shape="box"] ;
0 -> 2 ;
3 [label="gini = 0.4902\nsamples = 5418\nvalue = [ 0.09901025  0.13127605]", shape="box"] ;
2 -> 3 ;
4 [label="eta_product_jets <= -1.3624\ngini = 0.49941617644\nsamples = 7843", shape="box"] ;
2 -> 4 ;
5 [label="gini = 0.4958\nsamples = 5964\nvalue = [ 0.18191843  0.15139276]", shape="box"] ;
4 -> 5 ;
6 [label="gini = 0.4990\nsamples = 1879\nvalue = [ 0.1157756   0.12662858]", shape="box"] ;
4 -> 6 ;
}