digraph Tree {
0 [label="dR_tau1_tau2 <= 1.5008\ngini = 0.499999999977\nsamples = 15158", shape="box"] ;
1 [label="gini = 0.4995\nsamples = 6450\nvalue = [ 0.15623674  0.16611802]", shape="box"] ;
0 -> 1 ;
2 [label="mmc1_mass <= 106.3810\ngini = 0.499893830224\nsamples = 8708", shape="box"] ;
0 -> 2 ;
3 [label="gini = 0.4996\nsamples = 3036\nvalue = [ 0.16299926  0.1724843 ]", shape="box"] ;
2 -> 3 ;
4 [label="gini = 0.4984\nsamples = 5672\nvalue = [ 0.18076064  0.16140103]", shape="box"] ;
2 -> 4 ;
}