digraph Tree {
0 [label="dR_tau1_tau2 <= 1.3015\ngini = 0.499999998643\nsamples = 15158", shape="box"] ;
1 [label="gini = 0.4977\nsamples = 3964\nvalue = [ 0.1010941   0.08817772]", shape="box"] ;
0 -> 1 ;
2 [label="mmc1_mass <= 92.6000\ngini = 0.499874109913\nsamples = 11194", shape="box"] ;
0 -> 2 ;
3 [label="gini = 0.4901\nsamples = 1717\nvalue = [ 0.09228214  0.12242799]", shape="box"] ;
2 -> 3 ;
4 [label="vector_sum_pt <= 7833.0688\ngini = 0.499579644479\nsamples = 9477", shape="box"] ;
2 -> 4 ;
5 [label="gini = 0.4972\nsamples = 5023\nvalue = [ 0.0962907   0.11200617]", shape="box"] ;
4 -> 5 ;
6 [label="mass_jet1_jet2 <= 339063.8750\ngini = 0.49637856718\nsamples = 4454", shape="box"] ;
4 -> 6 ;
7 [label="gini = 0.4999\nsamples = 1296\nvalue = [ 0.09880358  0.09667451]", shape="box"] ;
6 -> 7 ;
8 [label="gini = 0.4871\nsamples = 3158\nvalue = [ 0.11155552  0.08068757]", shape="box"] ;
6 -> 8 ;
}