digraph Tree {
0 [label="vector_sum_pt <= 43929.1250\ngini = 0.499999999991\nsamples = 15158", shape="box"] ;
1 [label="mmc1_mass <= 95.9182\ngini = 0.499937984816\nsamples = 13116", shape="box"] ;
0 -> 1 ;
2 [label="gini = 0.4992\nsamples = 2608\nvalue = [ 0.14686331  0.13583472]", shape="box"] ;
1 -> 2 ;
3 [label="vector_sum_pt <= 7833.0688\ngini = 0.499215518056\nsamples = 10508", shape="box"] ;
1 -> 3 ;
4 [label="gini = 0.4941\nsamples = 6268\nvalue = [ 0.093785    0.11672689]", shape="box"] ;
3 -> 4 ;
5 [label="gini = 0.4999\nsamples = 4240\nvalue = [ 0.14530632  0.14208652]", shape="box"] ;
3 -> 5 ;
6 [label="gini = 0.4992\nsamples = 2042\nvalue = [ 0.11404752  0.10534972]", shape="box"] ;
0 -> 6 ;
}