digraph Tree {
0 [label="dEta_jets <= 2.3612\ngini = 0.49999999998\nsamples = 15158", shape="box"] ;
1 [label="gini = 0.4987\nsamples = 1503\nvalue = [ 0.0989052   0.08943641]", shape="box"] ;
0 -> 1 ;
2 [label="eta_product_jets <= -1.0904\ngini = 0.499932043576\nsamples = 13655", shape="box"] ;
0 -> 2 ;
3 [label="tau1_centrality <= 0.8185\ngini = 0.499969349324\nsamples = 11754", shape="box"] ;
2 -> 3 ;
4 [label="gini = 0.4986\nsamples = 4114\nvalue = [ 0.15446549  0.13873307]", shape="box"] ;
3 -> 4 ;
5 [label="gini = 0.4994\nsamples = 7640\nvalue = [ 0.15817768  0.16905244]", shape="box"] ;
3 -> 5 ;
6 [label="gini = 0.4972\nsamples = 1901\nvalue = [ 0.08845481  0.10277491]", shape="box"] ;
2 -> 6 ;
}