digraph Tree {
0 [label="mmc1_mass <= 111.3136\ngini = 0.499999999972\nsamples = 15158", shape="box"] ;
1 [label="dR_tau1_tau2 <= 1.4518\ngini = 0.499783086341\nsamples = 6938", shape="box"] ;
0 -> 1 ;
2 [label="gini = 0.4900\nsamples = 2822\nvalue = [ 0.13038831  0.09812213]", shape="box"] ;
1 -> 2 ;
3 [label="mmc1_mass <= 96.1516\ngini = 0.498996960551\nsamples = 4116", shape="box"] ;
1 -> 3 ;
4 [label="gini = 0.4921\nsamples = 1772\nvalue = [ 0.09872159  0.12701423]", shape="box"] ;
3 -> 4 ;
5 [label="gini = 0.4988\nsamples = 2344\nvalue = [ 0.10148811  0.0919709 ]", shape="box"] ;
3 -> 5 ;
6 [label="gini = 0.4993\nsamples = 8220\nvalue = [ 0.16940573  0.18288899]", shape="box"] ;
0 -> 6 ;
}