digraph Tree {
0 [label="tau1_centrality <= 0.3039\ngini = 0.499999999955\nsamples = 15158", shape="box"] ;
1 [label="gini = 0.4966\nsamples = 1472\nvalue = [ 0.10911626  0.0924601 ]", shape="box"] ;
0 -> 1 ;
2 [label="mmc1_mass <= 116.0887\ngini = 0.499782650745\nsamples = 13686", shape="box"] ;
0 -> 2 ;
3 [label="MET_centrality <= 1.2977\ngini = 0.499948583869\nsamples = 7480", shape="box"] ;
2 -> 3 ;
4 [label="gini = 0.4984\nsamples = 4562\nvalue = [ 0.19717718  0.17593657]", shape="box"] ;
3 -> 4 ;
5 [label="gini = 0.4971\nsamples = 2918\nvalue = [ 0.09396239  0.1093576 ]", shape="box"] ;
3 -> 5 ;
6 [label="gini = 0.4949\nsamples = 6206\nvalue = [ 0.09974891  0.12224098]", shape="box"] ;
2 -> 6 ;
}